{"learner":{"attributes":{},"feature_names":[],"feature_types":[],"gradient_booster":{"model":{"cats":{"enc":[],"feature_segments":[],"sorted_idx":[]},"gbtree_model_param":{"num_parallel_tree":"1","num_trees":"100"},"iteration_indptr":[0,1,2,3,4,5,6,7,8,9,10,11,12,13,14,15,16,17,18,19,20,21,22,23,24,25,26,27,28,29,30,31,32,33,34,35,36,37,38,39,40,41,42,43,44,45,46,47,48,49,50,51,52,53,54,55,56,57,58,59,60,61,62,63,64,65,66,67,68,69,70,71,72,73,74,75,76,77,78,79,80,81,82,83,84,85,86,87,88,89,90,91,92,93,94,95,96,97,98,99,100],"tree_info":[0,0,0,0,0,0,0,0,0,0,0,0,0,0,0,0,0,0,0,0,0,0,0,0,0,0,0,0,0,0,0,0,0,0,0,0,0,0,0,0,0,0,0,0,0,0,0,0,0,0,0,0,0,0,0,0,0,0,0,0,0,0,0,0,0,0,0,0,0,0,0,0,0,0,0,0,0,0,0,0,0,0,0,0,0,0,0,0,0,0,0,0,0,0,0,0,0,0,0,0],"trees":[{"base_weights":[-5.2058212E-2,5.65249E-2,-4.6034503E-1,-6.568438E-2,9.684858E-4],"categories":[],"categories_nodes":[],"categories_segments":[],"categories_sizes":[],"default_left":[0,0,0,0,0],"id":0,"left_children":[1,-1,3,-1,-1],"loss_changes":[1.7511809E0,0E0,3.8612717E-1,0E0,0E0],"parents":[2147483647,0,0,2,2],"right_children":[2,-1,4,-1,-1],"split_conditions":[-4.7E-1,5.65249E-2,3E0,-6.568438E-2,9.684858E-4],"split_indices":[0,0,4,0,0],"split_type":[0,0,0,0,0],"sum_hessian":[4.915652E0,1.8038654E0,3.1117864E0,1.9141245E0,1.197662E0],"tree_param":{"num_deleted":"0","num_feature":"26","num_nodes":"5","size_leaf_vector":"1"}},{"base_weights":[-1.2468312E-1,3.1845155E-1,-8.437644E-2,1.051182E-2,7.873387E-2,3.231903E-1,-6.805291E-2,1.4949198E-1,5.66684E-2,-1.0917257E-1,5.4540124E-2,2.0196058E-2,-5.0559234E-2],"categories":[],"categories_nodes":[],"categories_segments":[],"categories_sizes":[],"default_left":[0,0,0,0,0,0,0,0,0,0,0,0,0],"id":1,"left_children":[1,3,-1,5,-1,7,-1,9,-1,11,-1,-1,-1],"loss_changes":[6.721625E0,1.905673E0,0E0,2.1677277E0,0E0,2.0645231E-1,0E0,6.101208E-1,0E0,6.0595244E-1,0E0,0E0,0E0],"parents":[2147483647,0,0,1,1,3,3,5,5,7,7,9,9],"right_children":[2,4,-1,6,-1,8,-1,10,-1,12,-1,-1,-1],"split_conditions":[0E0,1E0,-8.437644E-2,1E0,7.873387E-2,1E0,-6.805291E-2,1E0,5.66684E-2,-3.21E0,5.4540124E-2,2.0196058E-2,-5.0559234E-2],"split_indices":[0,3,0,22,0,11,0,21,0,0,0,0,0],"split_type":[0,0,0,0,0,0,0,0,0,0,0,0,0],"sum_hessian":[1.9250837E1,1.2255507E1,6.99533E0,8.014461E0,4.2410464E0,5.884285E0,2.1301758E0,4.3763347E0,1.5079503E0,3.085012E0,1.2913226E0,2.0032692E0,1.0817428E0],"tree_param":{"num_deleted":"0","num_feature":"26","num_nodes":"13","size_leaf_vector":"1"}},{"base_weights":[-1.4819225E-2,5.210708E-1,-8.127637E-2,5.9279114E-1,2.2318414E-3,7.071777E-2,2.0384837E-2],"categories":[],"categories_nodes":[],"categories_segments":[],"categories_sizes":[],"default_left":[0,0,0,0,0,0,0],"id":2,"left_children":[1,3,-1,5,-1,-1,-1],"loss_changes":[7.7813773E0,3.7678242E-1,0E0,2.7819514E-1,0E0,0E0,0E0],"parents":[2147483647,0,0,1,1,3,3],"right_children":[2,4,-1,6,-1,-1,-1],"split_conditions":[0E0,-4.3E-1,-8.127637E-2,1E0,2.2318414E-3,7.071777E-2,2.0384837E-2],"split_indices":[0,0,0,22,0,0,0],"split_type":[0,0,0,0,0,0,0],"sum_hessian":[1.6206947E1,9.903116E0,6.3038306E0,8.493242E0,1.4098732E0,5.930811E0,2.5624316E0],"tree_param":{"num_deleted":"0","num_feature":"26","num_nodes":"7","size_leaf_vector":"1"}},{"base_weights":[7.666861E-2,5.949338E-1,-3.193208E-1,3.0009547E-2,7.070715E-2,-6.950106E-2,2.8801821E-2,3.00857E-1,-5.7516646E-2,-2.47451E-2,6.990391E-2],"categories":[],"categories_nodes":[],"categories_segments":[],"categories_sizes":[],"default_left":[0,0,0,0,0,0,0,0,0,0,0],"id":3,"left_children":[1,3,5,-1,-1,-1,7,9,-1,-1,-1],"loss_changes":[3.800021E0,5.125904E-2,1.4092625E0,0E0,0E0,0E0,1.2367411E0,1.2907567E0,0E0,0E0,0E0],"parents":[2147483647,0,0,1,1,2,2,6,6,7,7],"right_children":[2,4,6,-1,-1,-1,8,10,-1,-1,-1],"split_conditions":[-4.3E-1,-5.1E-1,3E0,3.0009547E-2,7.070715E-2,-6.950106E-2,1.97E0,1.1E-1,-5.7516646E-2,-2.47451E-2,6.990391E-2],"split_indices":[0,0,4,0,0,0,0,0,0,0,0],"split_type":[0,0,0,0,0,0,0,0,0,0,0],"sum_hessian":[1.6590458E1,6.968191E0,9.622267E0,2.9329238E0,4.035268E0,4.148645E0,5.4736214E0,4.1197586E0,1.3538631E0,1.8924077E0,2.2273507E0],"tree_param":{"num_deleted":"0","num_feature":"26","num_nodes":"11","size_leaf_vector":"1"}},{"base_weights":[-4.288118E-2,-4.1764724E-1,4.401335E-1,-4.6739522E-2,-1.1110198E-2,5.9494752E-2,1.865453E-1,-3.2189284E-2,5.0675716E-2],"categories":[],"categories_nodes":[],"categories_segments":[],"categories_sizes":[],"default_left":[0,0,0,0,0,0,0,0,0],"id":4,"left_children":[1,3,5,-1,-1,-1,7,-1,-1],"loss_changes":[2.5700119E0,6.90943E-2,1.3423407E-1,0E0,0E0,0E0,7.857839E-1,0E0,0E0],"parents":[2147483647,0,0,1,1,2,2,6,6],"right_children":[2,4,6,-1,-1,-1,8,-1,-1],"split_conditions":[1E0,1E0,1E0,-4.6739522E-2,-1.1110198E-2,5.9494752E-2,1E0,-3.2189284E-2,5.0675716E-2],"split_indices":[8,21,2,0,0,0,23,0,0],"split_type":[0,0,0,0,0,0,0,0,0],"sum_hessian":[1.2182103E1,6.935924E0,5.246179E0,5.5160317E0,1.4198923E0,2.4216566E0,2.8245225E0,1.0894401E0,1.7350825E0],"tree_param":{"num_deleted":"0","num_feature":"26","num_nodes":"9","size_leaf_vector":"1"}},{"base_weights":[-2.8802888E-2,-2.315562E-1,3.1312045E-1,2.497399E-2,-5.9428066E-2,5.00745E-2,1.0700378E-2,1.9459237E-1,-4.158555E-2,3.216889E-2,-1.0350414E-2],"categories":[],"categories_nodes":[],"categories_segments":[],"categories_sizes":[],"default_left":[0,0,0,0,0,0,0,0,0,0,0],"id":5,"left_children":[1,3,5,7,-1,-1,-1,9,-1,-1,-1],"loss_changes":[1.0199136E0,8.665962E-1,1.5958995E-1,5.535927E-1,0E0,0E0,0E0,2.3205869E-1,0E0,0E0,0E0],"parents":[2147483647,0,0,1,1,2,2,3,3,7,7],"right_children":[2,4,6,8,-1,-1,-1,10,-1,-1,-1],"split_conditions":[1E0,1E0,5E-1,1E0,-5.9428066E-2,5.00745E-2,1.0700378E-2,1E0,-4.158555E-2,3.216889E-2,-1.0350414E-2],"split_indices":[8,3,4,10,0,0,0,1,0,0,0],"split_type":[0,0,0,0,0,0,0,0,0,0,0],"sum_hessian":[1.2665973E1,8.153752E0,4.51222E0,5.321423E0,2.8323298E0,1.6137896E0,2.89843E0,4.246189E0,1.0752336E0,2.9214537E0,1.3247355E0],"tree_param":{"num_deleted":"0","num_feature":"26","num_nodes":"11","size_leaf_vector":"1"}},{"base_weights":[-1.6363252E-2,2.4659796E-1,-2.671103E-1,-2.7195504E-3,3.8588848E-2,-5.7809442E-2,3.536946E-2],"categories":[],"categories_nodes":[],"categories_segments":[],"categories_sizes":[],"default_left":[0,0,0,0,0,0,0],"id":6,"left_children":[1,3,5,-1,-1,-1,-1],"loss_changes":[6.8425035E-1,2.049036E-1,1.2239691E0,0E0,0E0,0E0,0E0],"parents":[2147483647,0,0,1,1,2,2],"right_children":[2,4,6,-1,-1,-1,-1],"split_conditions":[0E0,-5.1E-1,3E0,-2.7195504E-3,3.8588848E-2,-5.7809442E-2,3.536946E-2],"split_indices":[0,0,4,0,0,0,0],"split_type":[0,0,0,0,0,0,0],"sum_hessian":[8.378406E0,4.0976753E0,4.2807302E0,1.6530836E0,2.4445918E0,2.8978758E0,1.3828547E0],"tree_param":{"num_deleted":"0","num_feature":"26","num_nodes":"7","size_leaf_vector":"1"}},{"base_weights":[4.1093733E-3,3.1084058E-1,-3.1793568E-1,1.13419265E-1,5.0446164E-2,-5.977465E-2,1.7166128E-2,-1.8988712E-2,4.3816894E-2],"categories":[],"categories_nodes":[],"categories_segments":[],"categories_sizes":[],"default_left":[0,0,0,0,0,0,0,0,0],"id":7,"left_children":[1,3,5,7,-1,-1,-1,-1,-1],"loss_changes":[1.1942264E0,1.7921501E-1,9.114103E-1,5.119291E-1,0E0,0E0,0E0,0E0,0E0],"parents":[2147483647,0,0,1,1,2,2,3,3],"right_children":[2,4,6,8,-1,-1,-1,-1,-1],"split_conditions":[-4.3E-1,1E0,1.88E0,1E0,5.0446164E-2,-5.977465E-2,1.7166128E-2,-1.8988712E-2,4.3816894E-2],"split_indices":[0,3,0,23,0,0,0,0,0],"split_type":[0,0,0,0,0,0,0,0,0],"sum_hessian":[1.0089137E1,5.1852484E0,4.9038887E0,3.352613E0,1.8326355E0,2.9799275E0,1.9239612E0,1.9482696E0,1.4043434E0],"tree_param":{"num_deleted":"0","num_feature":"26","num_nodes":"9","size_leaf_vector":"1"}},{"base_weights":[2.4838785E-2,2.9188102E-1,-2.4146096E-1,3.758729E-1,7.0752143E-3,-5.508524E-2,2.726366E-2,4.4749465E-2,1.1508844E-2],"categories":[],"categories_nodes":[],"categories_segments":[],"categories_sizes":[],"default_left":[0,0,0,0,0,0,0,0,0],"id":8,"left_children":[1,3,5,7,-1,-1,-1,-1,-1],"loss_changes":[7.192916E-1,6.642386E-2,9.6383274E-1,1.1960179E-2,0E0,0E0,0E0,0E0,0E0],"parents":[2147483647,0,0,1,1,2,2,3,3],"right_children":[2,4,6,8,-1,-1,-1,-1,-1],"split_conditions":[0E0,1E0,1E0,-4.7E-1,7.0752143E-3,-5.508524E-2,2.726366E-2,4.4749465E-2,1.1508844E-2],"split_indices":[0,4,2,0,0,0,0,0,0],"split_type":[0,0,0,0,0,0,0,0,0],"sum_hessian":[8.123665E0,4.0082135E0,4.115451E0,2.3976989E0,1.6105146E0,2.52461E0,1.590841E0,1.3193872E0,1.0783117E0],"tree_param":{"num_deleted":"0","num_feature":"26","num_nodes":"9","size_leaf_vector":"1"}},{"base_weights":[-4.1117657E-2,-1.6921838E-1,3.969639E-2,-3.9847848E-1,3.0386074E-2,-8.280892E-3,-5.3213846E-2],"categories":[],"categories_nodes":[],"categories_segments":[],"categories_sizes":[],"default_left":[0,0,0,0,0,0,0],"id":9,"left_children":[1,3,-1,5,-1,-1,-1],"loss_changes":[5.447902E-1,9.113476E-1,0E0,1.8126535E-1,0E0,0E0,0E0],"parents":[2147483647,0,0,1,1,3,3],"right_children":[2,4,-1,6,-1,-1,-1],"split_conditions":[1E0,3E0,3.969639E-2,-4.3E-1,3.0386074E-2,-8.280892E-3,-5.3213846E-2],"split_indices":[11,4,0,0,0,0,0],"split_type":[0,0,0,0,0,0,0],"sum_hessian":[7.51085E0,6.286364E0,1.2244858E0,4.340564E0,1.9458002E0,1.7729274E0,2.5676365E0],"tree_param":{"num_deleted":"0","num_feature":"26","num_nodes":"7","size_leaf_vector":"1"}},{"base_weights":[6.518E-3,4.1528728E-2,-9.61652E-2,6.3153245E-2,-4.6355087E-2,-6.933831E-2,3.53265E-2,-2.2799002E-1,2.5125658E-2,5.119152E-3,-4.257984E-2],"categories":[],"categories_nodes":[],"categories_segments":[],"categories_sizes":[],"default_left":[0,0,0,0,0,0,0,0,0,0,0],"id":10,"left_children":[1,-1,3,5,-1,7,-1,9,-1,-1,-1],"loss_changes":[4.6431407E-1,0E0,5.4977375E-1,2.9674232E-1,0E0,3.4711304E-1,0E0,2.6125845E-1,0E0,0E0,0E0],"parents":[2147483647,0,0,2,2,3,3,5,5,7,7],"right_children":[2,-1,4,6,-1,8,-1,10,-1,-1,-1],"split_conditions":[5E-1,4.1528728E-2,1E0,8.8E-1,-4.6355087E-2,1E0,3.53265E-2,1E0,2.5125658E-2,5.119152E-3,-4.257984E-2],"split_indices":[4,0,3,0,0,23,0,2,0,0,0],"split_type":[0,0,0,0,0,0,0,0,0,0,0],"sum_hessian":[9.110558E0,1.2178985E0,7.8926597E0,6.0828886E0,1.809771E0,4.698238E0,1.3846507E0,3.3361444E0,1.3620934E0,1.6908832E0,1.6452614E0],"tree_param":{"num_deleted":"0","num_feature":"26","num_nodes":"11","size_leaf_vector":"1"}},{"base_weights":[3.2456068E-3,-3.4893278E-2,8.444028E-2,3.534988E-1,-1.4354828E-1,4.7463268E-2,7.983272E-3,-4.2280346E-2,2.4291394E-2],"categories":[],"categories_nodes":[],"categories_segments":[],"categories_sizes":[],"default_left":[0,0,0,0,0,0,0,0,0],"id":11,"left_children":[1,-1,3,5,7,-1,-1,-1,-1],"loss_changes":[3.2944953E-1,0E0,6.2309694E-1,1.13557756E-1,7.2454E-1,0E0,0E0,0E0,0E0],"parents":[2147483647,0,0,2,2,3,3,4,4],"right_children":[2,-1,4,6,8,-1,-1,-1,-1],"split_conditions":[-3.21E0,-3.4893278E-2,-4.3E-1,1E0,1.88E0,4.7463268E-2,7.983272E-3,-4.2280346E-2,2.4291394E-2],"split_indices":[0,0,0,22,0,0,0,0,0],"split_type":[0,0,0,0,0,0,0,0,0],"sum_hessian":[9.490837E0,1.1603566E0,8.330481E0,3.5685635E0,4.761917E0,1.9646106E0,1.6039528E0,2.709798E0,2.0521188E0],"tree_param":{"num_deleted":"0","num_feature":"26","num_nodes":"9","size_leaf_vector":"1"}},{"base_weights":[-1.9201323E-1,4.272299E-2,-3.694031E-1,-4.3364984E-1,-1.5234387E-3,-1.970478E-1,-5.480445E-2,1.6599788E-3,-3.680362E-2],"categories":[],"categories_nodes":[],"categories_segments":[],"categories_sizes":[],"default_left":[0,0,0,0,0,0,0,0,0],"id":12,"left_children":[1,-1,3,5,-1,7,-1,-1,-1],"loss_changes":[1.1147157E0,0E0,1.5967375E-1,5.844319E-2,0E0,1.3636158E-1,0E0,0E0,0E0],"parents":[2147483647,0,0,2,2,3,3,5,5],"right_children":[2,-1,4,6,-1,8,-1,-1,-1],"split_conditions":[5E-1,4.272299E-2,1E0,1E0,-1.5234387E-3,0E0,-5.480445E-2,1.6599788E-3,-3.680362E-2],"split_indices":[4,0,23,2,0,0,0,0,0],"split_type":[0,0,0,0,0,0,0,0,0],"sum_hessian":[7.711131E0,1.4034524E0,6.3076787E0,5.149192E0,1.158487E0,2.565502E0,2.5836902E0,1.5418725E0,1.0236293E0],"tree_param":{"num_deleted":"0","num_feature":"26","num_nodes":"9","size_leaf_vector":"1"}},{"base_weights":[-1.737022E-2,-6.073612E-2,1.5883961E-1,-2.3228684E-2,4.1391812E-2,3.0487055E-1,-4.5915075E-2,4.1087847E-2,7.640189E-3],"categories":[],"categories_nodes":[],"categories_segments":[],"categories_sizes":[],"default_left":[0,0,0,0,0,0,0,0,0],"id":13,"left_children":[1,-1,3,5,-1,7,-1,-1,-1],"loss_changes":[1.1255981E0,0E0,4.0042904E-1,9.777075E-1,0E0,6.4101934E-2,0E0,0E0,0E0],"parents":[2147483647,0,0,2,2,3,3,5,5],"right_children":[2,-1,4,6,-1,8,-1,-1,-1],"split_conditions":[-3.21E0,-6.073612E-2,3E0,-4.3E-1,4.1391812E-2,1E0,-4.5915075E-2,4.1087847E-2,7.640189E-3],"split_indices":[0,0,4,0,0,22,0,0,0],"split_type":[0,0,0,0,0,0,0,0,0],"sum_hessian":[8.899031E0,1.4838737E0,7.415157E0,4.8571715E0,2.5579855E0,2.9428496E0,1.914322E0,1.4647932E0,1.4780563E0],"tree_param":{"num_deleted":"0","num_feature":"26","num_nodes":"9","size_leaf_vector":"1"}},{"base_weights":[-1.1727703E-1,-4.312091E-2,9.464526E-2,-1.0467833E-1,3.0328402E-2,-2.9105103E-2,2.1127844E-2],"categories":[],"categories_nodes":[],"categories_segments":[],"categories_sizes":[],"default_left":[0,0,0,0,0,0,0],"id":14,"left_children":[1,-1,3,5,-1,-1,-1],"loss_changes":[6.75902E-1,0E0,3.0284822E-1,3.015881E-1,0E0,0E0,0E0],"parents":[2147483647,0,0,2,2,3,3],"right_children":[2,-1,4,6,-1,-1,-1],"split_conditions":[1E0,-4.312091E-2,8.8E-1,1E0,3.0328402E-2,-2.9105103E-2,2.1127844E-2],"split_indices":[2,0,0,23,0,0,0],"split_type":[0,0,0,0,0,0,0],"sum_hessian":[8.546036E0,3.0270905E0,5.518945E0,3.0773091E0,2.441636E0,1.985156E0,1.0921531E0],"tree_param":{"num_deleted":"0","num_feature":"26","num_nodes":"7","size_leaf_vector":"1"}},{"base_weights":[5.7884566E-3,-1.6634308E-1,3.7997942E-2,3.9635856E-2,-3.6469936E-1,-5.3840727E-2,1.5455234E-2],"categories":[],"categories_nodes":[],"categories_segments":[],"categories_sizes":[],"default_left":[0,0,0,0,0,0,0],"id":15,"left_children":[1,3,-1,-1,5,-1,-1],"loss_changes":[6.315688E-1,8.9677227E-1,0E0,0E0,5.796347E-1,0E0,0E0],"parents":[2147483647,0,0,1,1,4,4],"right_children":[2,4,-1,-1,6,-1,-1],"split_conditions":[1.88E0,5E-1,3.7997942E-2,3.9635856E-2,1E0,-5.3840727E-2,1.5455234E-2],"split_indices":[0,4,0,0,23,0,0],"split_type":[0,0,0,0,0,0,0],"sum_hessian":[7.824116E0,5.7393966E0,2.0847197E0,1.2357051E0,4.503691E0,3.3470836E0,1.1566076E0],"tree_param":{"num_deleted":"0","num_feature":"26","num_nodes":"7","size_leaf_vector":"1"}},{"base_weights":[-6.988931E-3,3.5730984E-2,-9.883774E-2,-2.6741475E-1,3.5920117E-2,-5.196487E-3,-3.355202E-2,-1.5503462E-1,2.1691082E-2,-4.0238366E-2,1.5021294E-2],"categories":[],"categories_nodes":[],"categories_segments":[],"categories_sizes":[],"default_left":[0,0,0,0,0,0,0,0,0,0,0],"id":16,"left_children":[1,-1,3,5,7,-1,-1,9,-1,-1,-1],"loss_changes":[3.3566988E-1,0E0,1.9025762E-1,3.614056E-2,2.168372E-1,0E0,0E0,2.9923424E-1,0E0,0E0,0E0],"parents":[2147483647,0,0,2,2,3,3,4,4,7,7],"right_children":[2,-1,4,6,8,-1,-1,10,-1,-1,-1],"split_conditions":[5E-1,3.5730984E-2,1E0,1.5E0,3E0,-5.196487E-3,-3.355202E-2,1E0,2.1691082E-2,-4.0238366E-2,1.5021294E-2],"split_indices":[4,0,2,4,4,0,0,11,0,0,0],"split_type":[0,0,0,0,0,0,0,0,0,0,0],"sum_hessian":[7.9764047E0,1.0241472E0,6.9522576E0,2.6512432E0,4.3010144E0,1.060232E0,1.5910112E0,2.1626823E0,2.1383324E0,1.0188577E0,1.1438245E0],"tree_param":{"num_deleted":"0","num_feature":"26","num_nodes":"11","size_leaf_vector":"1"}},{"base_weights":[1.695516E-2,1.6697033E-1,-4.6686664E-2,-9.742397E-4,5.206551E-2,2.831205E-1,-3.7760902E-2,3.32815E-2,8.169382E-3],"categories":[],"categories_nodes":[],"categories_segments":[],"categories_sizes":[],"default_left":[0,0,0,0,0,0,0,0,0],"id":17,"left_children":[1,3,-1,5,-1,7,-1,-1,-1],"loss_changes":[7.1605194E-1,4.428779E-1,0E0,7.540177E-1,0E0,1.303938E-2,0E0,0E0,0E0],"parents":[2147483647,0,0,1,1,3,3,5,5],"right_children":[2,4,-1,6,-1,8,-1,-1,-1],"split_conditions":[1.97E0,1.76E0,-4.6686664E-2,-4.7E-1,5.206551E-2,1E0,-3.7760902E-2,3.32815E-2,8.169382E-3],"split_indices":[0,0,0,0,0,25,0,0,0],"split_type":[0,0,0,0,0,0,0,0,0],"sum_hessian":[7.7915907E0,6.447388E0,1.3442026E0,5.047748E0,1.3996398E0,3.018893E0,2.028855E0,1.8982759E0,1.120617E0],"tree_param":{"num_deleted":"0","num_feature":"26","num_nodes":"9","size_leaf_vector":"1"}},{"base_weights":[-1.4170198E-1,2.3231965E-1,-4.633827E-2,-4.104278E-3,4.085132E-2],"categories":[],"categories_nodes":[],"categories_segments":[],"categories_sizes":[],"default_left":[0,0,0,0,0],"id":18,"left_children":[1,3,-1,-1,-1],"loss_changes":[9.497569E-1,2.0472154E-1,0E0,0E0,0E0],"parents":[2147483647,0,0,1,1],"right_children":[2,4,-1,-1,-1],"split_conditions":[-4.3E-1,-5.1E-1,-4.633827E-2,-4.104278E-3,4.085132E-2],"split_indices":[0,0,0,0,0],"split_type":[0,0,0,0,0],"sum_hessian":[5.999128E0,2.9023402E0,3.0967875E0,1.4381399E0,1.4642004E0],"tree_param":{"num_deleted":"0","num_feature":"26","num_nodes":"5","size_leaf_vector":"1"}},{"base_weights":[1.0698536E-2,2.0563032E-1,-1.3300386E-1,3.0570835E-2,-2.9122625E-3,-3.7442923E-2,1.9218592E-2],"categories":[],"categories_nodes":[],"categories_segments":[],"categories_sizes":[],"default_left":[0,0,0,0,0,0,0],"id":19,"left_children":[1,3,5,-1,-1,-1,-1],"loss_changes":[2.4820586E-1,9.673478E-2,4.7594893E-1,0E0,0E0,0E0,0E0],"parents":[2147483647,0,0,1,1,2,2],"right_children":[2,4,6,-1,-1,-1,-1],"split_conditions":[-4.7E-1,1E0,1E0,3.0570835E-2,-2.9122625E-3,-3.7442923E-2,1.9218592E-2],"split_indices":[0,25,2,0,0,0,0],"split_type":[0,0,0,0,0,0,0],"sum_hessian":[6.8842983E0,2.738537E0,4.1457615E0,1.7080982E0,1.0304388E0,2.29242E0,1.8533415E0],"tree_param":{"num_deleted":"0","num_feature":"26","num_nodes":"7","size_leaf_vector":"1"}},{"base_weights":[-7.0713304E-2,4.3605678E-2,-3.8789745E-2,-1.5283278E-1,4.6962153E-2,1.5168947E-2,-3.7243932E-2,-7.2780135E-3,8.929218E-3],"categories":[],"categories_nodes":[],"categories_segments":[],"categories_sizes":[],"default_left":[0,0,0,0,0,0,0,0,0],"id":20,"left_children":[1,3,-1,5,-1,7,-1,-1,-1],"loss_changes":[2.7962002E-1,5.926784E-1,0E0,1.9066003E-1,0E0,3.1284105E-2,0E0,0E0,0E0],"parents":[2147483647,0,0,1,1,3,3,5,5],"right_children":[2,4,-1,6,-1,8,-1,-1,-1],"split_conditions":[1.97E0,1.88E0,-3.8789745E-2,0E0,4.6962153E-2,-5.1E-1,-3.7243932E-2,-7.2780135E-3,8.929218E-3],"split_indices":[0,0,0,0,0,0,0,0,0],"split_type":[0,0,0,0,0,0,0,0,0],"sum_hessian":[6.2450156E0,5.224524E0,1.0204916E0,4.0146127E0,1.2099111E0,2.8019857E0,1.212627E0,1.2897657E0,1.51222E0],"tree_param":{"num_deleted":"0","num_feature":"26","num_nodes":"9","size_leaf_vector":"1"}},{"base_weights":[6.1427128E-2,3.053958E-1,-1.3336247E-1,4.017451E-2,5.3324667E-3,-3.914426E-2,1.0016485E-2],"categories":[],"categories_nodes":[],"categories_segments":[],"categories_sizes":[],"default_left":[0,0,0,0,0,0,0],"id":21,"left_children":[1,3,5,-1,-1,-1,-1],"loss_changes":[3.862744E-1,6.4359605E-2,3.248314E-1,0E0,0E0,0E0,0E0],"parents":[2147483647,0,0,1,1,2,2],"right_children":[2,4,6,-1,-1,-1,-1],"split_conditions":[-4.3E-1,1E0,3E0,4.017451E-2,5.3324667E-3,-3.914426E-2,1.0016485E-2],"split_indices":[0,22,4,0,0,0,0],"split_type":[0,0,0,0,0,0,0],"sum_hessian":[6.2712007E0,2.5320513E0,3.7391493E0,1.4022801E0,1.1297712E0,1.4549787E0,2.2841706E0],"tree_param":{"num_deleted":"0","num_feature":"26","num_nodes":"7","size_leaf_vector":"1"}},{"base_weights":[-4.4073332E-2,1.3412053E-2,-1.5077595E-1,-4.137887E-2,1.14349E-2],"categories":[],"categories_nodes":[],"categories_segments":[],"categories_sizes":[],"default_left":[0,0,0,0,0],"id":22,"left_children":[1,-1,3,-1,-1],"loss_changes":[1.5660897E-1,0E0,3.9299476E-1,0E0,0E0],"parents":[2147483647,0,0,2,2],"right_children":[2,-1,4,-1,-1],"split_conditions":[-4.7E-1,1.3412053E-2,3E0,-4.137887E-2,1.14349E-2],"split_indices":[0,0,4,0,0],"split_type":[0,0,0,0,0],"sum_hessian":[6.1730623E0,2.2157662E0,3.9572961E0,1.7050745E0,2.2522216E0],"tree_param":{"num_deleted":"0","num_feature":"26","num_nodes":"5","size_leaf_vector":"1"}},{"base_weights":[1.1457686E-1,-7.45277E-2,3.176465E-1,2.6104832E-2,-3.3361327E-2,7.4637616E-3,4.3986794E-2],"categories":[],"categories_nodes":[],"categories_segments":[],"categories_sizes":[],"default_left":[0,0,0,0,0,0,0],"id":23,"left_children":[1,3,5,-1,-1,-1,-1],"loss_changes":[2.855379E-1,4.6450356E-1,7.047477E-2,0E0,0E0,0E0,0E0],"parents":[2147483647,0,0,1,1,2,2],"right_children":[2,4,6,-1,-1,-1,-1],"split_conditions":[1E0,-4.3E-1,8.8E-1,2.6104832E-2,-3.3361327E-2,7.4637616E-3,4.3986794E-2],"split_indices":[2,0,0,0,0,0,0],"split_type":[0,0,0,0,0,0,0],"sum_hessian":[5.819139E0,3.3409448E0,2.4781942E0,1.4523014E0,1.8886434E0,1.3683077E0,1.1098865E0],"tree_param":{"num_deleted":"0","num_feature":"26","num_nodes":"7","size_leaf_vector":"1"}},{"base_weights":[8.9860775E-2,-7.133363E-2,3.2657895E-2,1.2323232E-1,-3.3022914E-2,-3.9541614E-3,2.1575524E-2],"categories":[],"categories_nodes":[],"categories_segments":[],"categories_sizes":[],"default_left":[0,0,0,0,0,0,0],"id":24,"left_children":[1,3,-1,5,-1,-1,-1],"loss_changes":[2.4805605E-1,2.5854835E-1,0E0,5.668587E-2,0E0,0E0,0E0],"parents":[2147483647,0,0,1,1,3,3],"right_children":[2,4,-1,6,-1,-1,-1],"split_conditions":[3E0,-4.3E-1,3.2657895E-2,-5.1E-1,-3.3022914E-2,-3.9541614E-3,2.1575524E-2],"split_indices":[4,0,0,0,0,0,0],"split_type":[0,0,0,0,0,0,0],"sum_hessian":[4.8903008E0,3.32487E0,1.5654308E0,2.197446E0,1.1274239E0,1.0039114E0,1.1935347E0],"tree_param":{"num_deleted":"0","num_feature":"26","num_nodes":"7","size_leaf_vector":"1"}},{"base_weights":[-6.070695E-2,-2.0307769E-1,7.302499E-2,-1.3955131E-3,-2.8235856E-2,-7.0772134E-3,2.023842E-2],"categories":[],"categories_nodes":[],"categories_segments":[],"categories_sizes":[],"default_left":[0,0,0,0,0,0,0],"id":25,"left_children":[1,3,5,-1,-1,-1,-1],"loss_changes":[1.4245638E-1,4.870653E-2,9.230073E-2,0E0,0E0,0E0,0E0],"parents":[2147483647,0,0,1,1,2,2],"right_children":[2,4,6,-1,-1,-1,-1],"split_conditions":[1E0,1.5E0,3E0,-1.3955131E-3,-2.8235856E-2,-7.0772134E-3,2.023842E-2],"split_indices":[2,4,4,0,0,0,0],"split_type":[0,0,0,0,0,0,0],"sum_hessian":[5.703251E0,2.5112436E0,3.1920075E0,1.0891424E0,1.4221011E0,1.7261275E0,1.4658799E0],"tree_param":{"num_deleted":"0","num_feature":"26","num_nodes":"7","size_leaf_vector":"1"}},{"base_weights":[-1.462295E-2,1.6472127E-2,-1.3588622E-1,-3.7030358E-2,8.647525E-3],"categories":[],"categories_nodes":[],"categories_segments":[],"categories_sizes":[],"default_left":[0,0,0,0,0],"id":26,"left_children":[1,-1,3,-1,-1],"loss_changes":[1.6609856E-1,0E0,2.6609007E-1,0E0,0E0],"parents":[2147483647,0,0,2,2],"right_children":[2,-1,4,-1,-1],"split_conditions":[-4.7E-1,1.6472127E-2,3E0,-3.7030358E-2,8.647525E-3],"split_indices":[0,0,4,0,0],"split_type":[0,0,0,0,0],"sum_hessian":[5.608244E0,2.117765E0,3.490479E0,1.3752956E0,2.1151836E0],"tree_param":{"num_deleted":"0","num_feature":"26","num_nodes":"5","size_leaf_vector":"1"}},{"base_weights":[8.0063365E-2,-4.4527955E-2,2.9736096E-2,1.5303875E-2,-2.8847277E-2],"categories":[],"categories_nodes":[],"categories_segments":[],"categories_sizes":[],"default_left":[0,0,0,0,0],"id":27,"left_children":[1,3,-1,-1,-1],"loss_changes":[1.7388093E-1,2.6782086E-1,0E0,0E0,0E0],"parents":[2147483647,0,0,1,1],"right_children":[2,4,-1,-1,-1],"split_conditions":[1.88E0,-4.3E-1,2.9736096E-2,1.5303875E-2,-2.8847277E-2],"split_indices":[0,0,0,0,0],"split_type":[0,0,0,0,0],"sum_hessian":[4.933502E0,3.6409714E0,1.2925307E0,2.217614E0,1.4233575E0],"tree_param":{"num_deleted":"0","num_feature":"26","num_nodes":"5","size_leaf_vector":"1"}},{"base_weights":[-2.5449273E-1,-6.067095E-4,-3.613281E-2],"categories":[],"categories_nodes":[],"categories_segments":[],"categories_sizes":[],"default_left":[0,0,0],"id":28,"left_children":[1,-1,-1],"loss_changes":[1.1496103E-1,0E0,0E0],"parents":[2147483647,0,0],"right_children":[2,-1,-1],"split_conditions":[1E0,-6.067095E-4,-3.613281E-2],"split_indices":[4,0,0],"split_type":[0,0,0],"sum_hessian":[3.414108E0,1.3445044E0,2.0696037E0],"tree_param":{"num_deleted":"0","num_feature":"26","num_nodes":"3","size_leaf_vector":"1"}},{"base_weights":[-4.1842606E-2,-1.3459696E-1,1.1292174E-2,1.0249277E-2,-3.742192E-2],"categories":[],"categories_nodes":[],"categories_segments":[],"categories_sizes":[],"default_left":[0,0,0,0,0],"id":29,"left_children":[1,3,-1,-1,-1],"loss_changes":[9.935104E-2,2.725124E-1,0E0,0E0,0E0],"parents":[2147483647,0,0,1,1],"right_children":[2,4,-1,-1,-1],"split_conditions":[1.88E0,-4.7E-1,1.1292174E-2,1.0249277E-2,-3.742192E-2],"split_indices":[0,0,0,0,0],"split_type":[0,0,0,0,0],"sum_hessian":[4.862188E0,3.1216257E0,1.7405622E0,1.8567613E0,1.2648643E0],"tree_param":{"num_deleted":"0","num_feature":"26","num_nodes":"5","size_leaf_vector":"1"}},{"base_weights":[5.9004605E-2,1.6177161E-1,-4.298869E-2,2.220905E-2,1.795715E-3,-2.2850877E-2,1.2360286E-2],"categories":[],"categories_nodes":[],"categories_segments":[],"categories_sizes":[],"default_left":[0,0,0,0,0,0,0],"id":30,"left_children":[1,3,5,-1,-1,-1,-1],"loss_changes":[7.083609E-2,2.4168096E-2,1.4719911E-1,0E0,0E0,0E0,0E0],"parents":[2147483647,0,0,1,1,2,2],"right_children":[2,4,6,-1,-1,-1,-1],"split_conditions":[-4.3E-1,1E0,1E0,2.220905E-2,1.795715E-3,-2.2850877E-2,1.2360286E-2],"split_indices":[0,25,2,0,0,0,0],"split_type":[0,0,0,0,0,0,0],"sum_hessian":[5.0946865E0,2.245775E0,2.8489118E0,1.1987209E0,1.047054E0,1.1720358E0,1.676876E0],"tree_param":{"num_deleted":"0","num_feature":"26","num_nodes":"7","size_leaf_vector":"1"}},{"base_weights":[4.4960726E-2,-3.900516E-2,1.5856793E-2,9.6207075E-3,-1.7364906E-2],"categories":[],"categories_nodes":[],"categories_segments":[],"categories_sizes":[],"default_left":[0,0,0,0,0],"id":31,"left_children":[1,3,-1,-1,-1],"loss_changes":[6.543132E-2,9.633562E-2,0E0,0E0,0E0],"parents":[2147483647,0,0,1,1],"right_children":[2,4,-1,-1,-1],"split_conditions":[3E0,1E0,1.5856793E-2,9.6207075E-3,-1.7364906E-2],"split_indices":[4,4,0,0,0],"split_type":[0,0,0,0,0],"sum_hessian":[5.2108755E0,3.3739164E0,1.8369592E0,1.8258399E0,1.5480764E0],"tree_param":{"num_deleted":"0","num_feature":"26","num_nodes":"5","size_leaf_vector":"1"}},{"base_weights":[5.5231646E-2,-2.6332038E-3,1.3162339E-2,1.2017535E-2,-1.4720638E-2],"categories":[],"categories_nodes":[],"categories_segments":[],"categories_sizes":[],"default_left":[0,0,0,0,0],"id":32,"left_children":[1,3,-1,-1,-1],"loss_changes":[2.7023606E-2,9.606534E-2,0E0,0E0,0E0],"parents":[2147483647,0,0,1,1],"right_children":[2,4,-1,-1,-1],"split_conditions":[1.76E0,-4.7E-1,1.3162339E-2,1.2017535E-2,-1.4720638E-2],"split_indices":[0,0,0,0,0],"split_type":[0,0,0,0,0],"sum_hessian":[5.034982E0,3.4142802E0,1.6207021E0,1.9373468E0,1.4769334E0],"tree_param":{"num_deleted":"0","num_feature":"26","num_nodes":"5","size_leaf_vector":"1"}},{"base_weights":[9.5668085E-2,-3.9845385E-2,2.8544724E-2,1.1422225E-2,-2.1430632E-2],"categories":[],"categories_nodes":[],"categories_segments":[],"categories_sizes":[],"default_left":[0,0,0,0,0],"id":33,"left_children":[1,3,-1,-1,-1],"loss_changes":[1.6035418E-1,1.3890596E-1,0E0,0E0,0E0],"parents":[2147483647,0,0,1,1],"right_children":[2,4,-1,-1,-1],"split_conditions":[3E0,-4.7E-1,2.8544724E-2,1.1422225E-2,-2.1430632E-2],"split_indices":[4,0,0,0,0],"split_type":[0,0,0,0,0],"sum_hessian":[4.7929287E0,3.257165E0,1.5357639E0,1.9130353E0,1.3441298E0],"tree_param":{"num_deleted":"0","num_feature":"26","num_nodes":"5","size_leaf_vector":"1"}},{"base_weights":[8.709562E-2,2.6164522E-2,-3.2228924E-2,-2.2052838E-2,1.071412E-2],"categories":[],"categories_nodes":[],"categories_segments":[],"categories_sizes":[],"default_left":[0,0,0,0,0],"id":34,"left_children":[1,-1,3,-1,-1],"loss_changes":[1.2211971E-1,0E0,1.3207518E-1,0E0,0E0],"parents":[2147483647,0,0,2,2],"right_children":[2,-1,4,-1,-1],"split_conditions":[1E0,2.6164522E-2,1E0,-2.2052838E-2,1.071412E-2],"split_indices":[4,0,2,0,0],"split_type":[0,0,0,0,0],"sum_hessian":[4.4583673E0,1.3259823E0,3.1323853E0,1.0846373E0,2.0477479E0],"tree_param":{"num_deleted":"0","num_feature":"26","num_nodes":"5","size_leaf_vector":"1"}},{"base_weights":[1.01538375E-1,-4.8555963E-2,2.8859843E-2,9.297633E-3,-1.8390147E-2],"categories":[],"categories_nodes":[],"categories_segments":[],"categories_sizes":[],"default_left":[0,0,0,0,0],"id":35,"left_children":[1,3,-1,-1,-1],"loss_changes":[1.6282843E-1,8.9827284E-2,0E0,0E0,0E0],"parents":[2147483647,0,0,1,1],"right_children":[2,4,-1,-1,-1],"split_conditions":[3E0,1E0,2.8859843E-2,9.297633E-3,-1.8390147E-2],"split_indices":[4,2,0,0,0],"split_type":[0,0,0,0,0],"sum_hessian":[4.30032E0,2.7967074E0,1.5036125E0,1.5201325E0,1.2765749E0],"tree_param":{"num_deleted":"0","num_feature":"26","num_nodes":"5","size_leaf_vector":"1"}},{"base_weights":[-4.8174307E-2,-9.290337E-3,-4.8337757E-4],"categories":[],"categories_nodes":[],"categories_segments":[],"categories_sizes":[],"default_left":[0,0,0],"id":36,"left_children":[1,-1,-1],"loss_changes":[8.68834E-3,0E0,0E0],"parents":[2147483647,0,0],"right_children":[2,-1,-1],"split_conditions":[1E0,-9.290337E-3,-4.8337757E-4],"split_indices":[12,0,0],"split_type":[0,0,0],"sum_hessian":[3.713454E0,1.2646842E0,2.4487698E0],"tree_param":{"num_deleted":"0","num_feature":"26","num_nodes":"3","size_leaf_vector":"1"}},{"base_weights":[-4.662497E-2,-1.4286792E-1,9.741021E-3,8.489351E-3,-3.4644853E-2],"categories":[],"categories_nodes":[],"categories_segments":[],"categories_sizes":[],"default_left":[0,0,0,0,0],"id":37,"left_children":[1,3,-1,-1,-1],"loss_changes":[9.4843276E-2,2.1047372E-1,0E0,0E0,0E0],"parents":[2147483647,0,0,1,1],"right_children":[2,4,-1,-1,-1],"split_conditions":[3E0,-4.7E-1,9.741021E-3,8.489351E-3,-3.4644853E-2],"split_indices":[4,0,0,0,0],"split_type":[0,0,0,0,0],"sum_hessian":[4.8378525E0,2.9049177E0,1.9329348E0,1.6461926E0,1.2587252E0],"tree_param":{"num_deleted":"0","num_feature":"26","num_nodes":"5","size_leaf_vector":"1"}},{"base_weights":[1.9125856E-2,1.1167578E-1,-7.344588E-3,-4.0288097E-3,2.1242116E-2],"categories":[],"categories_nodes":[],"categories_segments":[],"categories_sizes":[],"default_left":[0,0,0,0,0],"id":38,"left_children":[1,3,-1,-1,-1],"loss_changes":[5.6707874E-2,5.79757E-2,0E0,0E0,0E0],"parents":[2147483647,0,0,1,1],"right_children":[2,4,-1,-1,-1],"split_conditions":[-4.3E-1,-5.1E-1,-7.344588E-3,-4.0288097E-3,2.1242116E-2],"split_indices":[0,0,0,0,0],"split_type":[0,0,0,0,0],"sum_hessian":[4.6615944E0,2.2278745E0,2.4337196E0,1.1274037E0,1.1004708E0],"tree_param":{"num_deleted":"0","num_feature":"26","num_nodes":"5","size_leaf_vector":"1"}},{"base_weights":[1.2554598E-2,1.0766713E-1,-7.022385E-2,-3.990845E-3,2.0646278E-2,-2.4891838E-2,1.07598705E-2],"categories":[],"categories_nodes":[],"categories_segments":[],"categories_sizes":[],"default_left":[0,0,0,0,0,0,0],"id":39,"left_children":[1,3,5,-1,-1,-1,-1],"loss_changes":[5.5034965E-2,5.4904025E-2,1.4845887E-1,0E0,0E0,0E0,0E0],"parents":[2147483647,0,0,1,1,2,2],"right_children":[2,4,6,-1,-1,-1,-1],"split_conditions":[-4.3E-1,-5.1E-1,1E0,-3.990845E-3,2.0646278E-2,-2.4891838E-2,1.07598705E-2],"split_indices":[0,0,2,0,0,0,0],"split_type":[0,0,0,0,0,0,0],"sum_hessian":[5.029791E0,2.2006152E0,2.8291755E0,1.1214719E0,1.0791434E0,1.2117101E0,1.6174653E0],"tree_param":{"num_deleted":"0","num_feature":"26","num_nodes":"7","size_leaf_vector":"1"}},{"base_weights":[-1.928613E-1,1.7419609E-3,-3.9405685E-2],"categories":[],"categories_nodes":[],"categories_segments":[],"categories_sizes":[],"default_left":[0,0,0],"id":40,"left_children":[1,-1,-1],"loss_changes":[1.9411814E-1,0E0,0E0],"parents":[2147483647,0,0],"right_children":[2,-1,-1],"split_conditions":[0E0,1.7419609E-3,-3.9405685E-2],"split_indices":[0,0,0],"split_type":[0,0,0],"sum_hessian":[3.426011E0,2.121808E0,1.304203E0],"tree_param":{"num_deleted":"0","num_feature":"26","num_nodes":"3","size_leaf_vector":"1"}},{"base_weights":[-3.3788215E-2,1.2441575E-2,-1.2349836E-1,-3.4905333E-2,1.1066797E-2],"categories":[],"categories_nodes":[],"categories_segments":[],"categories_sizes":[],"default_left":[0,0,0,0,0],"id":41,"left_children":[1,-1,3,-1,-1],"loss_changes":[8.951234E-2,0E0,2.4122307E-1,0E0,0E0],"parents":[2147483647,0,0,2,2],"right_children":[2,-1,4,-1,-1],"split_conditions":[-4.7E-1,1.2441575E-2,1.88E0,-3.4905333E-2,1.1066797E-2],"split_indices":[0,0,0,0,0],"split_type":[0,0,0,0,0],"sum_hessian":[4.2243934E0,1.3886476E0,2.8357456E0,1.1945263E0,1.6412194E0],"tree_param":{"num_deleted":"0","num_feature":"26","num_nodes":"5","size_leaf_vector":"1"}},{"base_weights":[-1.0818496E-2,-1.2225889E-1,1.44935725E-2,8.069164E-3,-3.200045E-2],"categories":[],"categories_nodes":[],"categories_segments":[],"categories_sizes":[],"default_left":[0,0,0,0,0],"id":42,"left_children":[1,3,-1,-1,-1],"loss_changes":[1.1310233E-1,1.7614809E-1,0E0,0E0,0E0],"parents":[2147483647,0,0,1,1],"right_children":[2,4,-1,-1,-1],"split_conditions":[3E0,-4.7E-1,1.44935725E-2,8.069164E-3,-3.200045E-2],"split_indices":[4,0,0,0,0],"split_type":[0,0,0,0,0],"sum_hessian":[4.495243E0,2.7457454E0,1.7494974E0,1.647166E0,1.0985795E0],"tree_param":{"num_deleted":"0","num_feature":"26","num_nodes":"5","size_leaf_vector":"1"}},{"base_weights":[-1.8666255E-1,3.1767904E-3,-4.0187337E-2],"categories":[],"categories_nodes":[],"categories_segments":[],"categories_sizes":[],"default_left":[0,0,0],"id":43,"left_children":[1,-1,-1],"loss_changes":[2.30964E-1,0E0,0E0],"parents":[2147483647,0,0],"right_children":[2,-1,-1],"split_conditions":[0E0,3.1767904E-3,-4.0187337E-2],"split_indices":[0,0,0],"split_type":[0,0,0],"sum_hessian":[3.6416478E0,2.230334E0,1.4113138E0],"tree_param":{"num_deleted":"0","num_feature":"26","num_nodes":"3","size_leaf_vector":"1"}},{"base_weights":[3.082417E-2,-7.974296E-2,1.501508E-2,5.1951604E-3,-1.8010207E-2],"categories":[],"categories_nodes":[],"categories_segments":[],"categories_sizes":[],"default_left":[0,0,0,0,0],"id":44,"left_children":[1,3,-1,-1,-1],"loss_changes":[7.783613E-2,5.2234933E-2,0E0,0E0,0E0],"parents":[2147483647,0,0,1,1],"right_children":[2,4,-1,-1,-1],"split_conditions":[3E0,-4.7E-1,1.501508E-2,5.1951604E-3,-1.8010207E-2],"split_indices":[4,0,0,0,0],"split_type":[0,0,0,0,0],"sum_hessian":[3.9920154E0,2.2442427E0,1.7477728E0,1.1791999E0,1.0650427E0],"tree_param":{"num_deleted":"0","num_feature":"26","num_nodes":"5","size_leaf_vector":"1"}},{"base_weights":[-1.6871707E-1,4.296292E-3,-3.804555E-2],"categories":[],"categories_nodes":[],"categories_segments":[],"categories_sizes":[],"default_left":[0,0,0],"id":45,"left_children":[1,-1,-1],"loss_changes":[2.0408511E-1,0E0,0E0],"parents":[2147483647,0,0],"right_children":[2,-1,-1],"split_conditions":[0E0,4.296292E-3,-3.804555E-2],"split_indices":[0,0,0],"split_type":[0,0,0],"sum_hessian":[3.1886725E0,1.9931586E0,1.195514E0],"tree_param":{"num_deleted":"0","num_feature":"26","num_nodes":"3","size_leaf_vector":"1"}},{"base_weights":[-1.8292282E-2,-1.3056007E-1,1.2242618E-2,4.701265E-4,-2.1842938E-2],"categories":[],"categories_nodes":[],"categories_segments":[],"categories_sizes":[],"default_left":[0,0,0,0,0],"id":46,"left_children":[1,3,-1,-1,-1],"loss_changes":[9.9856794E-2,4.1876297E-2,0E0,0E0,0E0],"parents":[2147483647,0,0,1,1],"right_children":[2,4,-1,-1,-1],"split_conditions":[3E0,1E0,1.2242618E-2,4.701265E-4,-2.1842938E-2],"split_indices":[4,2,0,0,0],"split_type":[0,0,0,0,0],"sum_hessian":[4.3090277E0,2.436963E0,1.8720647E0,1.3324134E0,1.1045496E0],"tree_param":{"num_deleted":"0","num_feature":"26","num_nodes":"5","size_leaf_vector":"1"}},{"base_weights":[2.4984689E-1,6.307151E-3,3.277788E-2],"categories":[],"categories_nodes":[],"categories_segments":[],"categories_sizes":[],"default_left":[0,0,0],"id":47,"left_children":[1,-1,-1],"loss_changes":[4.1373372E-2,0E0,0E0],"parents":[2147483647,0,0],"right_children":[2,-1,-1],"split_conditions":[1E0,6.307151E-3,3.277788E-2],"split_indices":[25,0,0],"split_type":[0,0,0],"sum_hessian":[3.2627013E0,1.4932417E0,1.7694596E0],"tree_param":{"num_deleted":"0","num_feature":"26","num_nodes":"3","size_leaf_vector":"1"}},{"base_weights":[-2.025944E-1,5.7864445E-3,-4.0748317E-2],"categories":[],"categories_nodes":[],"categories_segments":[],"categories_sizes":[],"default_left":[0,0,0],"id":48,"left_children":[1,-1,-1],"loss_changes":[2.3505232E-1,0E0,0E0],"parents":[2147483647,0,0],"right_children":[2,-1,-1],"split_conditions":[-4.7E-1,5.7864445E-3,-4.0748317E-2],"split_indices":[0,0,0],"split_type":[0,0,0],"sum_hessian":[2.962769E0,1.6204281E0,1.3423408E0],"tree_param":{"num_deleted":"0","num_feature":"26","num_nodes":"3","size_leaf_vector":"1"}},{"base_weights":[-7.270533E-2,-2.2678595E-2,1.3316847E-2],"categories":[],"categories_nodes":[],"categories_segments":[],"categories_sizes":[],"default_left":[0,0,0],"id":49,"left_children":[1,-1,-1],"loss_changes":[1.8213025E-1,0E0,0E0],"parents":[2147483647,0,0],"right_children":[2,-1,-1],"split_conditions":[1.88E0,-2.2678595E-2,1.3316847E-2],"split_indices":[0,0,0],"split_type":[0,0,0],"sum_hessian":[3.7895315E0,2.1093035E0,1.680228E0],"tree_param":{"num_deleted":"0","num_feature":"26","num_nodes":"3","size_leaf_vector":"1"}},{"base_weights":[-6.6061094E-3,-1.14909396E-1,1.5109885E-2,4.691283E-3,-2.4422975E-2],"categories":[],"categories_nodes":[],"categories_segments":[],"categories_sizes":[],"default_left":[0,0,0,0,0],"id":50,"left_children":[1,3,-1,-1,-1],"loss_changes":[1.0606894E-1,8.77796E-2,0E0,0E0,0E0],"parents":[2147483647,0,0,1,1],"right_children":[2,4,-1,-1,-1],"split_conditions":[1.88E0,1E0,1.5109885E-2,4.691283E-3,-2.4422975E-2],"split_indices":[0,25,0,0,0],"split_type":[0,0,0,0,0],"sum_hessian":[4.193586E0,2.647079E0,1.5465069E0,1.4588339E0,1.1882449E0],"tree_param":{"num_deleted":"0","num_feature":"26","num_nodes":"5","size_leaf_vector":"1"}},{"base_weights":[-2.0375182E-1,5.809725E-3,-3.744024E-2],"categories":[],"categories_nodes":[],"categories_segments":[],"categories_sizes":[],"default_left":[0,0,0],"id":51,"left_children":[1,-1,-1],"loss_changes":[2.143376E-1,0E0,0E0],"parents":[2147483647,0,0],"right_children":[2,-1,-1],"split_conditions":[-4.7E-1,5.809725E-3,-3.744024E-2],"split_indices":[0,0,0],"split_type":[0,0,0],"sum_hessian":[3.3098838E0,1.5662138E0,1.74367E0],"tree_param":{"num_deleted":"0","num_feature":"26","num_nodes":"3","size_leaf_vector":"1"}},{"base_weights":[1.5097207E-2,-9.744195E-2,1.5373982E-2,9.3846675E-4,-1.7966121E-2],"categories":[],"categories_nodes":[],"categories_segments":[],"categories_sizes":[],"default_left":[0,0,0,0,0],"id":52,"left_children":[1,3,-1,-1,-1],"loss_changes":[9.6127234E-2,3.2275353E-2,0E0,0E0,0E0],"parents":[2147483647,0,0,1,1],"right_children":[2,4,-1,-1,-1],"split_conditions":[3E0,-4.7E-1,1.5373982E-2,9.3846675E-4,-1.7966121E-2],"split_indices":[4,0,0,0,0],"split_type":[0,0,0,0,0],"sum_hessian":[4.2007933E0,2.4827025E0,1.7180909E0,1.4650441E0,1.0176582E0],"tree_param":{"num_deleted":"0","num_feature":"26","num_nodes":"5","size_leaf_vector":"1"}},{"base_weights":[-2.5696793E-1,3.3685607E-3,-4.3906104E-2],"categories":[],"categories_nodes":[],"categories_segments":[],"categories_sizes":[],"default_left":[0,0,0],"id":53,"left_children":[1,-1,-1],"loss_changes":[2.0214684E-1,0E0,0E0],"parents":[2147483647,0,0],"right_children":[2,-1,-1],"split_conditions":[1E0,3.3685607E-3,-4.3906104E-2],"split_indices":[25,0,0],"split_type":[0,0,0],"sum_hessian":[2.5399768E0,1.2922775E0,1.2476994E0],"tree_param":{"num_deleted":"0","num_feature":"26","num_nodes":"3","size_leaf_vector":"1"}},{"base_weights":[3.0210998E-2,-5.9029847E-2,1.4771894E-2,3.4923672E-3,-1.4320663E-2],"categories":[],"categories_nodes":[],"categories_segments":[],"categories_sizes":[],"default_left":[0,0,0,0,0],"id":54,"left_children":[1,3,-1,-1,-1],"loss_changes":[6.3379645E-2,3.4081664E-2,0E0,0E0,0E0],"parents":[2147483647,0,0,1,1],"right_children":[2,4,-1,-1,-1],"split_conditions":[1.88E0,-4.7E-1,1.4771894E-2,3.4923672E-3,-1.4320663E-2],"split_indices":[0,0,0,0,0],"split_type":[0,0,0,0,0],"sum_hessian":[4.212395E0,2.677007E0,1.5353882E0,1.5415398E0,1.1354673E0],"tree_param":{"num_deleted":"0","num_feature":"26","num_nodes":"5","size_leaf_vector":"1"}},{"base_weights":[-2.1980094E-2,-1.6139578E-2,1.4446529E-2],"categories":[],"categories_nodes":[],"categories_segments":[],"categories_sizes":[],"default_left":[0,0,0],"id":55,"left_children":[1,-1,-1],"loss_changes":[1.339244E-1,0E0,0E0],"parents":[2147483647,0,0],"right_children":[2,-1,-1],"split_conditions":[3E0,-1.6139578E-2,1.4446529E-2],"split_indices":[4,0,0],"split_type":[0,0,0],"sum_hessian":[3.766553E0,2.0662158E0,1.7003372E0],"tree_param":{"num_deleted":"0","num_feature":"26","num_nodes":"3","size_leaf_vector":"1"}},{"base_weights":[-1.06644295E-1],"categories":[],"categories_nodes":[],"categories_segments":[],"categories_sizes":[],"default_left":[0],"id":56,"left_children":[-1],"loss_changes":[0E0],"parents":[2147483647],"right_children":[-1],"split_conditions":[-1.06644295E-2],"split_indices":[0],"split_type":[0],"sum_hessian":[1.9293797E0],"tree_param":{"num_deleted":"0","num_feature":"26","num_nodes":"1","size_leaf_vector":"1"}},{"base_weights":[1.09505184E-1,2.5302341E-2,-1.5061637E-3],"categories":[],"categories_nodes":[],"categories_segments":[],"categories_sizes":[],"default_left":[0,0,0],"id":57,"left_children":[1,-1,-1],"loss_changes":[8.524771E-2,0E0,0E0],"parents":[2147483647,0,0],"right_children":[2,-1,-1],"split_conditions":[-4.3E-1,2.5302341E-2,-1.5061637E-3],"split_indices":[0,0,0],"split_type":[0,0,0],"sum_hessian":[3.5552375E0,1.1727922E0,2.3824453E0],"tree_param":{"num_deleted":"0","num_feature":"26","num_nodes":"3","size_leaf_vector":"1"}},{"base_weights":[1.0482678E-1,-4.8617903E-2,3.0630559E-2,8.906725E-3,-1.7005697E-2],"categories":[],"categories_nodes":[],"categories_segments":[],"categories_sizes":[],"default_left":[0,0,0,0,0],"id":58,"left_children":[1,3,-1,-1,-1],"loss_changes":[1.6268183E-1,7.495013E-2,0E0,0E0,0E0],"parents":[2147483647,0,0,1,1],"right_children":[2,4,-1,-1,-1],"split_conditions":[1.88E0,-4.7E-1,3.0630559E-2,8.906725E-3,-1.7005697E-2],"split_indices":[0,0,0,0,0],"split_type":[0,0,0,0,0],"sum_hessian":[3.7803926E0,2.5766957E0,1.2036968E0,1.3325013E0,1.2441945E0],"tree_param":{"num_deleted":"0","num_feature":"26","num_nodes":"5","size_leaf_vector":"1"}},{"base_weights":[-2.3023704E-1,4.1418537E-3,-4.036739E-2],"categories":[],"categories_nodes":[],"categories_segments":[],"categories_sizes":[],"default_left":[0,0,0],"id":59,"left_children":[1,-1,-1],"loss_changes":[1.9589144E-1,0E0,0E0],"parents":[2147483647,0,0],"right_children":[2,-1,-1],"split_conditions":[-4.3E-1,4.1418537E-3,-4.036739E-2],"split_indices":[0,0,0],"split_type":[0,0,0],"sum_hessian":[2.8028555E0,1.388783E0,1.4140725E0],"tree_param":{"num_deleted":"0","num_feature":"26","num_nodes":"3","size_leaf_vector":"1"}},{"base_weights":[4.8350047E-2,-5.5608354E-3,1.2549467E-2],"categories":[],"categories_nodes":[],"categories_segments":[],"categories_sizes":[],"default_left":[0,0,0],"id":60,"left_children":[1,-1,-1],"loss_changes":[4.1599646E-2,0E0,0E0],"parents":[2147483647,0,0],"right_children":[2,-1,-1],"split_conditions":[3E0,-5.5608354E-3,1.2549467E-2],"split_indices":[4,0,0],"split_type":[0,0,0],"sum_hessian":[3.3169346E0,1.531835E0,1.7850995E0],"tree_param":{"num_deleted":"0","num_feature":"26","num_nodes":"3","size_leaf_vector":"1"}},{"base_weights":[8.617321E-3,-8.925524E-3,1.1794983E-2],"categories":[],"categories_nodes":[],"categories_segments":[],"categories_sizes":[],"default_left":[0,0,0],"id":61,"left_children":[1,-1,-1],"loss_changes":[6.376492E-2,0E0,0E0],"parents":[2147483647,0,0],"right_children":[2,-1,-1],"split_conditions":[3E0,-8.925524E-3,1.1794983E-2],"split_indices":[4,0,0],"split_type":[0,0,0],"sum_hessian":[3.975144E0,2.1943948E0,1.7807491E0],"tree_param":{"num_deleted":"0","num_feature":"26","num_nodes":"3","size_leaf_vector":"1"}},{"base_weights":[-4.8200185E-3,-1.1466853E-1,1.3110848E-2,7.832519E-3,-2.509223E-2],"categories":[],"categories_nodes":[],"categories_segments":[],"categories_sizes":[],"default_left":[0,0,0,0,0],"id":62,"left_children":[1,3,-1,-1,-1],"loss_changes":[8.4195696E-2,1.010441E-1,0E0,0E0,0E0],"parents":[2147483647,0,0,1,1],"right_children":[2,4,-1,-1,-1],"split_conditions":[1.88E0,1E0,1.3110848E-2,7.832519E-3,-2.509223E-2],"split_indices":[0,25,0,0,0],"split_type":[0,0,0,0,0],"sum_hessian":[3.6319175E0,2.0951555E0,1.536762E0,1.0429885E0,1.0521668E0],"tree_param":{"num_deleted":"0","num_feature":"26","num_nodes":"5","size_leaf_vector":"1"}},{"base_weights":[-9.91369E-2,2.628579E-3,-1.966768E-2],"categories":[],"categories_nodes":[],"categories_segments":[],"categories_sizes":[],"default_left":[0,0,0],"id":63,"left_children":[1,-1,-1],"loss_changes":[4.802452E-2,0E0,0E0],"parents":[2147483647,0,0],"right_children":[2,-1,-1],"split_conditions":[1E0,2.628579E-3,-1.966768E-2],"split_indices":[25,0,0],"split_type":[0,0,0],"sum_hessian":[2.5030007E0,1.4145715E0,1.0884291E0],"tree_param":{"num_deleted":"0","num_feature":"26","num_nodes":"3","size_leaf_vector":"1"}},{"base_weights":[1.2466069E-2,-2.5526924E-2,3.309764E-2],"categories":[],"categories_nodes":[],"categories_segments":[],"categories_sizes":[],"default_left":[0,0,0],"id":64,"left_children":[1,-1,-1],"loss_changes":[4.1513154E-1,0E0,0E0],"parents":[2147483647,0,0],"right_children":[2,-1,-1],"split_conditions":[3E0,-2.5526924E-2,3.309764E-2],"split_indices":[4,0,0],"split_type":[0,0,0],"sum_hessian":[2.8773124E0,1.6711338E0,1.2061787E0],"tree_param":{"num_deleted":"0","num_feature":"26","num_nodes":"3","size_leaf_vector":"1"}},{"base_weights":[-1.6358337E-1,2.1050517E-2,-4.10295E-2],"categories":[],"categories_nodes":[],"categories_segments":[],"categories_sizes":[],"default_left":[0,0,0],"id":65,"left_children":[1,-1,-1],"loss_changes":[4.1245925E-1,0E0,0E0],"parents":[2147483647,0,0],"right_children":[2,-1,-1],"split_conditions":[-4.7E-1,2.1050517E-2,-4.10295E-2],"split_indices":[0,0,0],"split_type":[0,0,0],"sum_hessian":[2.5332432E0,1.0650562E0,1.4681871E0],"tree_param":{"num_deleted":"0","num_feature":"26","num_nodes":"3","size_leaf_vector":"1"}},{"base_weights":[5.0453182E-2,-1.6841998E-2,3.1850137E-2],"categories":[],"categories_nodes":[],"categories_segments":[],"categories_sizes":[],"default_left":[0,0,0],"id":66,"left_children":[1,-1,-1],"loss_changes":[2.842232E-1,0E0,0E0],"parents":[2147483647,0,0],"right_children":[2,-1,-1],"split_conditions":[1.76E0,-1.6841998E-2,3.1850137E-2],"split_indices":[0,0,0],"split_type":[0,0,0],"sum_hessian":[2.9302347E0,1.8176904E0,1.1125444E0],"tree_param":{"num_deleted":"0","num_feature":"26","num_nodes":"3","size_leaf_vector":"1"}},{"base_weights":[-1.0653201E-2,-9.417392E-3,9.037559E-3],"categories":[],"categories_nodes":[],"categories_segments":[],"categories_sizes":[],"default_left":[0,0,0],"id":67,"left_children":[1,-1,-1],"loss_changes":[5.0009653E-2,0E0,0E0],"parents":[2147483647,0,0],"right_children":[2,-1,-1],"split_conditions":[3E0,-9.417392E-3,9.037559E-3],"split_indices":[4,0,0],"split_type":[0,0,0],"sum_hessian":[3.918066E0,2.1820285E0,1.7360374E0],"tree_param":{"num_deleted":"0","num_feature":"26","num_nodes":"3","size_leaf_vector":"1"}},{"base_weights":[1.5529017E-2,-4.79123E-3,8.437842E-3],"categories":[],"categories_nodes":[],"categories_segments":[],"categories_sizes":[],"default_left":[0,0,0],"id":68,"left_children":[1,-1,-1],"loss_changes":[2.5644286E-2,0E0,0E0],"parents":[2147483647,0,0],"right_children":[2,-1,-1],"split_conditions":[3E0,-4.79123E-3,8.437842E-3],"split_indices":[4,0,0],"split_type":[0,0,0],"sum_hessian":[3.9455204E0,2.211673E0,1.7338474E0],"tree_param":{"num_deleted":"0","num_feature":"26","num_nodes":"3","size_leaf_vector":"1"}},{"base_weights":[-1.3904537E-1,1.0027961E-2,-3.4195613E-2],"categories":[],"categories_nodes":[],"categories_segments":[],"categories_sizes":[],"default_left":[0,0,0],"id":69,"left_children":[1,-1,-1],"loss_changes":[2.2362652E-1,0E0,0E0],"parents":[2147483647,0,0],"right_children":[2,-1,-1],"split_conditions":[-4.3E-1,1.0027961E-2,-3.4195613E-2],"split_indices":[0,0,0],"split_type":[0,0,0],"sum_hessian":[2.8988686E0,1.5621592E0,1.3367093E0],"tree_param":{"num_deleted":"0","num_feature":"26","num_nodes":"3","size_leaf_vector":"1"}},{"base_weights":[1.5091091E-1,4.4077495E-4,2.3196498E-2],"categories":[],"categories_nodes":[],"categories_segments":[],"categories_sizes":[],"default_left":[0,0,0],"id":70,"left_children":[1,-1,-1],"loss_changes":[4.8920885E-2,0E0,0E0],"parents":[2147483647,0,0],"right_children":[2,-1,-1],"split_conditions":[1E0,4.4077495E-4,2.3196498E-2],"split_indices":[12,0,0],"split_type":[0,0,0],"sum_hessian":[3.2058685E0,1.5174667E0,1.6884019E0],"tree_param":{"num_deleted":"0","num_feature":"26","num_nodes":"3","size_leaf_vector":"1"}},{"base_weights":[1.6370115E-1,-1.5986756E-3,3.39329E-2],"categories":[],"categories_nodes":[],"categories_segments":[],"categories_sizes":[],"default_left":[0,0,0],"id":71,"left_children":[1,-1,-1],"loss_changes":[1.2824766E-1,0E0,0E0],"parents":[2147483647,0,0],"right_children":[2,-1,-1],"split_conditions":[1.88E0,-1.5986756E-3,3.39329E-2],"split_indices":[0,0,0],"split_type":[0,0,0],"sum_hessian":[2.891949E0,1.8787453E0,1.0132036E0],"tree_param":{"num_deleted":"0","num_feature":"26","num_nodes":"3","size_leaf_vector":"1"}},{"base_weights":[1.172956E-1,-2.7250832E-2,2.8925097E-2,8.666336E-3,-1.2787349E-2],"categories":[],"categories_nodes":[],"categories_segments":[],"categories_sizes":[],"default_left":[0,0,0,0,0],"id":72,"left_children":[1,3,-1,-1,-1],"loss_changes":[1.1714481E-1,4.8932813E-2,0E0,0E0,0E0],"parents":[2147483647,0,0,1,1],"right_children":[2,4,-1,-1,-1],"split_conditions":[1.76E0,1E0,2.8925097E-2,8.666336E-3,-1.2787349E-2],"split_indices":[0,25,0,0,0],"split_type":[0,0,0,0,0],"sum_hessian":[3.395901E0,2.3021922E0,1.0937088E0,1.1448475E0,1.1573446E0],"tree_param":{"num_deleted":"0","num_feature":"26","num_nodes":"5","size_leaf_vector":"1"}},{"base_weights":[-2.0164227E-1,3.9889428E-4,-3.7052836E-2],"categories":[],"categories_nodes":[],"categories_segments":[],"categories_sizes":[],"default_left":[0,0,0],"id":73,"left_children":[1,-1,-1],"loss_changes":[1.342191E-1,0E0,0E0],"parents":[2147483647,0,0],"right_children":[2,-1,-1],"split_conditions":[0E0,3.9889428E-4,-3.7052836E-2],"split_indices":[0,0,0],"split_type":[0,0,0],"sum_hessian":[2.8222795E0,1.7129806E0,1.109299E0],"tree_param":{"num_deleted":"0","num_feature":"26","num_nodes":"3","size_leaf_vector":"1"}},{"base_weights":[9.143863E-2,-1.1065155E-2,3.2749478E-2],"categories":[],"categories_nodes":[],"categories_segments":[],"categories_sizes":[],"default_left":[0,0,0],"id":74,"left_children":[1,-1,-1],"loss_changes":[2.1719213E-1,0E0,0E0],"parents":[2147483647,0,0],"right_children":[2,-1,-1],"split_conditions":[1.76E0,-1.1065155E-2,3.2749478E-2],"split_indices":[0,0,0],"split_type":[0,0,0],"sum_hessian":[2.793224E0,1.7910963E0,1.0021278E0],"tree_param":{"num_deleted":"0","num_feature":"26","num_nodes":"3","size_leaf_vector":"1"}},{"base_weights":[-1.633382E-1,6.783838E-3,-3.479726E-2],"categories":[],"categories_nodes":[],"categories_segments":[],"categories_sizes":[],"default_left":[0,0,0],"id":75,"left_children":[1,-1,-1],"loss_changes":[1.9578719E-1,0E0,0E0],"parents":[2147483647,0,0],"right_children":[2,-1,-1],"split_conditions":[-4.3E-1,6.783838E-3,-3.479726E-2],"split_indices":[0,0,0],"split_type":[0,0,0],"sum_hessian":[3.033941E0,1.6280615E0,1.4058795E0],"tree_param":{"num_deleted":"0","num_feature":"26","num_nodes":"3","size_leaf_vector":"1"}},{"base_weights":[-5.9267294E-2,-1.6601807E-2,6.051836E-3],"categories":[],"categories_nodes":[],"categories_segments":[],"categories_sizes":[],"default_left":[0,0,0],"id":76,"left_children":[1,-1,-1],"loss_changes":[6.0317434E-2,0E0,0E0],"parents":[2147483647,0,0],"right_children":[2,-1,-1],"split_conditions":[3E0,-1.6601807E-2,6.051836E-3],"split_indices":[4,0,0],"split_type":[0,0,0],"sum_hessian":[2.9312947E0,1.3458968E0,1.5853978E0],"tree_param":{"num_deleted":"0","num_feature":"26","num_nodes":"3","size_leaf_vector":"1"}},{"base_weights":[3.1302325E-2,-1.7148782E-2,2.6144112E-2],"categories":[],"categories_nodes":[],"categories_segments":[],"categories_sizes":[],"default_left":[0,0,0],"id":77,"left_children":[1,-1,-1],"loss_changes":[2.1569425E-1,0E0,0E0],"parents":[2147483647,0,0],"right_children":[2,-1,-1],"split_conditions":[3E0,-1.7148782E-2,2.6144112E-2],"split_indices":[4,0,0],"split_type":[0,0,0],"sum_hessian":[2.6610403E0,1.5500456E0,1.1109948E0],"tree_param":{"num_deleted":"0","num_feature":"26","num_nodes":"3","size_leaf_vector":"1"}},{"base_weights":[-2.3492675E-1,1.8990688E-3,-3.7090525E-2],"categories":[],"categories_nodes":[],"categories_segments":[],"categories_sizes":[],"default_left":[0,0,0],"id":78,"left_children":[1,-1,-1],"loss_changes":[1.165341E-1,0E0,0E0],"parents":[2147483647,0,0],"right_children":[2,-1,-1],"split_conditions":[0E0,1.8990688E-3,-3.7090525E-2],"split_indices":[0,0,0],"split_type":[0,0,0],"sum_hessian":[2.171123E0,1.0572408E0,1.1138822E0],"tree_param":{"num_deleted":"0","num_feature":"26","num_nodes":"3","size_leaf_vector":"1"}},{"base_weights":[2.5795223E-2,-2.1862604E-3,6.984132E-3],"categories":[],"categories_nodes":[],"categories_segments":[],"categories_sizes":[],"default_left":[0,0,0],"id":79,"left_children":[1,-1,-1],"loss_changes":[1.14405705E-2,0E0,0E0],"parents":[2147483647,0,0],"right_children":[2,-1,-1],"split_conditions":[3E0,-2.1862604E-3,6.984132E-3],"split_indices":[4,0,0],"split_type":[0,0,0],"sum_hessian":[3.7227204E0,2.0299544E0,1.692766E0],"tree_param":{"num_deleted":"0","num_feature":"26","num_nodes":"3","size_leaf_vector":"1"}},{"base_weights":[1.9375542E-2,-3.0284908E-3,6.9072293E-3],"categories":[],"categories_nodes":[],"categories_segments":[],"categories_sizes":[],"default_left":[0,0,0],"id":80,"left_children":[1,-1,-1],"loss_changes":[1.2990484E-2,0E0,0E0],"parents":[2147483647,0,0],"right_children":[2,-1,-1],"split_conditions":[3E0,-3.0284908E-3,6.9072293E-3],"split_indices":[4,0,0],"split_type":[0,0,0],"sum_hessian":[3.4160447E0,1.9040207E0,1.512024E0],"tree_param":{"num_deleted":"0","num_feature":"26","num_nodes":"3","size_leaf_vector":"1"}},{"base_weights":[1.563209E-2,-3.4583386E-2,7.4028755E-3,7.8060175E-3,-1.4066989E-2],"categories":[],"categories_nodes":[],"categories_segments":[],"categories_sizes":[],"default_left":[0,0,0,0,0],"id":81,"left_children":[1,3,-1,-1,-1],"loss_changes":[1.652273E-2,4.9718224E-2,0E0,0E0,0E0],"parents":[2147483647,0,0,1,1],"right_children":[2,4,-1,-1,-1],"split_conditions":[1.88E0,1E0,7.4028755E-3,7.8060175E-3,-1.4066989E-2],"split_indices":[0,4,0,0,0],"split_type":[0,0,0,0,0],"sum_hessian":[3.761454E0,2.2416432E0,1.519811E0,1.2153538E0,1.0262893E0],"tree_param":{"num_deleted":"0","num_feature":"26","num_nodes":"5","size_leaf_vector":"1"}},{"base_weights":[1.1165785E-1,-8.5547585E-3,2.560683E-2],"categories":[],"categories_nodes":[],"categories_segments":[],"categories_sizes":[],"default_left":[0,0,0],"id":82,"left_children":[1,-1,-1],"loss_changes":[1.2328453E-1,0E0,0E0],"parents":[2147483647,0,0],"right_children":[2,-1,-1],"split_conditions":[1E0,-8.5547585E-3,2.560683E-2],"split_indices":[2,0,0],"split_type":[0,0,0],"sum_hessian":[2.5598223E0,1.2544147E0,1.3054076E0],"tree_param":{"num_deleted":"0","num_feature":"26","num_nodes":"3","size_leaf_vector":"1"}},{"base_weights":[1.1743648E-2,-5.600354E-3,8.916211E-3],"categories":[],"categories_nodes":[],"categories_segments":[],"categories_sizes":[],"default_left":[0,0,0],"id":83,"left_children":[1,-1,-1],"loss_changes":[2.9796798E-2,0E0,0E0],"parents":[2147483647,0,0],"right_children":[2,-1,-1],"split_conditions":[3E0,-5.600354E-3,8.916211E-3],"split_indices":[4,0,0],"split_type":[0,0,0],"sum_hessian":[3.7290668E0,2.1362736E0,1.5927933E0],"tree_param":{"num_deleted":"0","num_feature":"26","num_nodes":"3","size_leaf_vector":"1"}},{"base_weights":[1.6866917E-2,-5.9975516E-3,7.660348E-3],"categories":[],"categories_nodes":[],"categories_segments":[],"categories_sizes":[],"default_left":[0,0,0],"id":84,"left_children":[1,-1,-1],"loss_changes":[2.4067977E-2,0E0,0E0],"parents":[2147483647,0,0],"right_children":[2,-1,-1],"split_conditions":[1E0,-5.9975516E-3,7.660348E-3],"split_indices":[2,0,0],"split_type":[0,0,0],"sum_hessian":[3.2423446E0,1.4163785E0,1.8259661E0],"tree_param":{"num_deleted":"0","num_feature":"26","num_nodes":"3","size_leaf_vector":"1"}},{"base_weights":[1.5483838E-1,-4.702006E-3,2.7741158E-2],"categories":[],"categories_nodes":[],"categories_segments":[],"categories_sizes":[],"default_left":[0,0,0],"id":85,"left_children":[1,-1,-1],"loss_changes":[1.0651963E-1,0E0,0E0],"parents":[2147483647,0,0],"right_children":[2,-1,-1],"split_conditions":[1E0,-4.702006E-3,2.7741158E-2],"split_indices":[2,0,0],"split_type":[0,0,0],"sum_hessian":[2.7779517E0,1.2824137E0,1.495538E0],"tree_param":{"num_deleted":"0","num_feature":"26","num_nodes":"3","size_leaf_vector":"1"}},{"base_weights":[-4.2636935E-2,-1.29035665E-2,7.2411336E-3],"categories":[],"categories_nodes":[],"categories_segments":[],"categories_sizes":[],"default_left":[0,0,0],"id":86,"left_children":[1,-1,-1],"loss_changes":[5.2460432E-2,0E0,0E0],"parents":[2147483647,0,0],"right_children":[2,-1,-1],"split_conditions":[1.88E0,-1.29035665E-2,7.2411336E-3],"split_indices":[0,0,0],"split_type":[0,0,0],"sum_hessian":[3.3376942E0,1.8367538E0,1.5009403E0],"tree_param":{"num_deleted":"0","num_feature":"26","num_nodes":"3","size_leaf_vector":"1"}},{"base_weights":[5.004209E-2,1.0070368E-2,-8.206738E-4],"categories":[],"categories_nodes":[],"categories_segments":[],"categories_sizes":[],"default_left":[0,0,0],"id":87,"left_children":[1,-1,-1],"loss_changes":[1.3963852E-2,0E0,0E0],"parents":[2147483647,0,0],"right_children":[2,-1,-1],"split_conditions":[-4.3E-1,1.0070368E-2,-8.206738E-4],"split_indices":[0,0,0],"split_type":[0,0,0],"sum_hessian":[3.4518807E0,1.4563634E0,1.9955174E0],"tree_param":{"num_deleted":"0","num_feature":"26","num_nodes":"3","size_leaf_vector":"1"}},{"base_weights":[8.407998E-3,-5.3035314E-3,7.6888166E-3],"categories":[],"categories_nodes":[],"categories_segments":[],"categories_sizes":[],"default_left":[0,0,0],"id":88,"left_children":[1,-1,-1],"loss_changes":[2.2478703E-2,0E0,0E0],"parents":[2147483647,0,0],"right_children":[2,-1,-1],"split_conditions":[1.88E0,-5.3035314E-3,7.6888166E-3],"split_indices":[0,0,0],"split_type":[0,0,0],"sum_hessian":[3.3732066E0,1.8968288E0,1.4763778E0],"tree_param":{"num_deleted":"0","num_feature":"26","num_nodes":"3","size_leaf_vector":"1"}},{"base_weights":[-1.9219548E-1,2.7130959E-3,-3.4192104E-2],"categories":[],"categories_nodes":[],"categories_segments":[],"categories_sizes":[],"default_left":[0,0,0],"id":89,"left_children":[1,-1,-1],"loss_changes":[1.3024731E-1,0E0,0E0],"parents":[2147483647,0,0],"right_children":[2,-1,-1],"split_conditions":[-4.3E-1,2.7130959E-3,-3.4192104E-2],"split_indices":[0,0,0],"split_type":[0,0,0],"sum_hessian":[2.6837754E0,1.4210042E0,1.2627714E0],"tree_param":{"num_deleted":"0","num_feature":"26","num_nodes":"3","size_leaf_vector":"1"}},{"base_weights":[2.3842735E-2,-3.457222E-3,7.950895E-3],"categories":[],"categories_nodes":[],"categories_segments":[],"categories_sizes":[],"default_left":[0,0,0],"id":90,"left_children":[1,-1,-1],"loss_changes":[1.659111E-2,0E0,0E0],"parents":[2147483647,0,0],"right_children":[2,-1,-1],"split_conditions":[1.76E0,-3.457222E-3,7.950895E-3],"split_indices":[0,0,0],"split_type":[0,0,0],"sum_hessian":[3.256894E0,1.7741137E0,1.4827806E0],"tree_param":{"num_deleted":"0","num_feature":"26","num_nodes":"3","size_leaf_vector":"1"}},{"base_weights":[-2.1728666E-1,2.5820874E-3,-3.5634153E-2],"categories":[],"categories_nodes":[],"categories_segments":[],"categories_sizes":[],"default_left":[0,0,0],"id":91,"left_children":[1,-1,-1],"loss_changes":[1.12044975E-1,0E0,0E0],"parents":[2147483647,0,0],"right_children":[2,-1,-1],"split_conditions":[0E0,2.5820874E-3,-3.5634153E-2],"split_indices":[0,0,0],"split_type":[0,0,0],"sum_hessian":[2.0422437E0,1.0393955E0,1.0028483E0],"tree_param":{"num_deleted":"0","num_feature":"26","num_nodes":"3","size_leaf_vector":"1"}},{"base_weights":[3.1563304E-2,-3.5021987E-3,9.710844E-3],"categories":[],"categories_nodes":[],"categories_segments":[],"categories_sizes":[],"default_left":[0,0,0],"id":92,"left_children":[1,-1,-1],"loss_changes":[2.2244196E-2,0E0,0E0],"parents":[2147483647,0,0],"right_children":[2,-1,-1],"split_conditions":[1.88E0,-3.5021987E-3,9.710844E-3],"split_indices":[0,0,0],"split_type":[0,0,0],"sum_hessian":[3.317551E0,1.876725E0,1.4408259E0],"tree_param":{"num_deleted":"0","num_feature":"26","num_nodes":"3","size_leaf_vector":"1"}},{"base_weights":[-2.2682251E-1],"categories":[],"categories_nodes":[],"categories_segments":[],"categories_sizes":[],"default_left":[0],"id":93,"left_children":[-1],"loss_changes":[0E0],"parents":[2147483647],"right_children":[-1],"split_conditions":[-2.2682251E-2],"split_indices":[0],"split_type":[0],"sum_hessian":[1.6995168E0],"tree_param":{"num_deleted":"0","num_feature":"26","num_nodes":"1","size_leaf_vector":"1"}},{"base_weights":[-9.06655E-3,-8.3918795E-3,7.5793015E-3],"categories":[],"categories_nodes":[],"categories_segments":[],"categories_sizes":[],"default_left":[0,0,0],"id":94,"left_children":[1,-1,-1],"loss_changes":[3.503841E-2,0E0,0E0],"parents":[2147483647,0,0],"right_children":[2,-1,-1],"split_conditions":[3E0,-8.3918795E-3,7.5793015E-3],"split_indices":[4,0,0],"split_type":[0,0,0],"sum_hessian":[3.514842E0,1.873429E0,1.6414131E0],"tree_param":{"num_deleted":"0","num_feature":"26","num_nodes":"3","size_leaf_vector":"1"}},{"base_weights":[-7.641237E-2,-1.8174073E-2,6.5705474E-3],"categories":[],"categories_nodes":[],"categories_segments":[],"categories_sizes":[],"default_left":[0,0,0],"id":95,"left_children":[1,-1,-1],"loss_changes":[7.519098E-2,0E0,0E0],"parents":[2147483647,0,0],"right_children":[2,-1,-1],"split_conditions":[1.88E0,-1.8174073E-2,6.5705474E-3],"split_indices":[0,0,0],"split_type":[0,0,0],"sum_hessian":[3.2253633E0,1.6923226E0,1.5330406E0],"tree_param":{"num_deleted":"0","num_feature":"26","num_nodes":"3","size_leaf_vector":"1"}},{"base_weights":[3.0540084E-2,8.982068E-3,-2.5737952E-3],"categories":[],"categories_nodes":[],"categories_segments":[],"categories_sizes":[],"default_left":[0,0,0],"id":96,"left_children":[1,-1,-1],"loss_changes":[1.7366609E-2,0E0,0E0],"parents":[2147483647,0,0],"right_children":[2,-1,-1],"split_conditions":[-4.3E-1,8.982068E-3,-2.5737952E-3],"split_indices":[0,0,0],"split_type":[0,0,0],"sum_hessian":[3.5125675E0,1.4203851E0,2.0921824E0],"tree_param":{"num_deleted":"0","num_feature":"26","num_nodes":"3","size_leaf_vector":"1"}},{"base_weights":[4.9782936E-3,7.1124136E-3,-3.9827307E-3],"categories":[],"categories_nodes":[],"categories_segments":[],"categories_sizes":[],"default_left":[0,0,0],"id":97,"left_children":[1,-1,-1],"loss_changes":[1.617301E-2,0E0,0E0],"parents":[2147483647,0,0],"right_children":[2,-1,-1],"split_conditions":[1E0,7.1124136E-3,-3.9827307E-3],"split_indices":[4,0,0],"split_type":[0,0,0],"sum_hessian":[3.5012348E0,1.1766983E0,2.3245363E0],"tree_param":{"num_deleted":"0","num_feature":"26","num_nodes":"3","size_leaf_vector":"1"}},{"base_weights":[8.201759E-2,1.3436772E-2,1.1681755E-3],"categories":[],"categories_nodes":[],"categories_segments":[],"categories_sizes":[],"default_left":[0,0,0],"id":98,"left_children":[1,-1,-1],"loss_changes":[1.2844713E-2,0E0,0E0],"parents":[2147483647,0,0],"right_children":[2,-1,-1],"split_conditions":[0E0,1.3436772E-2,1.1681755E-3],"split_indices":[0,0,0],"split_type":[0,0,0],"sum_hessian":[2.9147236E0,1.1490936E0,1.76563E0],"tree_param":{"num_deleted":"0","num_feature":"26","num_nodes":"3","size_leaf_vector":"1"}},{"base_weights":[2.0658277E-2,1.0531726E-2,-3.4167573E-3],"categories":[],"categories_nodes":[],"categories_segments":[],"categories_sizes":[],"default_left":[0,0,0],"id":99,"left_children":[1,-1,-1],"loss_changes":[2.4633301E-2,0E0,0E0],"parents":[2147483647,0,0],"right_children":[2,-1,-1],"split_conditions":[1E0,1.0531726E-2,-3.4167573E-3],"split_indices":[4,0,0],"split_type":[0,0,0],"sum_hessian":[3.53191E0,1.026266E0,2.5056438E0],"tree_param":{"num_deleted":"0","num_feature":"26","num_nodes":"3","size_leaf_vector":"1"}}]},"name":"gbtree"},"learner_model_param":{"base_score":"[2.4419895E-9]","boost_from_average":"1","num_class":"0","num_feature":"26","num_target":"1"},"objective":{"lambdarank_param":{"lambdarank_bias_norm":"1","lambdarank_normalization":"1","lambdarank_num_pair_per_sample":"4294967295","lambdarank_pair_method":"topk","lambdarank_score_normalization":"1","lambdarank_unbiased":"0","ndcg_exp_gain":"1"},"name":"rank:ndcg"}},"version":[3,1,3]}