{"learner":{"attributes":{},"feature_names":[],"feature_types":[],"gradient_booster":{"model":{"cats":{"enc":[],"feature_segments":[],"sorted_idx":[]},"gbtree_model_param":{"num_parallel_tree":"1","num_trees":"100"},"iteration_indptr":[0,1,2,3,4,5,6,7,8,9,10,11,12,13,14,15,16,17,18,19,20,21,22,23,24,25,26,27,28,29,30,31,32,33,34,35,36,37,38,39,40,41,42,43,44,45,46,47,48,49,50,51,52,53,54,55,56,57,58,59,60,61,62,63,64,65,66,67,68,69,70,71,72,73,74,75,76,77,78,79,80,81,82,83,84,85,86,87,88,89,90,91,92,93,94,95,96,97,98,99,100],"tree_info":[0,0,0,0,0,0,0,0,0,0,0,0,0,0,0,0,0,0,0,0,0,0,0,0,0,0,0,0,0,0,0,0,0,0,0,0,0,0,0,0,0,0,0,0,0,0,0,0,0,0,0,0,0,0,0,0,0,0,0,0,0,0,0,0,0,0,0,0,0,0,0,0,0,0,0,0,0,0,0,0,0,0,0,0,0,0,0,0,0,0,0,0,0,0,0,0,0,0,0,0],"trees":[{"base_weights":[-1.3410343E-2,-2.2551268E-2,1.7215905E-1,3.172842E-2,-2.6631309E-3],"categories":[],"categories_nodes":[],"categories_segments":[],"categories_sizes":[],"default_left":[0,0,0,0,0],"id":0,"left_children":[1,-1,3,-1,-1],"loss_changes":[2.5884107E-1,0E0,1.10822536E-1,0E0,0E0],"parents":[2147483647,0,0,2,2],"right_children":[2,-1,4,-1,-1],"split_conditions":[2E0,-2.2551268E-2,3E0,3.172842E-2,-2.6631309E-3],"split_indices":[4,0,4,0,0],"split_type":[0,0,0,0,0],"sum_hessian":[4.5899053E0,2.041389E0,2.5485165E0,1.1285524E0,1.419964E0],"tree_param":{"num_deleted":"0","num_feature":"26","num_nodes":"5","size_leaf_vector":"1"}},{"base_weights":[-3.3176283E-3,2.1431708E-1,-8.3360955E-2,3.8986963E-1,-2.1102256E-1,5.116489E-1,-5.9146147E-2,-7.889189E-2,6.980484E-2,-1.6730476E-2,6.1325514E-1,8.465456E-2,1.2174703E-1,-6.656015E-2,7.3116E-2],"categories":[],"categories_nodes":[],"categories_segments":[],"categories_sizes":[],"default_left":[0,0,0,0,0,0,0,0,0,0,0,0,0,0,0],"id":1,"left_children":[1,3,-1,5,7,9,-1,-1,-1,-1,11,-1,13,-1,-1],"loss_changes":[5.404228E0,1.8525426E0,0E0,2.3501E0,4.5303335E0,1.1910367E0,0E0,0E0,0E0,0E0,1.4951482E0,0E0,3.199688E0,0E0,0E0],"parents":[2147483647,0,0,1,1,3,3,4,4,5,5,10,10,12,12],"right_children":[2,4,-1,6,8,10,-1,-1,-1,-1,12,-1,14,-1,-1],"split_conditions":[2.1E0,1E0,-8.3360955E-2,1E0,1E0,-4.3E-1,-5.9146147E-2,-7.889189E-2,6.980484E-2,-1.6730476E-2,1.97E0,8.465456E-2,1E0,-6.656015E-2,7.3116E-2],"split_indices":[0,22,0,10,10,0,0,0,0,0,0,0,21,0,0],"split_type":[0,0,0,0,0,0,0,0,0,0,0,0,0,0,0],"sum_hessian":[2.791844E1,2.2708107E1,5.2103333E0,1.613289E1,6.5752163E0,1.4777659E1,1.3552309E0,4.100621E0,2.4745946E0,1.8394533E0,1.2938206E1,8.283951E0,4.6542554E0,1.9904437E0,2.6638117E0],"tree_param":{"num_deleted":"0","num_feature":"26","num_nodes":"15","size_leaf_vector":"1"}},{"base_weights":[-1.2632997E-1,6.583099E-2,-7.509231E-2,-2.3806389E-1,7.662803E-2,-6.6258556E-1,7.23622E-2,-3.0980695E-2,-8.151667E-2],"categories":[],"categories_nodes":[],"categories_segments":[],"categories_sizes":[],"default_left":[0,0,0,0,0,0,0,0,0],"id":2,"left_children":[1,3,-1,5,-1,7,-1,-1,-1],"loss_changes":[2.4807806E0,3.675673E0,0E0,5.463527E0,0E0,2.3144269E-1,0E0,0E0,0E0],"parents":[2147483647,0,0,1,1,3,3,5,5],"right_children":[2,4,-1,6,-1,8,-1,-1,-1],"split_conditions":[1.97E0,9.4E-1,-7.509231E-2,1E0,7.662803E-2,0E0,7.23622E-2,-3.0980695E-2,-8.151667E-2],"split_indices":[0,0,0,22,0,0,0,0,0],"split_type":[0,0,0,0,0,0,0,0,0],"sum_hessian":[1.9257439E1,1.541079E1,3.8466487E0,1.1208173E1,4.2026176E0,7.991474E0,3.2166986E0,3.3277998E0,4.6636744E0],"tree_param":{"num_deleted":"0","num_feature":"26","num_nodes":"9","size_leaf_vector":"1"}},{"base_weights":[1.5008624E-1,5.895815E-2,-9.520145E-2,-7.039096E-2,3.223345E-1,6.5202063E-1,-5.8856823E-2,7.6486714E-2,1.8200245E-2],"categories":[],"categories_nodes":[],"categories_segments":[],"categories_sizes":[],"default_left":[0,0,0,0,0,0,0,0,0],"id":3,"left_children":[1,-1,3,-1,5,7,-1,-1,-1],"loss_changes":[2.1349185E0,0E0,3.5911822E0,0E0,2.9476228E0,2.184391E-1,0E0,0E0,0E0],"parents":[2147483647,0,0,2,2,4,4,5,5],"right_children":[2,-1,4,-1,6,8,-1,-1,-1],"split_conditions":[1E0,5.895815E-2,2E0,-7.039096E-2,1E0,1E0,-5.8856823E-2,7.6486714E-2,1.8200245E-2],"split_indices":[12,0,4,0,22,25,0,0,0],"split_type":[0,0,0,0,0,0,0,0,0],"sum_hessian":[1.8283264E1,6.046245E0,1.2237019E1,4.6996827E0,7.537336E0,5.742968E0,1.7943679E0,4.125229E0,1.617739E0],"tree_param":{"num_deleted":"0","num_feature":"26","num_nodes":"9","size_leaf_vector":"1"}},{"base_weights":[-1.0512271E-3,3.0120283E-1,-1.6106084E-1,5.5397827E-2,-5.4329094E-2,-4.7045916E-1,1.7071438E-1,-6.3080364E-1,1.6398868E-2,-2.6128447E-1,7.0307545E-2,-7.271048E-2,-2.564896E-2,-5.986343E-2,2.1125946E-2],"categories":[],"categories_nodes":[],"categories_segments":[],"categories_sizes":[],"default_left":[0,0,0,0,0,0,0,0,0,0,0,0,0,0,0],"id":4,"left_children":[1,3,5,-1,-1,7,9,11,-1,13,-1,-1,-1,-1,-1],"loss_changes":[9.55943E-1,1.7617297E0,1.4065299E0,0E0,0E0,8.106272E-1,1.7862327E0,2.0970821E-2,0E0,8.558954E-1,0E0,0E0,0E0,0E0,0E0],"parents":[2147483647,0,0,1,1,2,2,5,5,6,6,7,7,9,9],"right_children":[2,4,6,-1,-1,8,10,12,-1,14,-1,-1,-1,-1,-1],"split_conditions":[1E0,1E0,1E0,5.5397827E-2,-5.4329094E-2,1E0,1E0,1E0,1.6398868E-2,1E0,7.0307545E-2,-7.271048E-2,-2.564896E-2,-5.986343E-2,2.1125946E-2],"split_indices":[12,21,2,0,0,23,21,24,0,25,0,0,0,0,0],"split_type":[0,0,0,0,0,0,0,0,0,0,0,0,0,0,0],"sum_hessian":[1.7762703E1,5.8430076E0,1.1919696E1,4.7617292E0,1.0812782E0,5.951549E0,5.968147E0,4.7554455E0,1.1961035E0,3.5757248E0,2.3924222E0,3.03271E0,1.7227354E0,1.9306195E0,1.6451052E0],"tree_param":{"num_deleted":"0","num_feature":"26","num_nodes":"15","size_leaf_vector":"1"}},{"base_weights":[7.959912E-2,1.7184898E-1,-3.4335124E-1,-7.313393E-2,3.854048E-1,-6.8634497E-3,-4.6631213E-2,2.6236102E-2,-5.8182128E-2,8.536769E-3,5.2994687E-2],"categories":[],"categories_nodes":[],"categories_segments":[],"categories_sizes":[],"default_left":[0,0,0,0,0,0,0,0,0,0,0],"id":5,"left_children":[1,3,5,7,9,-1,-1,-1,-1,-1,-1],"loss_changes":[6.889359E-1,7.5647634E-1,7.691404E-2,1.4025341E0,2.8421867E-1,0E0,0E0,0E0,0E0,0E0,0E0],"parents":[2147483647,0,0,1,1,2,2,3,3,4,4],"right_children":[2,4,6,8,10,-1,-1,-1,-1,-1,-1],"split_conditions":[3.5E0,2E0,1E0,1.5E0,1E0,-6.8634497E-3,-4.6631213E-2,2.6236102E-2,-5.8182128E-2,8.536769E-3,5.2994687E-2],"split_indices":[4,4,21,4,12,0,0,0,0,0,0],"split_type":[0,0,0,0,0,0,0,0,0,0,0],"sum_hessian":[1.5145001E1,1.2920579E1,2.2244225E0,6.323755E0,6.5968237E0,1.1695714E0,1.054851E0,4.1023607E0,2.2213938E0,2.6619072E0,3.9349167E0],"tree_param":{"num_deleted":"0","num_feature":"26","num_nodes":"11","size_leaf_vector":"1"}},{"base_weights":[-7.833273E-2,-4.882607E-1,1.7254572E-1,-6.690755E-2,-3.1980288E-3,2.851682E-1,-3.6322284E-2,4.037966E-1,-9.081506E-3,-4.3069273E-2,2.6419519E-2,5.4668773E-2,1.1372157E-2],"categories":[],"categories_nodes":[],"categories_segments":[],"categories_sizes":[],"default_left":[0,0,0,0,0,0,0,0,0,0,0,0,0],"id":6,"left_children":[1,3,5,-1,-1,7,9,11,-1,-1,-1,-1,-1],"loss_changes":[1.3246474E0,3.7793124E-1,2.0374241E-1,0E0,0E0,2.7993408E-1,5.6022733E-1,1.17286146E-1,0E0,0E0,0E0,0E0,0E0],"parents":[2147483647,0,0,1,1,2,2,5,5,6,6,7,7],"right_children":[2,4,6,-1,-1,8,10,12,-1,-1,-1,-1,-1],"split_conditions":[2E0,9.4E-1,1.97E0,-6.690755E-2,-3.1980288E-3,1E0,1E0,1E0,-9.081506E-3,-4.3069273E-2,2.6419519E-2,5.4668773E-2,1.1372157E-2],"split_indices":[4,0,0,0,0,1,21,10,0,0,0,0,0],"split_type":[0,0,0,0,0,0,0,0,0,0,0,0,0],"sum_hessian":[1.1061212E1,3.8402128E0,7.2209983E0,2.4163086E0,1.4239041E0,4.454052E0,2.7669466E0,3.3295527E0,1.1244993E0,1.0092857E0,1.7576609E0,1.6380203E0,1.6915323E0],"tree_param":{"num_deleted":"0","num_feature":"26","num_nodes":"13","size_leaf_vector":"1"}},{"base_weights":[-3.096258E-3,9.758943E-2,-4.8167992E-2,-2.5285617E-2,1.678432E-1,2.614387E-1,-2.0870851E-2,5.229305E-2,-2.8462892E-2,-4.415062E-2,2.177279E-2],"categories":[],"categories_nodes":[],"categories_segments":[],"categories_sizes":[],"default_left":[0,0,0,0,0,0,0,0,0,0,0],"id":7,"left_children":[1,3,-1,-1,5,7,-1,-1,9,-1,-1],"loss_changes":[6.461408E-1,3.1582245E-1,0E0,0E0,4.017403E-1,6.466304E-1,0E0,0E0,5.94448E-1,0E0,0E0],"parents":[2147483647,0,0,1,1,4,4,5,5,8,8],"right_children":[2,4,-1,-1,6,8,-1,-1,10,-1,-1],"split_conditions":[2.1E0,-6.4E-1,-4.8167992E-2,-2.5285617E-2,3.5E0,4.7E-1,-2.0870851E-2,5.229305E-2,9.4E-1,-4.415062E-2,2.177279E-2],"split_indices":[0,0,0,0,4,0,0,0,0,0,0],"split_type":[0,0,0,0,0,0,0,0,0,0,0],"sum_hessian":[1.1433641E1,1.0104018E1,1.329623E0,1.2532535E0,8.850765E0,7.333626E0,1.5171391E0,3.4331217E0,3.9005039E0,1.1603658E0,2.740138E0],"tree_param":{"num_deleted":"0","num_feature":"26","num_nodes":"11","size_leaf_vector":"1"}},{"base_weights":[3.320078E-2,4.0874547E-1,-3.285991E-1,5.542774E-1,-1.1892421E-2,-5.244831E-1,1.776052E-2,1.87319E-2,6.632846E-2,-1.23116765E-2,-6.38017E-2,-4.328862E-2,4.533873E-2],"categories":[],"categories_nodes":[],"categories_segments":[],"categories_sizes":[],"default_left":[0,0,0,0,0,0,0,0,0,0,0,0,0],"id":8,"left_children":[1,3,5,7,-1,9,11,-1,-1,-1,-1,-1,-1],"loss_changes":[1.7184818E0,5.3946877E-1,4.498176E-1,7.616687E-2,0E0,1.1192453E-1,8.4659356E-1,0E0,0E0,0E0,0E0,0E0,0E0],"parents":[2147483647,0,0,1,1,2,2,3,3,5,5,6,6],"right_children":[2,4,6,8,-1,10,12,-1,-1,-1,-1,-1,-1],"split_conditions":[1E0,2.5E0,1E0,-4.7E-1,-1.1892421E-2,1E0,1E0,1.87319E-2,6.632846E-2,-1.23116765E-2,-6.38017E-2,-4.328862E-2,4.533873E-2],"split_indices":[2,4,12,0,0,21,21,0,0,0,0,0,0],"split_type":[0,0,0,0,0,0,0,0,0,0,0,0,0],"sum_hessian":[1.0659269E1,5.1666164E0,5.4926524E0,4.010179E0,1.1564375E0,3.1799538E0,2.3126986E0,1.5410026E0,2.4691763E0,1.1607752E0,2.0191786E0,1.1398447E0,1.1728541E0],"tree_param":{"num_deleted":"0","num_feature":"26","num_nodes":"13","size_leaf_vector":"1"}},{"base_weights":[1.3085018E-1,2.2081044E-1,-4.1233886E-2,2.9421628E-1,-1.5150632E-2,6.1370034E-2,5.0720483E-2,1.5789224E-2,-1.8962946E-2,3.0762771E-2,-4.645389E-2],"categories":[],"categories_nodes":[],"categories_segments":[],"categories_sizes":[],"default_left":[0,0,0,0,0,0,0,0,0,0,0],"id":9,"left_children":[1,3,-1,5,-1,7,-1,-1,9,-1,-1],"loss_changes":[6.807527E-1,3.4533137E-1,0E0,4.4160378E-1,0E0,4.712488E-2,0E0,0E0,7.248404E-1,0E0,0E0],"parents":[2147483647,0,0,1,1,3,3,5,5,8,8],"right_children":[2,4,-1,6,-1,8,-1,-1,10,-1,-1],"split_conditions":[2.1E0,3.5E0,-4.1233886E-2,2E0,-1.5150632E-2,-4.7E-1,5.0720483E-2,1.5789224E-2,1E0,3.0762771E-2,-4.645389E-2],"split_indices":[0,4,0,4,0,0,0,0,24,0,0],"split_type":[0,0,0,0,0,0,0,0,0,0,0],"sum_hessian":[1.1067917E1,1.0004512E1,1.0634052E0,8.532096E0,1.4724158E0,4.691418E0,3.840678E0,1.6924375E0,2.9989808E0,1.9092019E0,1.0897789E0],"tree_param":{"num_deleted":"0","num_feature":"26","num_nodes":"11","size_leaf_vector":"1"}},{"base_weights":[-1.5788218E-1,-5.2108E-1,1.0922307E-1,-6.909453E-2,9.519482E-3,2.2164679E-1,-2.0489186E-2,3.8093817E-1,-6.9914754E-3,5.675755E-2,-9.519483E-3],"categories":[],"categories_nodes":[],"categories_segments":[],"categories_sizes":[],"default_left":[0,0,0,0,0,0,0,0,0,0,0],"id":10,"left_children":[1,3,5,-1,-1,7,-1,9,-1,-1,-1],"loss_changes":[1.2927984E0,6.490656E-1,3.3384246E-1,0E0,0E0,3.2829016E-1,0E0,4.4107193E-1,0E0,0E0,0E0],"parents":[2147483647,0,0,1,1,2,2,5,5,7,7],"right_children":[2,4,6,-1,-1,8,-1,10,-1,-1,-1],"split_conditions":[2E0,1E0,3.5E0,-6.909453E-2,9.519482E-3,1.97E0,-2.0489186E-2,1E0,-6.9914754E-3,5.675755E-2,-9.519483E-3],"split_indices":[4,23,4,0,0,0,0,23,0,0,0],"split_type":[0,0,0,0,0,0,0,0,0,0,0],"sum_hessian":[1.1739493E1,4.571936E0,7.1675572E0,3.4890711E0,1.0828651E0,5.495176E0,1.6723812E0,3.3554294E0,2.1397464E0,2.2725644E0,1.0828651E0],"tree_param":{"num_deleted":"0","num_feature":"26","num_nodes":"11","size_leaf_vector":"1"}},{"base_weights":[1.5056683E-1,2.6424125E-1,-4.335089E-2,1.2609878E-1,5.5558156E-2,-1.0736042E-1,4.7819786E-2,-2.201288E-1,1.746164E-2,-3.6327907E-1,7.212893E-3,-9.1985045E-3,-4.4757765E-2],"categories":[],"categories_nodes":[],"categories_segments":[],"categories_sizes":[],"default_left":[0,0,0,0,0,0,0,0,0,0,0,0,0],"id":11,"left_children":[1,3,-1,5,-1,7,-1,9,-1,11,-1,-1,-1],"loss_changes":[8.828236E-1,3.4478158E-1,0E0,7.324306E-1,0E0,2.2283147E-1,0E0,2.1800984E-1,0E0,3.299597E-2,0E0,0E0,0E0],"parents":[2147483647,0,0,1,1,3,3,5,5,7,7,9,9],"right_children":[2,4,-1,6,-1,8,-1,10,-1,12,-1,-1,-1],"split_conditions":[2.1E0,1E0,-4.335089E-2,1E0,5.5558156E-2,9.4E-1,4.7819786E-2,1E0,1.746164E-2,0E0,7.212893E-3,-9.1985045E-3,-4.4757765E-2],"split_indices":[0,3,0,21,0,0,0,22,0,0,0,0,0],"split_type":[0,0,0,0,0,0,0,0,0,0,0,0,0],"sum_hessian":[1.0571337E1,9.30748E0,1.2638563E0,7.2857018E0,2.0217783E0,4.798886E0,2.4868157E0,3.584648E0,1.2142379E0,2.242999E0,1.3416488E0,1.0274827E0,1.2155163E0],"tree_param":{"num_deleted":"0","num_feature":"26","num_nodes":"13","size_leaf_vector":"1"}},{"base_weights":[-4.515344E-2,-5.318811E-2,6.1119813E-2,3.2278858E-2,-1.1194641E-1,-3.5829026E-1,7.80446E-2,-4.297134E-2,-1.2344584E-2,4.4505898E-2,-1.7962964E-2],"categories":[],"categories_nodes":[],"categories_segments":[],"categories_sizes":[],"default_left":[0,0,0,0,0,0,0,0,0,0,0],"id":12,"left_children":[1,-1,3,-1,5,7,9,-1,-1,-1,-1],"loss_changes":[6.46742E-1,0E0,5.181393E-1,0E0,3.6255312E-1,2.1658838E-3,5.3929424E-1,0E0,0E0,0E0,0E0],"parents":[2147483647,0,0,2,2,4,4,5,5,6,6],"right_children":[2,-1,4,-1,6,8,10,-1,-1,-1,-1],"split_conditions":[-3.21E0,-5.318811E-2,1.5E0,3.2278858E-2,9.4E-1,1E0,1.97E0,-4.297134E-2,-1.2344584E-2,4.4505898E-2,-1.7962964E-2],"split_indices":[0,0,4,0,0,22,0,0,0,0,0],"split_type":[0,0,0,0,0,0,0,0,0,0,0],"sum_hessian":[1.0874723E1,1.2311691E0,9.643555E0,3.4946604E0,6.148894E0,2.2916696E0,3.8572242E0,1.1209705E0,1.1706991E0,1.2910793E0,2.566145E0],"tree_param":{"num_deleted":"0","num_feature":"26","num_nodes":"11","size_leaf_vector":"1"}},{"base_weights":[-6.592425E-2,-3.0569354E-1,1.05690606E-1,-4.9844753E-2,-0E0,-1.5462616E-2,1.9454424E-1,3.4978673E-1,-5.272915E-3,1.1224965E-2,4.2713992E-2],"categories":[],"categories_nodes":[],"categories_segments":[],"categories_sizes":[],"default_left":[0,0,0,0,0,0,0,0,0,0,0],"id":13,"left_children":[1,3,5,-1,-1,-1,7,9,-1,-1,-1],"loss_changes":[4.4258183E-1,2.6022592E-1,1.8168426E-1,0E0,0E0,0E0,2.2302145E-1,1.4616013E-2,0E0,0E0,0E0],"parents":[2147483647,0,0,1,1,2,2,6,6,7,7],"right_children":[2,4,6,-1,-1,-1,8,10,-1,-1,-1],"split_conditions":[2E0,1E0,1E-1,-4.9844753E-2,-0E0,-1.5462616E-2,1.97E0,4.7E-1,-5.272915E-3,1.1224965E-2,4.2713992E-2],"split_indices":[4,21,0,0,0,0,0,0,0,0,0],"split_type":[0,0,0,0,0,0,0,0,0,0,0],"sum_hessian":[8.970672E0,3.4163249E0,5.5543466E0,1.7084937E0,1.7078311E0,1.2250504E0,4.329296E0,2.40489E0,1.9244063E0,1.1928875E0,1.2120023E0],"tree_param":{"num_deleted":"0","num_feature":"26","num_nodes":"11","size_leaf_vector":"1"}},{"base_weights":[8.036589E-2,1.7794667E-1,-3.982754E-2,4.1918784E-2,5.1480263E-2,-5.8593664E-2,1.9474918E-2,1.3991092E-2,-2.1805875E-1,-4.336695E-2,1.0017753E-2],"categories":[],"categories_nodes":[],"categories_segments":[],"categories_sizes":[],"default_left":[0,0,0,0,0,0,0,0,0,0,0],"id":14,"left_children":[1,3,-1,5,-1,7,-1,-1,9,-1,-1],"loss_changes":[5.6922257E-1,4.1621017E-1,0E0,1.3268149E-1,0E0,2.0559405E-1,0E0,0E0,2.8071618E-1,0E0,0E0],"parents":[2147483647,0,0,1,1,3,3,5,5,8,8],"right_children":[2,4,-1,6,-1,8,-1,-1,10,-1,-1],"split_conditions":[2.1E0,1E0,-3.982754E-2,9.4E-1,5.1480263E-2,0E0,1.9474918E-2,1.3991092E-2,1E0,-4.336695E-2,1.0017753E-2],"split_indices":[0,8,0,0,0,0,0,0,22,0,0],"split_type":[0,0,0,0,0,0,0,0,0,0,0],"sum_hessian":[9.669908E0,8.554188E0,1.1157202E0,6.894513E0,1.6596749E0,4.531124E0,2.363389E0,2.0731091E0,2.4580147E0,1.2490399E0,1.2089748E0],"tree_param":{"num_deleted":"0","num_feature":"26","num_nodes":"11","size_leaf_vector":"1"}},{"base_weights":[1.833747E-2,-1.4299697E-1,1.5144321E-1,1.2561025E-1,-5.1627595E-2,2.9488304E-1,-2.0978006E-2,2.5215888E-2,-3.8420295E-3,3.7859923E-1,5.1498855E-3,4.560907E-2,1.1287723E-2],"categories":[],"categories_nodes":[],"categories_segments":[],"categories_sizes":[],"default_left":[0,0,0,0,0,0,0,0,0,0,0,0,0],"id":15,"left_children":[1,3,5,7,-1,9,-1,-1,-1,11,-1,-1,-1],"loss_changes":[2.5590312E-1,6.108465E-1,3.9671355E-1,9.211877E-2,0E0,8.3222866E-2,0E0,0E0,0E0,2.2516787E-2,0E0,0E0,0E0],"parents":[2147483647,0,0,1,1,2,2,3,3,5,5,9,9],"right_children":[2,4,6,8,-1,10,-1,-1,-1,12,-1,-1,-1],"split_conditions":[2E0,1E0,3.5E0,1E0,-5.1627595E-2,1.97E0,-2.0978006E-2,2.5215888E-2,-3.8420295E-3,1E0,5.1498855E-3,4.560907E-2,1.1287723E-2],"split_indices":[4,2,4,24,0,0,0,0,0,10,0,0,0],"split_type":[0,0,0,0,0,0,0,0,0,0,0,0,0],"sum_hessian":[9.908136E0,4.445516E0,5.4626203E0,2.9710665E0,1.4744499E0,4.04144E0,1.42118E0,1.3738674E0,1.597199E0,2.5937226E0,1.4477177E0,1.4534407E0,1.1402819E0],"tree_param":{"num_deleted":"0","num_feature":"26","num_nodes":"13","size_leaf_vector":"1"}},{"base_weights":[4.2316975E-4,-1.6989084E-1,1.374499E-1,6.562988E-2,-4.6836E-2,2.14704E-2,-1.1953486E-2,1.7332695E-2,-4.8034987E-3],"categories":[],"categories_nodes":[],"categories_segments":[],"categories_sizes":[],"default_left":[0,0,0,0,0,0,0,0,0],"id":16,"left_children":[1,3,5,7,-1,-1,-1,-1,-1],"loss_changes":[2.6743644E-1,3.899688E-1,1.5170427E-1,5.402822E-2,0E0,0E0,0E0,0E0,0E0],"parents":[2147483647,0,0,1,1,2,2,3,3],"right_children":[2,4,6,8,-1,-1,-1,-1,-1],"split_conditions":[2E0,1E0,3.5E0,1E0,-4.6836E-2,2.14704E-2,-1.1953486E-2,1.7332695E-2,-4.8034987E-3],"split_indices":[4,2,4,24,0,0,0,0,0],"split_type":[0,0,0,0,0,0,0,0,0],"sum_hessian":[9.458883E0,4.1102777E0,5.3486056E0,2.733442E0,1.3768356E0,4.2388577E0,1.1097479E0,1.1340442E0,1.5993979E0],"tree_param":{"num_deleted":"0","num_feature":"26","num_nodes":"9","size_leaf_vector":"1"}},{"base_weights":[-5.026661E-2,-3.6461957E-2,1.2421123E-1,2.590697E-1,-1.1285821E-2,4.041743E-3,3.3016542E-1,4.097323E-2,9.110811E-3],"categories":[],"categories_nodes":[],"categories_segments":[],"categories_sizes":[],"default_left":[0,0,0,0,0,0,0,0,0],"id":17,"left_children":[1,-1,3,5,-1,-1,7,-1,-1],"loss_changes":[5.220438E-1,0E0,2.317954E-1,5.415073E-2,0E0,0E0,2.2339076E-2,0E0,0E0],"parents":[2147483647,0,0,2,2,3,3,6,6],"right_children":[2,-1,4,6,-1,-1,8,-1,-1],"split_conditions":[2E0,-3.6461957E-2,1.97E0,1E0,-1.1285821E-2,4.041743E-3,1E0,4.097323E-2,9.110811E-3],"split_indices":[4,0,0,2,0,0,10,0,0],"split_type":[0,0,0,0,0,0,0,0,0],"sum_hessian":[7.6923356E0,2.3566444E0,5.335691E0,3.3418543E0,1.9938366E0,1.2048559E0,2.1369984E0,1.0676844E0,1.0693141E0],"tree_param":{"num_deleted":"0","num_feature":"26","num_nodes":"9","size_leaf_vector":"1"}},{"base_weights":[6.491003E-2,-1.9332743E-1,2.0471382E-1,1.5695324E-2,-4.311892E-2,2.6825577E-1,4.610797E-3,5.945485E-3,3.2657366E-2],"categories":[],"categories_nodes":[],"categories_segments":[],"categories_sizes":[],"default_left":[0,0,0,0,0,0,0,0,0],"id":18,"left_children":[1,3,5,-1,-1,7,-1,-1,-1],"loss_changes":[3.2229456E-1,3.3969152E-1,4.372804E-2,0E0,0E0,2.6447833E-2,0E0,0E0,0E0],"parents":[2147483647,0,0,1,1,2,2,5,5],"right_children":[2,4,6,-1,-1,8,-1,-1,-1],"split_conditions":[2E0,-4.7E-1,1E0,1.5695324E-2,-4.311892E-2,1.76E0,4.610797E-3,5.945485E-3,3.2657366E-2],"split_indices":[4,0,22,0,0,0,0,0,0],"split_type":[0,0,0,0,0,0,0,0,0],"sum_hessian":[6.830958E0,2.2647657E0,4.566192E0,1.0535027E0,1.211263E0,2.7665136E0,1.7996786E0,1.0448911E0,1.7216226E0],"tree_param":{"num_deleted":"0","num_feature":"26","num_nodes":"9","size_leaf_vector":"1"}},{"base_weights":[-1.6598473E-3,9.68594E-2,-2.0413345E-1,2.549768E-1,-8.3803765E-2,-4.645255E-2,1.8763501E-2,3.2141842E-2,4.8430185E-3,-1.2515721E-2,-2.5795854E-3],"categories":[],"categories_nodes":[],"categories_segments":[],"categories_sizes":[],"default_left":[0,0,0,0,0,0,0,0,0,0,0],"id":19,"left_children":[1,3,5,7,9,-1,-1,-1,-1,-1,-1],"loss_changes":[2.0092776E-1,2.1525282E-1,4.2322743E-1,3.7499428E-2,6.1758645E-3,0E0,0E0,0E0,0E0,0E0,0E0],"parents":[2147483647,0,0,1,1,2,2,3,3,4,4],"right_children":[2,4,6,8,10,-1,-1,-1,-1,-1,-1],"split_conditions":[1E0,1E0,1E0,2.5E0,9.4E-1,-4.645255E-2,1.8763501E-2,3.2141842E-2,4.8430185E-3,-1.2515721E-2,-2.5795854E-3],"split_indices":[21,12,12,4,0,0,0,0,0,0,0],"split_type":[0,0,0,0,0,0,0,0,0,0,0],"sum_hessian":[8.0815935E0,5.787259E0,2.294335E0,2.8668435E0,2.9204156E0,1.266699E0,1.0276358E0,1.7482991E0,1.1185443E0,1.0291517E0,1.891264E0],"tree_param":{"num_deleted":"0","num_feature":"26","num_nodes":"11","size_leaf_vector":"1"}},{"base_weights":[1.768296E-2,1.081836E-1,-1.8612446E-1,-1.3832051E-2,4.1635346E-2,-3.902774E-2,8.873665E-3,-1.3491026E-1,2.7464766E-2,-2.663109E-1,8.782333E-3,-4.9115483E-2,1.3294431E-2],"categories":[],"categories_nodes":[],"categories_segments":[],"categories_sizes":[],"default_left":[0,0,0,0,0,0,0,0,0,0,0,0,0],"id":20,"left_children":[1,3,5,7,-1,-1,-1,9,-1,11,-1,-1,-1],"loss_changes":[1.9703038E-1,2.792666E-1,2.2074476E-1,2.5286162E-1,0E0,0E0,0E0,1.70386E-1,0E0,3.7113956E-1,0E0,0E0,0E0],"parents":[2147483647,0,0,1,1,2,2,3,3,7,7,9,9],"right_children":[2,4,6,8,-1,-1,-1,10,-1,12,-1,-1,-1],"split_conditions":[1.97E0,9.4E-1,1E0,1E0,4.1635346E-2,-3.902774E-2,8.873665E-3,1E0,2.7464766E-2,1E0,8.782333E-3,-4.9115483E-2,1.3294431E-2],"split_indices":[0,0,21,24,0,0,0,22,0,12,0,0,0],"split_type":[0,0,0,0,0,0,0,0,0,0,0,0,0],"sum_hessian":[8.590548E0,6.2738385E0,2.3167095E0,5.17857E0,1.0952685E0,1.0883962E0,1.2283132E0,4.0225854E0,1.1559844E0,2.406962E0,1.6156236E0,1.3925551E0,1.0144067E0],"tree_param":{"num_deleted":"0","num_feature":"26","num_nodes":"13","size_leaf_vector":"1"}},{"base_weights":[-9.054274E-2,4.5110464E-2,-4.2336836E-2,-1.1474176E-1,4.0529203E-2,4.813579E-2,-3.8741414E-2,-1.9970912E-4,8.447676E-3],"categories":[],"categories_nodes":[],"categories_segments":[],"categories_sizes":[],"default_left":[0,0,0,0,0,0,0,0,0],"id":21,"left_children":[1,3,-1,5,-1,7,-1,-1,-1],"loss_changes":[3.7289533E-1,4.190698E-1,0E0,2.5230828E-1,0E0,7.789965E-3,0E0,0E0,0E0],"parents":[2147483647,0,0,1,1,3,3,5,5],"right_children":[2,4,-1,6,-1,8,-1,-1,-1],"split_conditions":[1.97E0,9.4E-1,-4.2336836E-2,0E0,4.0529203E-2,-4.7E-1,-3.8741414E-2,-1.9970912E-4,8.447676E-3],"split_indices":[0,0,0,0,0,0,0,0,0],"split_type":[0,0,0,0,0,0,0,0,0],"sum_hessian":[6.836233E0,5.4708743E0,1.3653591E0,4.2611613E0,1.2097129E0,3.1831884E0,1.0779727E0,1.7349062E0,1.4482824E0],"tree_param":{"num_deleted":"0","num_feature":"26","num_nodes":"9","size_leaf_vector":"1"}},{"base_weights":[-8.691562E-2,1.9488288E-2,-2.4149229E-1,-3.3004206E-2,-9.552101E-3],"categories":[],"categories_nodes":[],"categories_segments":[],"categories_sizes":[],"default_left":[0,0,0,0,0],"id":22,"left_children":[1,-1,3,-1,-1],"loss_changes":[3.6810642E-1,0E0,3.5766423E-2,0E0,0E0],"parents":[2147483647,0,0,2,2],"right_children":[2,-1,4,-1,-1],"split_conditions":[1.5E0,1.9488288E-2,9.4E-1,-3.3004206E-2,-9.552101E-3],"split_indices":[4,0,0,0,0],"split_type":[0,0,0,0,0],"sum_hessian":[6.3702383E0,2.1641562E0,4.206082E0,1.8330824E0,2.3729997E0],"tree_param":{"num_deleted":"0","num_feature":"26","num_nodes":"5","size_leaf_vector":"1"}},{"base_weights":[2.6775217E-2,1.0602802E-1,-1.5336155E-2,-5.068135E-2,3.041964E-1,-1.7126247E-1,1.4737909E-2,8.627866E-3,3.758442E-2,-2.2861328E-2,-4.2656614E-3],"categories":[],"categories_nodes":[],"categories_segments":[],"categories_sizes":[],"default_left":[0,0,0,0,0,0,0,0,0,0,0],"id":23,"left_children":[1,3,-1,5,7,9,-1,-1,-1,-1,-1],"loss_changes":[1.4482687E-1,2.2799578E-1,0E0,1.3700211E-1,1.6998142E-2,1.5113682E-2,0E0,0E0,0E0,0E0,0E0],"parents":[2147483647,0,0,1,1,3,3,4,4,5,5],"right_children":[2,4,-1,6,8,10,-1,-1,-1,-1,-1],"split_conditions":[1.97E0,1E-1,-1.5336155E-2,1E0,9.4E-1,-4.7E-1,1.4737909E-2,8.627866E-3,3.758442E-2,-2.2861328E-2,-4.2656614E-3],"split_indices":[0,0,0,24,0,0,0,0,0,0,0],"split_type":[0,0,0,0,0,0,0,0,0,0,0],"sum_hessian":[8.005545E0,5.8452682E0,2.1602762E0,3.679674E0,2.1655946E0,2.3713033E0,1.3083705E0,1.0812286E0,1.0843658E0,1.1021713E0,1.269132E0],"tree_param":{"num_deleted":"0","num_feature":"26","num_nodes":"11","size_leaf_vector":"1"}},{"base_weights":[-3.5945363E-2,-3.084046E-1,1.5013997E-1,-4.3691494E-2,-0E0,2.674559E-1,-1.6898803E-2,3.295429E-2,6.877813E-3],"categories":[],"categories_nodes":[],"categories_segments":[],"categories_sizes":[],"default_left":[0,0,0,0,0,0,0,0,0],"id":24,"left_children":[1,3,5,-1,-1,7,-1,-1,-1],"loss_changes":[4.3765637E-1,1.3712618E-1,2.4208748E-1,0E0,0E0,2.954474E-2,0E0,0E0,0E0],"parents":[2147483647,0,0,1,1,2,2,5,5],"right_children":[2,4,6,-1,-1,8,-1,-1,-1],"split_conditions":[2E0,1E0,3.5E0,-4.3691494E-2,-0E0,1.97E0,-1.6898803E-2,3.295429E-2,6.877813E-3],"split_indices":[4,21,4,0,0,0,0,0,0],"split_type":[0,0,0,0,0,0,0,0,0],"sum_hessian":[6.718883E0,2.459884E0,4.2589993E0,1.4422238E0,1.01766E0,3.2325754E0,1.0264237E0,1.9610617E0,1.2715137E0],"tree_param":{"num_deleted":"0","num_feature":"26","num_nodes":"9","size_leaf_vector":"1"}},{"base_weights":[3.645006E-2,2.8110817E-2,-1.0150365E-1,-2.9302904E-2,6.5102674E-2,2.8773395E-2,-2.157053E-2],"categories":[],"categories_nodes":[],"categories_segments":[],"categories_sizes":[],"default_left":[0,0,0,0,0,0,0],"id":25,"left_children":[1,-1,3,-1,5,-1,-1],"loss_changes":[2.7032462E-1,0E0,1.8869379E-1,0E0,2.9093537E-1,0E0,0E0],"parents":[2147483647,0,0,2,2,4,4],"right_children":[2,-1,4,-1,6,-1,-1],"split_conditions":[1.5E0,2.8110817E-2,3E0,-2.9302904E-2,3.5E0,2.8773395E-2,-2.157053E-2],"split_indices":[4,0,4,0,4,0,0],"split_type":[0,0,0,0,0,0,0],"sum_hessian":[6.163864E0,1.848279E0,4.315585E0,1.6546456E0,2.6609395E0,1.4704596E0,1.19048E0],"tree_param":{"num_deleted":"0","num_feature":"26","num_nodes":"7","size_leaf_vector":"1"}},{"base_weights":[4.95733E-2,1.21286154E-1,-2.1052806E-2,-4.4572607E-2,2.5821453E-1,-1.0227365E-2,2.6104786E-3,4.3299396E-2,-3.0235401E-3],"categories":[],"categories_nodes":[],"categories_segments":[],"categories_sizes":[],"default_left":[0,0,0,0,0,0,0,0,0],"id":26,"left_children":[1,3,-1,5,7,-1,-1,-1,-1],"loss_changes":[1.8107551E-1,1.7437062E-1,0E0,1.9372977E-2,2.1855092E-1,0E0,0E0,0E0,0E0],"parents":[2147483647,0,0,1,1,3,3,4,4],"right_children":[2,4,-1,6,8,-1,-1,-1,-1],"split_conditions":[3.5E0,2E0,-2.1052806E-2,1E0,1.97E0,-1.0227365E-2,2.6104786E-3,4.3299396E-2,-3.0235401E-3],"split_indices":[4,4,0,8,0,0,0,0,0],"split_type":[0,0,0,0,0,0,0,0,0],"sum_hessian":[7.338852E0,6.171106E0,1.1677464E0,3.0957565E0,3.075349E0,1.4582179E0,1.6375386E0,1.6029645E0,1.4723847E0],"tree_param":{"num_deleted":"0","num_feature":"26","num_nodes":"9","size_leaf_vector":"1"}},{"base_weights":[1.6842326E-2,8.076911E-2,-1.9472372E-2,-1.00160986E-1,2.3110516E-1,-1.44513445E-2,3.4510805E-10,2.8596664E-2,5.4803775E-3],"categories":[],"categories_nodes":[],"categories_segments":[],"categories_sizes":[],"default_left":[0,0,0,0,0,0,0,0,0],"id":27,"left_children":[1,3,-1,5,7,-1,-1,-1,-1],"loss_changes":[1.2274372E-1,2.0765705E-1,0E0,1.6774807E-2,2.308689E-2,0E0,0E0,0E0,0E0],"parents":[2147483647,0,0,1,1,3,3,4,4],"right_children":[2,4,-1,6,8,-1,-1,-1,-1],"split_conditions":[3.5E0,2E0,-1.9472372E-2,1E0,1.97E0,-1.44513445E-2,3.4510805E-10,2.8596664E-2,5.4803775E-3],"split_indices":[4,4,0,24,0,0,0,0,0],"split_type":[0,0,0,0,0,0,0,0,0],"sum_hessian":[6.912617E0,5.783352E0,1.1292651E0,2.7760801E0,3.0072718E0,1.6171678E0,1.1589124E0,1.8191545E0,1.1881173E0],"tree_param":{"num_deleted":"0","num_feature":"26","num_nodes":"9","size_leaf_vector":"1"}},{"base_weights":[-4.025026E-2,-1.9880116E-1,1.12884186E-1,-2.7490815E-2,-0E0,2.7064134E-6,1.8337999E-2],"categories":[],"categories_nodes":[],"categories_segments":[],"categories_sizes":[],"default_left":[0,0,0,0,0,0,0],"id":28,"left_children":[1,3,5,-1,-1,-1,-1],"loss_changes":[1.9113576E-1,5.712837E-2,3.3188764E-2,0E0,0E0,0E0,0E0],"parents":[2147483647,0,0,1,1,2,2],"right_children":[2,4,6,-1,-1,-1,-1],"split_conditions":[2E0,1E0,1E0,-2.7490815E-2,-0E0,2.7064134E-6,1.8337999E-2],"split_indices":[4,21,12,0,0,0,0],"split_type":[0,0,0,0,0,0,0],"sum_hessian":[5.947982E0,2.7757936E0,3.172188E0,1.7304832E0,1.0453104E0,1.6042767E0,1.5679115E0],"tree_param":{"num_deleted":"0","num_feature":"26","num_nodes":"7","size_leaf_vector":"1"}},{"base_weights":[5.3285234E-2,1.8124175E-1,-3.2270562E-2,-0E0,2.7005458E-2,-2.7647763E-2,9.79814E-2,-9.08236E-4,1.7143482E-2],"categories":[],"categories_nodes":[],"categories_segments":[],"categories_sizes":[],"default_left":[0,0,0,0,0,0,0,0,0],"id":29,"left_children":[1,3,5,-1,-1,-1,7,-1,-1],"loss_changes":[8.855687E-2,5.1162884E-2,1.9810902E-1,0E0,0E0,0E0,3.49382E-2,0E0,0E0],"parents":[2147483647,0,0,1,1,2,2,6,6],"right_children":[2,4,6,-1,-1,-1,8,-1,-1],"split_conditions":[1.5E0,1E0,1E0,-0E0,2.7005458E-2,-2.7647763E-2,3E0,-9.08236E-4,1.7143482E-2],"split_indices":[4,3,2,0,0,0,4,0,0],"split_type":[0,0,0,0,0,0,0,0,0],"sum_hessian":[6.5550294E0,2.1784916E0,4.376538E0,1.0453104E0,1.1331813E0,1.131838E0,3.2447E0,1.6768785E0,1.5678215E0],"tree_param":{"num_deleted":"0","num_feature":"26","num_nodes":"9","size_leaf_vector":"1"}},{"base_weights":[1.1576195E-1,2.0646489E-1,-1.1511854E-2,9.937158E-2,3.1278394E-2,-5.454526E-3,1.8596983E-2],"categories":[],"categories_nodes":[],"categories_segments":[],"categories_sizes":[],"default_left":[0,0,0,0,0,0,0],"id":30,"left_children":[1,3,-1,5,-1,-1,-1],"loss_changes":[1.7846595E-1,3.3381045E-2,0E0,6.727346E-2,0E0,0E0,0E0],"parents":[2147483647,0,0,1,1,3,3],"right_children":[2,4,-1,6,-1,-1,-1],"split_conditions":[1.97E0,1E0,-1.1511854E-2,2E0,3.1278394E-2,-5.454526E-3,1.8596983E-2],"split_indices":[0,8,0,4,0,0,0],"split_type":[0,0,0,0,0,0,0],"sum_hessian":[6.3871374E0,4.661562E0,1.7255756E0,3.2861426E0,1.3754193E0,1.3164545E0,1.9696882E0],"tree_param":{"num_deleted":"0","num_feature":"26","num_nodes":"7","size_leaf_vector":"1"}},{"base_weights":[-8.950084E-2,-2.4053197E-1,2.1542005E-2,1.8046536E-3,-3.9502617E-2,-1.8800068E-1,3.2502096E-2,-3.6638495E-2,3.104002E-3],"categories":[],"categories_nodes":[],"categories_segments":[],"categories_sizes":[],"default_left":[0,0,0,0,0,0,0,0,0],"id":31,"left_children":[1,3,5,-1,-1,7,-1,-1,-1],"loss_changes":[1.2582545E-1,1.3217673E-1,3.8309705E-1,0E0,0E0,1.5316325E-1,0E0,0E0,0E0],"parents":[2147483647,0,0,1,1,2,2,5,5],"right_children":[2,4,6,-1,-1,8,-1,-1,-1],"split_conditions":[1E0,1E0,1E0,1.8046536E-3,-3.9502617E-2,2E0,3.2502096E-2,-3.6638495E-2,3.104002E-3],"split_indices":[12,21,21,0,0,4,0,0,0],"split_type":[0,0,0,0,0,0,0,0,0],"sum_hessian":[6.193633E0,2.130198E0,4.063435E0,1.1270435E0,1.0031546E0,2.628827E0,1.4346079E0,1.0781302E0,1.5506968E0],"tree_param":{"num_deleted":"0","num_feature":"26","num_nodes":"9","size_leaf_vector":"1"}},{"base_weights":[-5.8190167E-2,-1.4866947E-1,1.632368E-2,-4.1485336E-2,3.132312E-2,1.2002723E-2,-7.2517837E-3],"categories":[],"categories_nodes":[],"categories_segments":[],"categories_sizes":[],"default_left":[0,0,0,0,0,0,0],"id":32,"left_children":[1,3,-1,-1,5,-1,-1],"loss_changes":[1.5893899E-1,2.667004E-1,0E0,0E0,4.636782E-2,0E0,0E0],"parents":[2147483647,0,0,1,1,4,4],"right_children":[2,4,-1,-1,6,-1,-1],"split_conditions":[1E0,2E0,1.632368E-2,-4.1485336E-2,4.7E-1,1.2002723E-2,-7.2517837E-3],"split_indices":[3,4,0,0,0,0,0],"split_type":[0,0,0,0,0,0,0],"sum_hessian":[5.7219186E0,4.295344E0,1.4265752E0,1.2064044E0,3.0889392E0,1.5818225E0,1.5071167E0],"tree_param":{"num_deleted":"0","num_feature":"26","num_nodes":"7","size_leaf_vector":"1"}},{"base_weights":[7.720495E-2,-4.4714725E-3,1.7893054E-2,1.2247208E-2,-1.6123677E-2],"categories":[],"categories_nodes":[],"categories_segments":[],"categories_sizes":[],"default_left":[0,0,0,0,0],"id":33,"left_children":[1,3,-1,-1,-1],"loss_changes":[6.0894344E-2,1.1899705E-1,0E0,0E0,0E0],"parents":[2147483647,0,0,1,1],"right_children":[2,4,-1,-1,-1],"split_conditions":[9.4E-1,0E0,1.7893054E-2,1.2247208E-2,-1.6123677E-2],"split_indices":[0,0,0,0,0],"split_type":[0,0,0,0,0],"sum_hessian":[6.232794E0,3.987354E0,2.24544E0,2.3241148E0,1.6632392E0],"tree_param":{"num_deleted":"0","num_feature":"26","num_nodes":"5","size_leaf_vector":"1"}},{"base_weights":[-9.994109E-3,1.1497886E-1,-2.183344E-2,2.249796E-2,-4.7027087E-3],"categories":[],"categories_nodes":[],"categories_segments":[],"categories_sizes":[],"default_left":[0,0,0,0,0],"id":34,"left_children":[1,3,-1,-1,-1],"loss_changes":[1.9085099E-1,9.3162894E-2,0E0,0E0,0E0],"parents":[2147483647,0,0,1,1],"right_children":[2,4,-1,-1,-1],"split_conditions":[3E0,1E0,-2.183344E-2,2.249796E-2,-4.7027087E-3],"split_indices":[4,2,0,0,0],"split_type":[0,0,0,0,0],"sum_hessian":[5.3658533E0,3.6340735E0,1.7317797E0,1.9329225E0,1.7011509E0],"tree_param":{"num_deleted":"0","num_feature":"26","num_nodes":"5","size_leaf_vector":"1"}},{"base_weights":[-2.2380872E-2,-1.5897062E-1,1.710387E-2,1.21780485E-2,-4.1735046E-2],"categories":[],"categories_nodes":[],"categories_segments":[],"categories_sizes":[],"default_left":[0,0,0,0,0],"id":35,"left_children":[1,3,-1,-1,-1],"loss_changes":[1.8474177E-1,3.4196886E-1,0E0,0E0,0E0],"parents":[2147483647,0,0,1,1],"right_children":[2,4,-1,-1,-1],"split_conditions":[3E0,1E0,1.710387E-2,1.21780485E-2,-4.1735046E-2],"split_indices":[4,2,0,0,0],"split_type":[0,0,0,0,0],"sum_hessian":[4.963544E0,3.0135376E0,1.9500065E0,1.6976148E0,1.3159227E0],"tree_param":{"num_deleted":"0","num_feature":"26","num_nodes":"5","size_leaf_vector":"1"}},{"base_weights":[-1.3694322E-1,-2.8808216E-2,1.136745E-2],"categories":[],"categories_nodes":[],"categories_segments":[],"categories_sizes":[],"default_left":[0,0,0],"id":36,"left_children":[1,-1,-1],"loss_changes":[2.2533888E-1,0E0,0E0],"parents":[2147483647,0,0],"right_children":[2,-1,-1],"split_conditions":[1E0,-2.8808216E-2,1.136745E-2],"split_indices":[21,0,0],"split_type":[0,0,0],"sum_hessian":[4.084502E0,2.4546802E0,1.6298219E0],"tree_param":{"num_deleted":"0","num_feature":"26","num_nodes":"3","size_leaf_vector":"1"}},{"base_weights":[-7.744938E-2,6.956957E-2,-3.795676E-2,-9.608281E-4,1.39859095E-2],"categories":[],"categories_nodes":[],"categories_segments":[],"categories_sizes":[],"default_left":[0,0,0,0,0],"id":37,"left_children":[1,3,-1,-1,-1],"loss_changes":[3.0452088E-1,2.9487561E-2,0E0,0E0,0E0],"parents":[2147483647,0,0,1,1],"right_children":[2,4,-1,-1,-1],"split_conditions":[1.97E0,1E-1,-3.795676E-2,-9.608281E-4,1.39859095E-2],"split_indices":[0,0,0,0,0],"split_type":[0,0,0,0,0],"sum_hessian":[5.2614293E0,4.0569396E0,1.2044901E0,2.3138263E0,1.743113E0],"tree_param":{"num_deleted":"0","num_feature":"26","num_nodes":"5","size_leaf_vector":"1"}},{"base_weights":[-1.0105327E-1,-2.1860193E-1,5.9861567E-2,-3.599807E-2,7.961419E-3,1.8096565E-3,8.4331315E-3],"categories":[],"categories_nodes":[],"categories_segments":[],"categories_sizes":[],"default_left":[0,0,0,0,0,0,0],"id":38,"left_children":[1,3,5,-1,-1,-1,-1],"loss_changes":[1.3999891E-1,2.0119216E-1,2.1707453E-3,0E0,0E0,0E0,0E0],"parents":[2147483647,0,0,1,1,2,2],"right_children":[2,4,6,-1,-1,-1,-1],"split_conditions":[9.4E-1,1E0,1E0,-3.599807E-2,7.961419E-3,1.8096565E-3,8.4331315E-3],"split_indices":[0,24,21,0,0,0,0],"split_type":[0,0,0,0,0,0,0],"sum_hessian":[5.7095375E0,3.0921905E0,2.6173468E0,1.9572033E0,1.1349872E0,1.6096102E0,1.0077367E0],"tree_param":{"num_deleted":"0","num_feature":"26","num_nodes":"7","size_leaf_vector":"1"}},{"base_weights":[-1.8574314E-2,6.1889865E-2,-1.9867336E-2,1.6659092E-2,-6.033243E-3],"categories":[],"categories_nodes":[],"categories_segments":[],"categories_sizes":[],"default_left":[0,0,0,0,0],"id":39,"left_children":[1,3,-1,-1,-1],"loss_changes":[9.791604E-2,7.2067186E-2,0E0,0E0,0E0],"parents":[2147483647,0,0,1,1],"right_children":[2,4,-1,-1,-1],"split_conditions":[3.5E0,1E0,-1.9867336E-2,1.6659092E-2,-6.033243E-3],"split_indices":[4,2,0,0,0],"split_type":[0,0,0,0,0],"sum_hessian":[4.9082937E0,3.8462381E0,1.0620556E0,1.8760848E0,1.9701533E0],"tree_param":{"num_deleted":"0","num_feature":"26","num_nodes":"5","size_leaf_vector":"1"}},{"base_weights":[-1.4632276E-1,-4.173256E-2,3.417842E-2,1.6332676E-1,-1.8788299E-2,2.1108858E-2,3.4340266E-3],"categories":[],"categories_nodes":[],"categories_segments":[],"categories_sizes":[],"default_left":[0,0,0,0,0,0,0],"id":40,"left_children":[1,-1,3,5,-1,-1,-1],"loss_changes":[2.9252455E-1,0E0,1.5511449E-1,1.2946919E-2,0E0,0E0,0E0],"parents":[2147483647,0,0,2,2,3,3],"right_children":[2,-1,4,6,-1,-1,-1],"split_conditions":[2E0,-4.173256E-2,3.5E0,1.76E0,-1.8788299E-2,2.1108858E-2,3.4340266E-3],"split_indices":[4,0,4,0,0,0,0],"split_type":[0,0,0,0,0,0,0],"sum_hessian":[4.6885095E0,1.3498375E0,3.338672E0,2.2781968E0,1.0604752E0,1.1980567E0,1.0801401E0],"tree_param":{"num_deleted":"0","num_feature":"26","num_nodes":"7","size_leaf_vector":"1"}},{"base_weights":[3.9054766E-2,-7.056271E-2,1.2898846E-1,-1.7769275E-2,7.7542663E-3,1.8793497E-2,3.8371128E-3],"categories":[],"categories_nodes":[],"categories_segments":[],"categories_sizes":[],"default_left":[0,0,0,0,0,0,0],"id":41,"left_children":[1,3,5,-1,-1,-1,-1],"loss_changes":[7.491095E-2,7.1769506E-2,1.4265053E-2,0E0,0E0,0E0,0E0],"parents":[2147483647,0,0,1,1,2,2],"right_children":[2,4,6,-1,-1,-1,-1],"split_conditions":[2E0,1E0,3E0,-1.7769275E-2,7.7542663E-3,1.8793497E-2,3.8371128E-3],"split_indices":[4,3,4,0,0,0,0],"split_type":[0,0,0,0,0,0,0],"sum_hessian":[5.6755056E0,2.654909E0,3.020597E0,1.4246414E0,1.2302675E0,1.1794349E0,1.8411622E0],"tree_param":{"num_deleted":"0","num_feature":"26","num_nodes":"7","size_leaf_vector":"1"}},{"base_weights":[-6.843794E-2,-2.4579622E-1,1.5276964E-2,-2.856421E-2,-7.3282085E-3],"categories":[],"categories_nodes":[],"categories_segments":[],"categories_sizes":[],"default_left":[0,0,0,0,0],"id":42,"left_children":[1,3,-1,-1,-1],"loss_changes":[2.593109E-1,3.2669157E-3,0E0,0E0,0E0],"parents":[2147483647,0,0,1,1],"right_children":[2,4,-1,-1,-1],"split_conditions":[9.4E-1,1E0,1.5276964E-2,-2.856421E-2,-7.3282085E-3],"split_indices":[0,21,0,0,0],"split_type":[0,0,0,0,0],"sum_hessian":[4.652403E0,2.520432E0,2.131971E0,1.5147967E0,1.0056354E0],"tree_param":{"num_deleted":"0","num_feature":"26","num_nodes":"5","size_leaf_vector":"1"}},{"base_weights":[-1.9178475E-1,-2.257067E-4,-3.063293E-1,-7.408993E-3,6.985349E-3,-1.1520871E-2,-3.787288E-2],"categories":[],"categories_nodes":[],"categories_segments":[],"categories_sizes":[],"default_left":[0,0,0,0,0,0,0],"id":43,"left_children":[1,3,5,-1,-1,-1,-1],"loss_changes":[1.272798E-1,2.1597704E-2,6.613791E-3,0E0,0E0,0E0,0E0],"parents":[2147483647,0,0,1,1,2,2],"right_children":[2,4,6,-1,-1,-1,-1],"split_conditions":[0E0,-4.7E-1,1.97E0,-7.408993E-3,6.985349E-3,-1.1520871E-2,-3.787288E-2],"split_indices":[0,0,0,0,0,0,0],"split_type":[0,0,0,0,0,0,0],"sum_hessian":[4.803877E0,2.1725593E0,2.6313176E0,1.0298524E0,1.1427069E0,1.4348592E0,1.1964585E0],"tree_param":{"num_deleted":"0","num_feature":"26","num_nodes":"7","size_leaf_vector":"1"}},{"base_weights":[-5.770609E-2,-3.21675E-2,1.1838389E-1,1.7575284E-2,-1.6617116E-3],"categories":[],"categories_nodes":[],"categories_segments":[],"categories_sizes":[],"default_left":[0,0,0,0,0],"id":44,"left_children":[1,-1,3,-1,-1],"loss_changes":[3.2687023E-1,0E0,3.7445392E-2,0E0,0E0],"parents":[2147483647,0,0,2,2],"right_children":[2,-1,4,-1,-1],"split_conditions":[2E0,-3.21675E-2,1.97E0,1.7575284E-2,-1.6617116E-3],"split_indices":[4,0,0,0,0],"split_type":[0,0,0,0,0],"sum_hessian":[5.212886E0,1.7551105E0,3.4577754E0,2.2147496E0,1.2430258E0],"tree_param":{"num_deleted":"0","num_feature":"26","num_nodes":"5","size_leaf_vector":"1"}},{"base_weights":[6.0915716E-2,-4.1541494E-3,1.5493058E-2,6.3260975E-3,-8.164383E-3],"categories":[],"categories_nodes":[],"categories_segments":[],"categories_sizes":[],"default_left":[0,0,0,0,0],"id":45,"left_children":[1,3,-1,-1,-1],"loss_changes":[3.8908005E-2,2.956267E-2,0E0,0E0,0E0],"parents":[2147483647,0,0,1,1],"right_children":[2,4,-1,-1,-1],"split_conditions":[9.4E-1,1E0,1.5493058E-2,6.3260975E-3,-8.164383E-3],"split_indices":[0,12,0,0,0],"split_type":[0,0,0,0,0],"sum_hessian":[5.2548723E0,3.6703513E0,1.584521E0,2.0609603E0,1.6093909E0],"tree_param":{"num_deleted":"0","num_feature":"26","num_nodes":"5","size_leaf_vector":"1"}},{"base_weights":[-1.6054592E-1,-2.6958048E-1,1.2644792E-2,-3.2347962E-2,-1.1251609E-2],"categories":[],"categories_nodes":[],"categories_segments":[],"categories_sizes":[],"default_left":[0,0,0,0,0],"id":46,"left_children":[1,3,-1,-1,-1],"loss_changes":[2.0978995E-1,7.529259E-4,0E0,0E0,0E0],"parents":[2147483647,0,0,1,1],"right_children":[2,4,-1,-1,-1],"split_conditions":[1E0,3E0,1.2644792E-2,-3.2347962E-2,-1.1251609E-2],"split_indices":[3,4,0,0,0],"split_type":[0,0,0,0,0],"sum_hessian":[4.614875E0,3.3882768E0,1.2265978E0,1.733771E0,1.654506E0],"tree_param":{"num_deleted":"0","num_feature":"26","num_nodes":"5","size_leaf_vector":"1"}},{"base_weights":[6.1026085E-2,1.7592151E-1,-1.4163697E-2,2.7430331E-2,-7.3396824E-3],"categories":[],"categories_nodes":[],"categories_segments":[],"categories_sizes":[],"default_left":[0,0,0,0,0],"id":47,"left_children":[1,3,-1,-1,-1],"loss_changes":[1.6561E-1,1.2565655E-1,0E0,0E0,0E0],"parents":[2147483647,0,0,1,1],"right_children":[2,4,-1,-1,-1],"split_conditions":[1.76E0,1E0,-1.4163697E-2,2.7430331E-2,-7.3396824E-3],"split_indices":[0,21,0,0,0],"split_type":[0,0,0,0,0],"sum_hessian":[5.042201E0,3.3020985E0,1.7401025E0,2.2959116E0,1.0061871E0],"tree_param":{"num_deleted":"0","num_feature":"26","num_nodes":"5","size_leaf_vector":"1"}},{"base_weights":[1.2959032E-1,1.968619E-2,4.995178E-2,-8.725165E-3,1.9252654E-2],"categories":[],"categories_nodes":[],"categories_segments":[],"categories_sizes":[],"default_left":[0,0,0,0,0],"id":48,"left_children":[1,-1,3,-1,-1],"loss_changes":[2.317322E-2,0E0,9.819824E-2,0E0,0E0],"parents":[2147483647,0,0,2,2],"right_children":[2,-1,4,-1,-1],"split_conditions":[1E0,1.968619E-2,1E0,-8.725165E-3,1.9252654E-2],"split_indices":[2,0,12,0,0],"split_type":[0,0,0,0,0],"sum_hessian":[5.160965E0,1.9997832E0,3.1611817E0,1.8086749E0,1.3525068E0],"tree_param":{"num_deleted":"0","num_feature":"26","num_nodes":"5","size_leaf_vector":"1"}},{"base_weights":[-2.4317348E-2,1.2900478E-2,-1.0474121E-1,-1.5349059E-2,-2.9615005E-3],"categories":[],"categories_nodes":[],"categories_segments":[],"categories_sizes":[],"default_left":[0,0,0,0,0],"id":49,"left_children":[1,-1,3,-1,-1],"loss_changes":[9.184119E-2,0E0,1.2735628E-2,0E0,0E0],"parents":[2147483647,0,0,2,2],"right_children":[2,-1,4,-1,-1],"split_conditions":[-4.3E-1,1.2900478E-2,9.4E-1,-1.5349059E-2,-2.9615005E-3],"split_indices":[0,0,0,0,0],"split_type":[0,0,0,0,0],"sum_hessian":[5.3523326E0,1.633715E0,3.7186177E0,1.6226059E0,2.0960119E0],"tree_param":{"num_deleted":"0","num_feature":"26","num_nodes":"5","size_leaf_vector":"1"}},{"base_weights":[-3.5866432E-2,-1.0543539E-1,1.7057844E-2,-4.364733E-5,-1.5450336E-2],"categories":[],"categories_nodes":[],"categories_segments":[],"categories_sizes":[],"default_left":[0,0,0,0,0],"id":50,"left_children":[1,3,-1,-1,-1],"loss_changes":[1.1038347E-1,2.7908016E-2,0E0,0E0,0E0],"parents":[2147483647,0,0,1,1],"right_children":[2,4,-1,-1,-1],"split_conditions":[1E0,0E0,1.7057844E-2,-4.364733E-5,-1.5450336E-2],"split_indices":[3,0,0,0,0],"split_type":[0,0,0,0,0],"sum_hessian":[5.43347E0,4.4299283E0,1.0035415E0,1.7321831E0,2.697745E0],"tree_param":{"num_deleted":"0","num_feature":"26","num_nodes":"5","size_leaf_vector":"1"}},{"base_weights":[-2.9442867E-2,3.0983832E-2,-1.7617503E-2,-1.0121477E-2,1.1258001E-1,-4.587269E-3,2.5552599E-2],"categories":[],"categories_nodes":[],"categories_segments":[],"categories_sizes":[],"default_left":[0,0,0,0,0,0,0],"id":51,"left_children":[1,3,-1,-1,5,-1,-1],"loss_changes":[6.270526E-2,6.989872E-2,0E0,0E0,9.8405555E-2,0E0,0E0],"parents":[2147483647,0,0,1,1,4,4],"right_children":[2,4,-1,-1,6,-1,-1],"split_conditions":[1E0,1E0,-1.7617503E-2,-1.0121477E-2,1E0,-4.587269E-3,2.5552599E-2],"split_indices":[22,12,0,0,21,0,0],"split_type":[0,0,0,0,0,0,0],"sum_hessian":[5.4564853E0,4.4236107E0,1.0328743E0,1.5965364E0,2.8270745E0,1.6628878E0,1.1641866E0],"tree_param":{"num_deleted":"0","num_feature":"26","num_nodes":"7","size_leaf_vector":"1"}},{"base_weights":[-7.387387E-2,-2.0348735E-1,1.0905388E-2,-7.4295336E-3,-2.5257975E-2],"categories":[],"categories_nodes":[],"categories_segments":[],"categories_sizes":[],"default_left":[0,0,0,0,0],"id":52,"left_children":[1,3,-1,-1,-1],"loss_changes":[1.6307667E-1,5.5051446E-3,0E0,0E0,0E0],"parents":[2147483647,0,0,1,1],"right_children":[2,4,-1,-1,-1],"split_conditions":[9.4E-1,-4.3E-1,1.0905388E-2,-7.4295336E-3,-2.5257975E-2],"split_indices":[0,0,0,0,0],"split_type":[0,0,0,0,0],"sum_hessian":[4.9420567E0,2.8267622E0,2.1152945E0,1.470461E0,1.3563011E0],"tree_param":{"num_deleted":"0","num_feature":"26","num_nodes":"5","size_leaf_vector":"1"}},{"base_weights":[-7.687733E-2,-3.7988033E-2,9.930611E-2,2.167893E-2,-7.6539093E-3],"categories":[],"categories_nodes":[],"categories_segments":[],"categories_sizes":[],"default_left":[0,0,0,0,0],"id":53,"left_children":[1,-1,3,-1,-1],"loss_changes":[3.1540123E-1,0E0,1.0091831E-1,0E0,0E0],"parents":[2147483647,0,0,2,2],"right_children":[2,-1,4,-1,-1],"split_conditions":[2E0,-3.7988033E-2,1.97E0,2.167893E-2,-7.6539093E-3],"split_indices":[4,0,0,0,0],"split_type":[0,0,0,0,0],"sum_hessian":[4.2014866E0,1.11968E0,3.081807E0,1.7079042E0,1.3739026E0],"tree_param":{"num_deleted":"0","num_feature":"26","num_nodes":"5","size_leaf_vector":"1"}},{"base_weights":[1.9699432E-2,1.7784859E-1,-3.5300724E-2,2.4501955E-2,-7.500224E-4],"categories":[],"categories_nodes":[],"categories_segments":[],"categories_sizes":[],"default_left":[0,0,0,0,0],"id":54,"left_children":[1,3,-1,-1,-1],"loss_changes":[4.0751523E-1,6.123911E-2,0E0,0E0,0E0],"parents":[2147483647,0,0,1,1],"right_children":[2,4,-1,-1,-1],"split_conditions":[1.97E0,3E0,-3.5300724E-2,2.4501955E-2,-7.500224E-4],"split_indices":[0,4,0,0,0],"split_type":[0,0,0,0,0],"sum_hessian":[4.848565E0,3.7711759E0,1.0773894E0,2.5317314E0,1.2394445E0],"tree_param":{"num_deleted":"0","num_feature":"26","num_nodes":"5","size_leaf_vector":"1"}},{"base_weights":[-5.2212477E-2,-1.6835587E-1,9.76112E-3,-2.277956E-3,-2.3987418E-2],"categories":[],"categories_nodes":[],"categories_segments":[],"categories_sizes":[],"default_left":[0,0,0,0,0],"id":55,"left_children":[1,3,-1,-1,-1],"loss_changes":[1.1083073E-1,3.0172795E-2,0E0,0E0,0E0],"parents":[2147483647,0,0,1,1],"right_children":[2,4,-1,-1,-1],"split_conditions":[9.4E-1,-4.3E-1,9.76112E-3,-2.277956E-3,-2.3987418E-2],"split_indices":[0,0,0,0,0],"split_type":[0,0,0,0,0],"sum_hessian":[4.4248123E0,2.422892E0,2.0019202E0,1.2325457E0,1.1903462E0],"tree_param":{"num_deleted":"0","num_feature":"26","num_nodes":"5","size_leaf_vector":"1"}},{"base_weights":[2.019506E-2,-6.886278E-2,1.6871192E-2,-1.4615334E-2,2.6684718E-3],"categories":[],"categories_nodes":[],"categories_segments":[],"categories_sizes":[],"default_left":[0,0,0,0,0],"id":56,"left_children":[1,3,-1,-1,-1],"loss_changes":[8.3211325E-2,3.4133244E-2,0E0,0E0,0E0],"parents":[2147483647,0,0,1,1],"right_children":[2,4,-1,-1,-1],"split_conditions":[1E0,1E0,1.6871192E-2,-1.4615334E-2,2.6684718E-3],"split_indices":[21,2,0,0,0],"split_type":[0,0,0,0,0],"sum_hessian":[4.412835E0,3.0939088E0,1.3189261E0,1.4175663E0,1.6763425E0],"tree_param":{"num_deleted":"0","num_feature":"26","num_nodes":"5","size_leaf_vector":"1"}},{"base_weights":[5.8934204E-2,-3.639593E-3,1.2173282E-1,2.1668283E-2,-4.0804017E-3],"categories":[],"categories_nodes":[],"categories_segments":[],"categories_sizes":[],"default_left":[0,0,0,0,0],"id":57,"left_children":[1,-1,3,-1,-1],"loss_changes":[4.017371E-2,0E0,6.794295E-2,0E0,0E0],"parents":[2147483647,0,0,2,2],"right_children":[2,-1,4,-1,-1],"split_conditions":[1E-1,-3.639593E-3,1.97E0,2.1668283E-2,-4.0804017E-3],"split_indices":[0,0,0,0,0],"split_type":[0,0,0,0,0],"sum_hessian":[4.9705224E0,2.140943E0,2.8295796E0,1.5758666E0,1.2537129E0],"tree_param":{"num_deleted":"0","num_feature":"26","num_nodes":"5","size_leaf_vector":"1"}},{"base_weights":[6.9415435E-2,3.7568613E-4,1.5129282E-2,6.5389643E-3,-7.5042546E-3],"categories":[],"categories_nodes":[],"categories_segments":[],"categories_sizes":[],"default_left":[0,0,0,0,0],"id":58,"left_children":[1,3,-1,-1,-1],"loss_changes":[3.5405554E-2,2.6510794E-2,0E0,0E0,0E0],"parents":[2147483647,0,0,1,1],"right_children":[2,4,-1,-1,-1],"split_conditions":[9.4E-1,1E0,1.5129282E-2,6.5389643E-3,-7.5042546E-3],"split_indices":[0,12,0,0,0],"split_type":[0,0,0,0,0],"sum_hessian":[5.273428E0,3.4060252E0,1.8674029E0,1.900597E0,1.5054282E0],"tree_param":{"num_deleted":"0","num_feature":"26","num_nodes":"5","size_leaf_vector":"1"}},{"base_weights":[-3.081642E-2,-9.4895594E-2,7.881308E-3,6.2127495E-3,-1.8341614E-2],"categories":[],"categories_nodes":[],"categories_segments":[],"categories_sizes":[],"default_left":[0,0,0,0,0],"id":59,"left_children":[1,3,-1,-1,-1],"loss_changes":[4.294716E-2,6.199183E-2,0E0,0E0,0E0],"parents":[2147483647,0,0,1,1],"right_children":[2,4,-1,-1,-1],"split_conditions":[1E0,0E0,7.881308E-3,6.2127495E-3,-1.8341614E-2],"split_indices":[8,0,0,0,0],"split_type":[0,0,0,0,0],"sum_hessian":[4.04887E0,2.6401072E0,1.4087629E0,1.059269E0,1.5808382E0],"tree_param":{"num_deleted":"0","num_feature":"26","num_nodes":"5","size_leaf_vector":"1"}},{"base_weights":[1.8386364E-2,1.0262737E-1,-1.239542E-2,1.0001912E-3,1.7674422E-2],"categories":[],"categories_nodes":[],"categories_segments":[],"categories_sizes":[],"default_left":[0,0,0,0,0],"id":60,"left_children":[1,3,-1,-1,-1],"loss_changes":[8.219993E-2,2.6977032E-2,0E0,0E0,0E0],"parents":[2147483647,0,0,1,1],"right_children":[2,4,-1,-1,-1],"split_conditions":[1.97E0,1E-1,-1.239542E-2,1.0001912E-3,1.7674422E-2],"split_indices":[0,0,0,0,0],"split_type":[0,0,0,0,0],"sum_hessian":[4.7942915E0,3.1870878E0,1.6072037E0,1.9211421E0,1.2659456E0],"tree_param":{"num_deleted":"0","num_feature":"26","num_nodes":"5","size_leaf_vector":"1"}},{"base_weights":[1.741295E-2,-1.26460595E-2,1.2177029E-1,1.7942531E-2,4.495607E-3],"categories":[],"categories_nodes":[],"categories_segments":[],"categories_sizes":[],"default_left":[0,0,0,0,0],"id":61,"left_children":[1,-1,3,-1,-1],"loss_changes":[1.0851871E-1,0E0,1.0109868E-2,0E0,0E0],"parents":[2147483647,0,0,2,2],"right_children":[2,-1,4,-1,-1],"split_conditions":[2E0,-1.26460595E-2,3E0,1.7942531E-2,4.495607E-3],"split_indices":[4,0,4,0,0],"split_type":[0,0,0,0,0],"sum_hessian":[5.202075E0,2.0979316E0,3.1041431E0,1.010129E0,2.0940142E0],"tree_param":{"num_deleted":"0","num_feature":"26","num_nodes":"5","size_leaf_vector":"1"}},{"base_weights":[-1.4262007E-3,-3.3153098E-2,5.095964E-3,-9.027397E-3,7.137646E-3],"categories":[],"categories_nodes":[],"categories_segments":[],"categories_sizes":[],"default_left":[0,0,0,0,0],"id":62,"left_children":[1,3,-1,-1,-1],"loss_changes":[1.2199709E-2,3.3576507E-2,0E0,0E0,0E0],"parents":[2147483647,0,0,1,1],"right_children":[2,4,-1,-1,-1],"split_conditions":[9.4E-1,1E0,5.095964E-3,-9.027397E-3,7.137646E-3],"split_indices":[0,22,0,0,0],"split_type":[0,0,0,0,0],"sum_hessian":[5.323698E0,3.5442803E0,1.7794178E0,2.3800597E0,1.1642208E0],"tree_param":{"num_deleted":"0","num_feature":"26","num_nodes":"5","size_leaf_vector":"1"}},{"base_weights":[-6.897479E-2,-1.6765457E-2,1.392781E-2,9.364456E-3,-6.6108443E-3],"categories":[],"categories_nodes":[],"categories_segments":[],"categories_sizes":[],"default_left":[0,0,0,0,0],"id":63,"left_children":[1,-1,3,-1,-1],"loss_changes":[4.2131074E-2,0E0,2.8948398E-2,0E0,0E0],"parents":[2147483647,0,0,2,2],"right_children":[2,-1,4,-1,-1],"split_conditions":[2E0,-1.6765457E-2,3E0,9.364456E-3,-6.6108443E-3],"split_indices":[4,0,4,0,0],"split_type":[0,0,0,0,0],"sum_hessian":[3.8645566E0,1.2976471E0,2.5669096E0,1.2008383E0,1.3660712E0],"tree_param":{"num_deleted":"0","num_feature":"26","num_nodes":"5","size_leaf_vector":"1"}},{"base_weights":[1.5125685E-2,-7.053655E-2,1.7077902E-2,1.4268616E-2,-2.0845221E-2],"categories":[],"categories_nodes":[],"categories_segments":[],"categories_sizes":[],"default_left":[0,0,0,0,0],"id":64,"left_children":[1,3,-1,-1,-1],"loss_changes":[8.9032054E-2,1.6007191E-1,0E0,0E0,0E0],"parents":[2147483647,0,0,1,1],"right_children":[2,4,-1,-1,-1],"split_conditions":[1E0,1E0,1.7077902E-2,1.4268616E-2,-2.0845221E-2],"split_indices":[21,12,0,0,0],"split_type":[0,0,0,0,0],"sum_hessian":[4.7738214E0,3.4319293E0,1.341892E0,1.3343638E0,2.0975657E0],"tree_param":{"num_deleted":"0","num_feature":"26","num_nodes":"5","size_leaf_vector":"1"}},{"base_weights":[1.6626371E-2,9.055385E-2,-1.1241625E-2,-4.0648566E-3,2.0170478E-2],"categories":[],"categories_nodes":[],"categories_segments":[],"categories_sizes":[],"default_left":[0,0,0,0,0],"id":65,"left_children":[1,3,-1,-1,-1],"loss_changes":[6.603929E-2,7.056537E-2,0E0,0E0,0E0],"parents":[2147483647,0,0,1,1],"right_children":[2,4,-1,-1,-1],"split_conditions":[1.97E0,1E-1,-1.1241625E-2,-4.0648566E-3,2.0170478E-2],"split_indices":[0,0,0,0,0],"split_type":[0,0,0,0,0],"sum_hessian":[4.8554263E0,3.2765698E0,1.5788565E0,1.7936462E0,1.4829237E0],"tree_param":{"num_deleted":"0","num_feature":"26","num_nodes":"5","size_leaf_vector":"1"}},{"base_weights":[-8.4957555E-3,-1.6608281E-2,1.3681826E-2],"categories":[],"categories_nodes":[],"categories_segments":[],"categories_sizes":[],"default_left":[0,0,0],"id":66,"left_children":[1,-1,-1],"loss_changes":[1.3388707E-1,0E0,0E0],"parents":[2147483647,0,0],"right_children":[2,-1,-1],"split_conditions":[1E-1,-1.6608281E-2,1.3681826E-2],"split_indices":[0,0,0],"split_type":[0,0,0],"sum_hessian":[3.8544028E0,1.7805482E0,2.0738544E0],"tree_param":{"num_deleted":"0","num_feature":"26","num_nodes":"3","size_leaf_vector":"1"}},{"base_weights":[-1.0127643E-2,-1.03006124E-1,1.2095151E-2,3.4423321E-3,-2.2716133E-2],"categories":[],"categories_nodes":[],"categories_segments":[],"categories_sizes":[],"default_left":[0,0,0,0,0],"id":67,"left_children":[1,3,-1,-1,-1],"loss_changes":[8.4095195E-2,7.579671E-2,0E0,0E0,0E0],"parents":[2147483647,0,0,1,1],"right_children":[2,4,-1,-1,-1],"split_conditions":[9.4E-1,-4.3E-1,1.2095151E-2,3.4423321E-3,-2.2716133E-2],"split_indices":[0,0,0,0,0],"split_type":[0,0,0,0,0],"sum_hessian":[4.8841724E0,2.983985E0,1.9001875E0,1.7593124E0,1.2246724E0],"tree_param":{"num_deleted":"0","num_feature":"26","num_nodes":"5","size_leaf_vector":"1"}},{"base_weights":[-2.8190177E-2,5.096653E-2,-9.0044565E-2,-6.5449836E-5,7.992786E-3,-2.5253005E-3,-1.2667383E-2],"categories":[],"categories_nodes":[],"categories_segments":[],"categories_sizes":[],"default_left":[0,0,0,0,0,0,0],"id":68,"left_children":[1,3,5,-1,-1,-1,-1],"loss_changes":[3.263655E-2,4.7635743E-3,5.290456E-3,0E0,0E0,0E0,0E0],"parents":[2147483647,0,0,1,1,2,2],"right_children":[2,4,6,-1,-1,-1,-1],"split_conditions":[0E0,-4.7E-1,1.76E0,-6.5449836E-5,7.992786E-3,-2.5253005E-3,-1.2667383E-2],"split_indices":[0,0,0,0,0,0,0],"split_type":[0,0,0,0,0,0,0],"sum_hessian":[4.72839E0,2.151317E0,2.5770733E0,1.1244625E0,1.0268545E0,1.5408924E0,1.0361811E0],"tree_param":{"num_deleted":"0","num_feature":"26","num_nodes":"7","size_leaf_vector":"1"}},{"base_weights":[1.5825795E-1,3.045836E-1,-1.1996169E-2,1.2319823E-2,3.7355214E-2],"categories":[],"categories_nodes":[],"categories_segments":[],"categories_sizes":[],"default_left":[0,0,0,0,0],"id":69,"left_children":[1,3,-1,-1,-1],"loss_changes":[2.566039E-1,1.8298924E-3,0E0,0E0,0E0],"parents":[2147483647,0,0,1,1],"right_children":[2,4,-1,-1,-1],"split_conditions":[1.97E0,2E0,-1.1996169E-2,1.2319823E-2,3.7355214E-2],"split_indices":[0,4,0,0,0],"split_type":[0,0,0,0,0],"sum_hessian":[4.4055977E0,2.8250456E0,1.5805522E0,1.5458356E0,1.2792101E0],"tree_param":{"num_deleted":"0","num_feature":"26","num_nodes":"5","size_leaf_vector":"1"}},{"base_weights":[5.7223525E-2,1.0639678E-2,-5.109973E-3,1.0731699E-3,-1.9073681E-3],"categories":[],"categories_nodes":[],"categories_segments":[],"categories_sizes":[],"default_left":[0,0,0,0,0],"id":70,"left_children":[1,-1,3,-1,-1],"loss_changes":[1.7204706E-2,0E0,9.460142E-4,0E0,0E0],"parents":[2147483647,0,0,2,2],"right_children":[2,-1,4,-1,-1],"split_conditions":[1E0,1.0639678E-2,1E0,1.0731699E-3,-1.9073681E-3],"split_indices":[2,0,21,0,0],"split_type":[0,0,0,0,0],"sum_hessian":[4.4356465E0,2.0844126E0,2.3512337E0,1.2099813E0,1.1412524E0],"tree_param":{"num_deleted":"0","num_feature":"26","num_nodes":"5","size_leaf_vector":"1"}},{"base_weights":[3.680889E-2,-1.577539E-2,1.9562008E-2],"categories":[],"categories_nodes":[],"categories_segments":[],"categories_sizes":[],"default_left":[0,0,0],"id":71,"left_children":[1,-1,-1],"loss_changes":[1.8965875E-1,0E0,0E0],"parents":[2147483647,0,0],"right_children":[2,-1,-1],"split_conditions":[2E0,-1.577539E-2,1.9562008E-2],"split_indices":[4,0,0],"split_type":[0,0,0],"sum_hessian":[4.1393313E0,1.8632653E0,2.276066E0],"tree_param":{"num_deleted":"0","num_feature":"26","num_nodes":"3","size_leaf_vector":"1"}},{"base_weights":[7.057849E-2,1.5246483E-2,-1.4410606E-2,-8.867792E-3,8.451256E-3],"categories":[],"categories_nodes":[],"categories_segments":[],"categories_sizes":[],"default_left":[0,0,0,0,0],"id":72,"left_children":[1,-1,3,-1,-1],"loss_changes":[3.9287858E-2,0E0,3.3420198E-2,0E0,0E0],"parents":[2147483647,0,0,2,2],"right_children":[2,-1,4,-1,-1],"split_conditions":[1E0,1.5246483E-2,9.4E-1,-8.867792E-3,8.451256E-3],"split_indices":[12,0,0,0,0],"split_type":[0,0,0,0,0],"sum_hessian":[4.3295565E0,1.8006808E0,2.5288756E0,1.5036024E0,1.0252732E0],"tree_param":{"num_deleted":"0","num_feature":"26","num_nodes":"5","size_leaf_vector":"1"}},{"base_weights":[-1.3171405E-1,-2.1087602E-2,5.4285757E-4],"categories":[],"categories_nodes":[],"categories_segments":[],"categories_sizes":[],"default_left":[0,0,0],"id":73,"left_children":[1,-1,-1],"loss_changes":[5.4335058E-2,0E0,0E0],"parents":[2147483647,0,0],"right_children":[2,-1,-1],"split_conditions":[3E0,-2.1087602E-2,5.4285757E-4],"split_indices":[4,0,0],"split_type":[0,0,0],"sum_hessian":[3.8994067E0,2.1314456E0,1.767961E0],"tree_param":{"num_deleted":"0","num_feature":"26","num_nodes":"3","size_leaf_vector":"1"}},{"base_weights":[1.1222195E-1,2.291712E-2,-1.1423427E-2,-2.0881018E-2,1.6882496E-2],"categories":[],"categories_nodes":[],"categories_segments":[],"categories_sizes":[],"default_left":[0,0,0,0,0],"id":74,"left_children":[1,-1,3,-1,-1],"loss_changes":[7.418811E-2,0E0,1.5473858E-1,0E0,0E0],"parents":[2147483647,0,0,2,2],"right_children":[2,-1,4,-1,-1],"split_conditions":[1E0,2.291712E-2,9.4E-1,-2.0881018E-2,1.6882496E-2],"split_indices":[12,0,0,0,0],"split_type":[0,0,0,0,0],"sum_hessian":[3.94945E0,1.5910807E0,2.3583694E0,1.0500361E0,1.3083333E0],"tree_param":{"num_deleted":"0","num_feature":"26","num_nodes":"5","size_leaf_vector":"1"}},{"base_weights":[-1.356358E-1,-3.677295E-2,-1.9236086E-2,1.0439339E-2,-1.6100034E-2],"categories":[],"categories_nodes":[],"categories_segments":[],"categories_sizes":[],"default_left":[0,0,0,0,0],"id":75,"left_children":[1,3,-1,-1,-1],"loss_changes":[2.1358348E-2,7.090397E-2,0E0,0E0,0E0],"parents":[2147483647,0,0,1,1],"right_children":[2,4,-1,-1,-1],"split_conditions":[1E0,1.5E0,-1.9236086E-2,1.0439339E-2,-1.6100034E-2],"split_indices":[2,4,0,0,0],"split_type":[0,0,0,0,0],"sum_hessian":[4.0699058E0,2.0847614E0,1.9851446E0,1.0505842E0,1.0341772E0],"tree_param":{"num_deleted":"0","num_feature":"26","num_nodes":"5","size_leaf_vector":"1"}},{"base_weights":[1.0485519E-1,-8.243441E-3,2.329865E-2],"categories":[],"categories_nodes":[],"categories_segments":[],"categories_sizes":[],"default_left":[0,0,0],"id":76,"left_children":[1,-1,-1],"loss_changes":[1.4054923E-1,0E0,0E0],"parents":[2147483647,0,0],"right_children":[2,-1,-1],"split_conditions":[2E0,-8.243441E-3,2.329865E-2],"split_indices":[4,0,0],"split_type":[0,0,0],"sum_hessian":[4.056456E0,1.7927027E0,2.2637532E0],"tree_param":{"num_deleted":"0","num_feature":"26","num_nodes":"3","size_leaf_vector":"1"}},{"base_weights":[5.461889E-2,-4.7401357E-2,1.2874623E-1,-7.2135674E-3,-1.13238755E-4,3.7427128E-3,1.5121864E-2],"categories":[],"categories_nodes":[],"categories_segments":[],"categories_sizes":[],"default_left":[0,0,0,0,0,0,0],"id":77,"left_children":[1,3,5,-1,-1,-1,-1],"loss_changes":[5.0229635E-2,3.564931E-3,1.827769E-3,0E0,0E0,0E0,0E0],"parents":[2147483647,0,0,1,1,2,2],"right_children":[2,4,6,-1,-1,-1,-1],"split_conditions":[2E0,1E0,3E0,-7.2135674E-3,-1.13238755E-4,3.7427128E-3,1.5121864E-2],"split_indices":[4,8,4,0,0,0,0],"split_type":[0,0,0,0,0,0,0],"sum_hessian":[4.8349695E0,2.1864016E0,2.6485682E0,1.0604559E0,1.1259457E0,1.0494567E0,1.5991113E0],"tree_param":{"num_deleted":"0","num_feature":"26","num_nodes":"7","size_leaf_vector":"1"}},{"base_weights":[-1.832423E-2,-1.1502578E-1,1.4221178E-2,-2.424593E-2,6.0974886E-3],"categories":[],"categories_nodes":[],"categories_segments":[],"categories_sizes":[],"default_left":[0,0,0,0,0],"id":78,"left_children":[1,3,-1,-1,-1],"loss_changes":[8.6439066E-2,9.0370744E-2,0E0,0E0,0E0],"parents":[2147483647,0,0,1,1],"right_children":[2,4,-1,-1,-1],"split_conditions":[1E0,1E0,1.4221178E-2,-2.424593E-2,6.0974886E-3],"split_indices":[8,2,0,0,0],"split_type":[0,0,0,0,0],"sum_hessian":[3.514344E0,2.3701398E0,1.144204E0,1.1557285E0,1.2144114E0],"tree_param":{"num_deleted":"0","num_feature":"26","num_nodes":"5","size_leaf_vector":"1"}},{"base_weights":[-4.4787056E-3,-3.9563958E-2,8.092104E-3,-1.0741877E-2,5.103806E-3],"categories":[],"categories_nodes":[],"categories_segments":[],"categories_sizes":[],"default_left":[0,0,0,0,0],"id":79,"left_children":[1,3,-1,-1,-1],"loss_changes":[2.060324E-2,3.4919135E-2,0E0,0E0,0E0],"parents":[2147483647,0,0,1,1],"right_children":[2,4,-1,-1,-1],"split_conditions":[1E0,1E0,8.092104E-3,-1.0741877E-2,5.103806E-3],"split_indices":[3,21,0,0,0],"split_type":[0,0,0,0,0],"sum_hessian":[4.807778E0,3.7881796E0,1.0195985E0,2.059867E0,1.7283128E0],"tree_param":{"num_deleted":"0","num_feature":"26","num_nodes":"5","size_leaf_vector":"1"}},{"base_weights":[-1.6365437E-2,4.365988E-2,-1.2449538E-2,-9.723016E-3,2.0436985E-2],"categories":[],"categories_nodes":[],"categories_segments":[],"categories_sizes":[],"default_left":[0,0,0,0,0],"id":80,"left_children":[1,3,-1,-1,-1],"loss_changes":[4.105506E-2,1.1653822E-1,0E0,0E0,0E0],"parents":[2147483647,0,0,1,1],"right_children":[2,4,-1,-1,-1],"split_conditions":[1E0,1E0,-1.2449538E-2,-9.723016E-3,2.0436985E-2],"split_indices":[8,21,0,0,0],"split_type":[0,0,0,0,0],"sum_hessian":[4.4879313E0,3.269299E0,1.2186322E0,1.9525487E0,1.3167503E0],"tree_param":{"num_deleted":"0","num_feature":"26","num_nodes":"5","size_leaf_vector":"1"}},{"base_weights":[1.2366173E-1,2.7825132E-2,1.9480385E-2,6.65271E-2,-5.1640123E-3,8.999014E-3,1.035187E-3],"categories":[],"categories_nodes":[],"categories_segments":[],"categories_sizes":[],"default_left":[0,0,0,0,0,0,0],"id":81,"left_children":[1,-1,3,5,-1,-1,-1],"loss_changes":[8.1885435E-2,0E0,1.786917E-2,3.0664317E-3,0E0,0E0,0E0],"parents":[2147483647,0,0,2,2,3,3],"right_children":[2,-1,4,6,-1,-1,-1],"split_conditions":[1.5E0,2.7825132E-2,1.97E0,3E0,-5.1640123E-3,8.999014E-3,1.035187E-3],"split_indices":[4,0,0,4,0,0,0],"split_type":[0,0,0,0,0,0,0],"sum_hessian":[4.4209237E0,1.1071868E0,3.313737E0,2.0332885E0,1.2804484E0,1.0096345E0,1.023654E0],"tree_param":{"num_deleted":"0","num_feature":"26","num_nodes":"7","size_leaf_vector":"1"}},{"base_weights":[-6.971468E-2,-1.07811704E-1,-1.0361485E-9,1.3655401E-2,-3.2127436E-2],"categories":[],"categories_nodes":[],"categories_segments":[],"categories_sizes":[],"default_left":[0,0,0,0,0],"id":82,"left_children":[1,3,-1,-1,-1],"loss_changes":[1.41020715E-2,2.2296827E-1,0E0,0E0,0E0],"parents":[2147483647,0,0,1,1],"right_children":[2,4,-1,-1,-1],"split_conditions":[1E0,1E0,-1.0361485E-9,1.3655401E-2,-3.2127436E-2],"split_indices":[21,12,0,0,0],"split_type":[0,0,0,0,0],"sum_hessian":[4.3096724E0,2.4334126E0,1.8762598E0,1.3025653E0,1.1308472E0],"tree_param":{"num_deleted":"0","num_feature":"26","num_nodes":"5","size_leaf_vector":"1"}},{"base_weights":[-9.178624E-2,-2.8032748E-2,4.171905E-2,9.411897E-3,-4.3242946E-3],"categories":[],"categories_nodes":[],"categories_segments":[],"categories_sizes":[],"default_left":[0,0,0,0,0],"id":83,"left_children":[1,-1,3,-1,-1],"loss_changes":[1.5156929E-1,0E0,2.2428842E-2,0E0,0E0],"parents":[2147483647,0,0,2,2],"right_children":[2,-1,4,-1,-1],"split_conditions":[2E0,-2.8032748E-2,1.97E0,9.411897E-3,-4.3242946E-3],"split_indices":[4,0,0,0,0],"split_type":[0,0,0,0,0],"sum_hessian":[4.556906E0,1.4331747E0,3.1237316E0,1.8654479E0,1.2582837E0],"tree_param":{"num_deleted":"0","num_feature":"26","num_nodes":"5","size_leaf_vector":"1"}},{"base_weights":[8.177739E-3,6.247667E-2,-9.692399E-3,-4.026141E-2,1.815908E-2,-5.272648E-3,-1.1401211E-3],"categories":[],"categories_nodes":[],"categories_segments":[],"categories_sizes":[],"default_left":[0,0,0,0,0,0,0],"id":84,"left_children":[1,3,-1,5,-1,-1,-1],"loss_changes":[4.1029666E-2,6.420155E-2,0E0,5.912343E-4,0E0,0E0,0E0],"parents":[2147483647,0,0,1,1,3,3],"right_children":[2,4,-1,6,-1,-1,-1],"split_conditions":[1.97E0,1E-1,-9.692399E-3,-4.7E-1,1.815908E-2,-5.272648E-3,-1.1401211E-3],"split_indices":[0,0,0,0,0,0,0],"split_type":[0,0,0,0,0,0,0],"sum_hessian":[5.12839E0,3.6488411E0,1.4795486E0,2.3145194E0,1.3343217E0,1.038861E0,1.2756584E0],"tree_param":{"num_deleted":"0","num_feature":"26","num_nodes":"7","size_leaf_vector":"1"}},{"base_weights":[1.2502778E-1,1.929607E-1,-4.7759777E-3,6.235209E-3,2.8355032E-2],"categories":[],"categories_nodes":[],"categories_segments":[],"categories_sizes":[],"default_left":[0,0,0,0,0],"id":85,"left_children":[1,3,-1,-1,-1],"loss_changes":[7.118246E-2,2.9502317E-2,0E0,0E0,0E0],"parents":[2147483647,0,0,1,1],"right_children":[2,4,-1,-1,-1],"split_conditions":[1.97E0,1E-1,-4.7759777E-3,6.235209E-3,2.8355032E-2],"split_indices":[0,0,0,0,0],"split_type":[0,0,0,0,0],"sum_hessian":[4.2791705E0,2.9877567E0,1.2914137E0,1.915031E0,1.0727258E0],"tree_param":{"num_deleted":"0","num_feature":"26","num_nodes":"5","size_leaf_vector":"1"}},{"base_weights":[1.3675762E-2,6.3811645E-2,-8.416353E-3,-4.7505097E-3,1.10831976E-1,3.1979976E-3,1.3460894E-2],"categories":[],"categories_nodes":[],"categories_segments":[],"categories_sizes":[],"default_left":[0,0,0,0,0,0,0],"id":86,"left_children":[1,3,-1,-1,5,-1,-1],"loss_changes":[3.4354948E-2,2.8691093E-2,0E0,0E0,2.156999E-3,0E0,0E0],"parents":[2147483647,0,0,1,1,4,4],"right_children":[2,4,-1,-1,6,-1,-1],"split_conditions":[1.97E0,-4.7E-1,-8.416353E-3,-4.7505097E-3,1E-1,3.1979976E-3,1.3460894E-2],"split_indices":[0,0,0,0,0,0,0],"split_type":[0,0,0,0,0,0,0],"sum_hessian":[4.9088283E0,3.4756093E0,1.433219E0,1.0290674E0,2.446542E0,1.1100987E0,1.3364433E0],"tree_param":{"num_deleted":"0","num_feature":"26","num_nodes":"7","size_leaf_vector":"1"}},{"base_weights":[5.5238776E-2,1.243694E-1,-8.610467E-3,4.632264E-3,2.3903864E-2,-4.2529847E-3,4.8684706E-3],"categories":[],"categories_nodes":[],"categories_segments":[],"categories_sizes":[],"default_left":[0,0,0,0,0,0,0],"id":87,"left_children":[1,3,-1,5,-1,-1,-1],"loss_changes":[6.617844E-2,5.6853153E-2,0E0,8.479603E-3,0E0,0E0,0E0],"parents":[2147483647,0,0,1,1,3,3],"right_children":[2,4,-1,6,-1,-1,-1],"split_conditions":[1.97E0,1E-1,-8.610467E-3,-4.7E-1,2.3903864E-2,-4.2529847E-3,4.8684706E-3],"split_indices":[0,0,0,0,0,0,0],"split_type":[0,0,0,0,0,0,0],"sum_hessian":[4.676875E0,3.221393E0,1.4554821E0,2.0848246E0,1.1365684E0,1.0235671E0,1.0612575E0],"tree_param":{"num_deleted":"0","num_feature":"26","num_nodes":"7","size_leaf_vector":"1"}},{"base_weights":[-1.5012309E-1,-2.445177E-2,-8.301927E-4],"categories":[],"categories_nodes":[],"categories_segments":[],"categories_sizes":[],"default_left":[0,0,0],"id":88,"left_children":[1,-1,-1],"loss_changes":[4.3840803E-2,0E0,0E0],"parents":[2147483647,0,0],"right_children":[2,-1,-1],"split_conditions":[1E-1,-2.445177E-2,-8.301927E-4],"split_indices":[0,0,0],"split_type":[0,0,0],"sum_hessian":[2.4264767E0,1.0220705E0,1.4044061E0],"tree_param":{"num_deleted":"0","num_feature":"26","num_nodes":"3","size_leaf_vector":"1"}},{"base_weights":[-5.6573324E-2,-1.4467014E-1,5.6593684E-3,-3.1201257E-3,-1.8245047E-2],"categories":[],"categories_nodes":[],"categories_segments":[],"categories_sizes":[],"default_left":[0,0,0,0,0],"id":89,"left_children":[1,3,-1,-1,-1],"loss_changes":[6.0984947E-2,8.278035E-3,0E0,0E0,0E0],"parents":[2147483647,0,0,1,1],"right_children":[2,4,-1,-1,-1],"split_conditions":[9.4E-1,-4.7E-1,5.6593684E-3,-3.1201257E-3,-1.8245047E-2],"split_indices":[0,0,0,0,0],"split_type":[0,0,0,0,0],"sum_hessian":[4.295824E0,2.2589376E0,2.0368867E0,1.0203359E0,1.2386018E0],"tree_param":{"num_deleted":"0","num_feature":"26","num_nodes":"5","size_leaf_vector":"1"}},{"base_weights":[-5.8036253E-2,1.3041983E-2,-1.6520401E-2],"categories":[],"categories_nodes":[],"categories_segments":[],"categories_sizes":[],"default_left":[0,0,0],"id":90,"left_children":[1,-1,-1],"loss_changes":[1.0474329E-1,0E0,0E0],"parents":[2147483647,0,0],"right_children":[2,-1,-1],"split_conditions":[-4.3E-1,1.3041983E-2,-1.6520401E-2],"split_indices":[0,0,0],"split_type":[0,0,0],"sum_hessian":[3.1194136E0,1.0521766E0,2.0672371E0],"tree_param":{"num_deleted":"0","num_feature":"26","num_nodes":"3","size_leaf_vector":"1"}},{"base_weights":[3.820481E-2,9.910154E-2,-8.543155E-3,-4.275162E-3,1.5631538E-2],"categories":[],"categories_nodes":[],"categories_segments":[],"categories_sizes":[],"default_left":[0,0,0,0,0],"id":91,"left_children":[1,3,-1,-1,-1],"loss_changes":[5.1555365E-2,4.1559983E-2,0E0,0E0,0E0],"parents":[2147483647,0,0,1,1],"right_children":[2,4,-1,-1,-1],"split_conditions":[1.97E0,-4.7E-1,-8.543155E-3,-4.275162E-3,1.5631538E-2],"split_indices":[0,0,0,0,0],"split_type":[0,0,0,0,0],"sum_hessian":[4.723028E0,3.2973642E0,1.425664E0,1.0203452E0,2.277019E0],"tree_param":{"num_deleted":"0","num_feature":"26","num_nodes":"5","size_leaf_vector":"1"}},{"base_weights":[3.0062914E-2,-9.636815E-3,1.4136517E-2],"categories":[],"categories_nodes":[],"categories_segments":[],"categories_sizes":[],"default_left":[0,0,0],"id":92,"left_children":[1,-1,-1],"loss_changes":[7.925483E-2,0E0,0E0],"parents":[2147483647,0,0],"right_children":[2,-1,-1],"split_conditions":[2E0,-9.636815E-3,1.4136517E-2],"split_indices":[4,0,0],"split_type":[0,0,0],"sum_hessian":[3.663974E0,1.7782223E0,1.8857517E0],"tree_param":{"num_deleted":"0","num_feature":"26","num_nodes":"3","size_leaf_vector":"1"}},{"base_weights":[-3.478187E-2,-1.572019E-2,8.974797E-3],"categories":[],"categories_nodes":[],"categories_segments":[],"categories_sizes":[],"default_left":[0,0,0],"id":93,"left_children":[1,-1,-1],"loss_changes":[8.4357254E-2,0E0,0E0],"parents":[2147483647,0,0],"right_children":[2,-1,-1],"split_conditions":[1E0,-1.572019E-2,8.974797E-3],"split_indices":[12,0,0],"split_type":[0,0,0],"sum_hessian":[3.6079988E0,1.6871095E0,1.9208894E0],"tree_param":{"num_deleted":"0","num_feature":"26","num_nodes":"3","size_leaf_vector":"1"}},{"base_weights":[1.9288592E-2,-7.671719E-2,1.5117173E-2,3.445771E-3,-1.7034205E-2],"categories":[],"categories_nodes":[],"categories_segments":[],"categories_sizes":[],"default_left":[0,0,0,0,0],"id":94,"left_children":[1,3,-1,-1,-1],"loss_changes":[8.093081E-2,4.575952E-2,0E0,0E0,0E0],"parents":[2147483647,0,0,1,1],"right_children":[2,4,-1,-1,-1],"split_conditions":[9.4E-1,-4.3E-1,1.5117173E-2,3.445771E-3,-1.7034205E-2],"split_indices":[0,0,0,0,0],"split_type":[0,0,0,0,0],"sum_hessian":[4.475899E0,2.8323517E0,1.6435473E0,1.5837208E0,1.2486308E0],"tree_param":{"num_deleted":"0","num_feature":"26","num_nodes":"5","size_leaf_vector":"1"}},{"base_weights":[3.9695833E-2,-2.6251871E-2,1.2345758E-2,4.729196E-3,-1.1869556E-2],"categories":[],"categories_nodes":[],"categories_segments":[],"categories_sizes":[],"default_left":[0,0,0,0,0],"id":95,"left_children":[1,3,-1,-1,-1],"loss_changes":[3.3892367E-2,3.232675E-2,0E0,0E0,0E0],"parents":[2147483647,0,0,1,1],"right_children":[2,4,-1,-1,-1],"split_conditions":[9.4E-1,0E0,1.2345758E-2,4.729196E-3,-1.1869556E-2],"split_indices":[0,0,0,0,0],"split_type":[0,0,0,0,0],"sum_hessian":[4.5488696E0,2.929215E0,1.6196547E0,1.903391E0,1.0258238E0],"tree_param":{"num_deleted":"0","num_feature":"26","num_nodes":"5","size_leaf_vector":"1"}},{"base_weights":[5.262501E-2,1.0417597E-1,-6.497157E-3,1.7910445E-2,-1.3436987E-3],"categories":[],"categories_nodes":[],"categories_segments":[],"categories_sizes":[],"default_left":[0,0,0,0,0],"id":96,"left_children":[1,3,-1,-1,-1],"loss_changes":[4.0243883E-2,3.9623458E-2,0E0,0E0,0E0],"parents":[2147483647,0,0,1,1],"right_children":[2,4,-1,-1,-1],"split_conditions":[1.97E0,1E0,-6.497157E-3,1.7910445E-2,-1.3436987E-3],"split_indices":[0,2,0,0,0],"split_type":[0,0,0,0,0],"sum_hessian":[4.5219746E0,3.2231586E0,1.2988158E0,1.6494825E0,1.5736761E0],"tree_param":{"num_deleted":"0","num_feature":"26","num_nodes":"5","size_leaf_vector":"1"}},{"base_weights":[8.0440775E-2,1.3257791E-1,-4.922742E-3,1.8846413E-2,2.2039092E-3],"categories":[],"categories_nodes":[],"categories_segments":[],"categories_sizes":[],"default_left":[0,0,0,0,0],"id":97,"left_children":[1,3,-1,-1,-1],"loss_changes":[4.2560212E-2,2.1003284E-2,0E0,0E0,0E0],"parents":[2147483647,0,0,1,1],"right_children":[2,4,-1,-1,-1],"split_conditions":[1.97E0,2.5E0,-4.922742E-3,1.8846413E-2,2.2039092E-3],"split_indices":[0,4,0,0,0],"split_type":[0,0,0,0,0],"sum_hessian":[4.3300185E0,3.0722752E0,1.2577436E0,1.5723618E0,1.4999132E0],"tree_param":{"num_deleted":"0","num_feature":"26","num_nodes":"5","size_leaf_vector":"1"}},{"base_weights":[1.622752E-1,3.036972E-2,-8.663289E-3],"categories":[],"categories_nodes":[],"categories_segments":[],"categories_sizes":[],"default_left":[0,0,0],"id":98,"left_children":[1,-1,-1],"loss_changes":[1.8553945E-1,0E0,0E0],"parents":[2147483647,0,0],"right_children":[2,-1,-1],"split_conditions":[1.97E0,3.036972E-2,-8.663289E-3],"split_indices":[0,0,0],"split_type":[0,0,0],"sum_hessian":[3.5234203E0,2.10647E0,1.4169503E0],"tree_param":{"num_deleted":"0","num_feature":"26","num_nodes":"3","size_leaf_vector":"1"}},{"base_weights":[-1.8690692E-2,1.0849639E-2,-1.2447177E-2],"categories":[],"categories_nodes":[],"categories_segments":[],"categories_sizes":[],"default_left":[0,0,0],"id":99,"left_children":[1,-1,-1],"loss_changes":[8.0719225E-2,0E0,0E0],"parents":[2147483647,0,0],"right_children":[2,-1,-1],"split_conditions":[1E0,1.0849639E-2,-1.2447177E-2],"split_indices":[2,0,0],"split_type":[0,0,0],"sum_hessian":[3.995879E0,1.802706E0,2.1931732E0],"tree_param":{"num_deleted":"0","num_feature":"26","num_nodes":"3","size_leaf_vector":"1"}}]},"name":"gbtree"},"learner_model_param":{"base_score":"[2.5485216E-9]","boost_from_average":"1","num_class":"0","num_feature":"26","num_target":"1"},"objective":{"lambdarank_param":{"lambdarank_bias_norm":"1","lambdarank_normalization":"1","lambdarank_num_pair_per_sample":"4294967295","lambdarank_pair_method":"topk","lambdarank_score_normalization":"1","lambdarank_unbiased":"0","ndcg_exp_gain":"1"},"name":"rank:ndcg"}},"version":[3,1,3]}