{"learner":{"attributes":{},"feature_names":[],"feature_types":[],"gradient_booster":{"model":{"cats":{"enc":[],"feature_segments":[],"sorted_idx":[]},"gbtree_model_param":{"num_parallel_tree":"1","num_trees":"100"},"iteration_indptr":[0,1,2,3,4,5,6,7,8,9,10,11,12,13,14,15,16,17,18,19,20,21,22,23,24,25,26,27,28,29,30,31,32,33,34,35,36,37,38,39,40,41,42,43,44,45,46,47,48,49,50,51,52,53,54,55,56,57,58,59,60,61,62,63,64,65,66,67,68,69,70,71,72,73,74,75,76,77,78,79,80,81,82,83,84,85,86,87,88,89,90,91,92,93,94,95,96,97,98,99,100],"tree_info":[0,0,0,0,0,0,0,0,0,0,0,0,0,0,0,0,0,0,0,0,0,0,0,0,0,0,0,0,0,0,0,0,0,0,0,0,0,0,0,0,0,0,0,0,0,0,0,0,0,0,0,0,0,0,0,0,0,0,0,0,0,0,0,0,0,0,0,0,0,0,0,0,0,0,0,0,0,0,0,0,0,0,0,0,0,0,0,0,0,0,0,0,0,0,0,0,0,0,0,0],"trees":[{"base_weights":[-7.280072E-2,3.6287464E-2,-3.009597E-1,-5.8313288E-2,9.99386E-3],"categories":[],"categories_nodes":[],"categories_segments":[],"categories_sizes":[],"default_left":[0,0,0,0,0],"id":0,"left_children":[1,-1,3,-1,-1],"loss_changes":[6.2803316E-1,0E0,5.076139E-1,0E0,0E0],"parents":[2147483647,0,0,2,2],"right_children":[2,-1,4,-1,-1],"split_conditions":[-4.3E-1,3.6287464E-2,2.55E0,-5.8313288E-2,9.99386E-3],"split_indices":[0,0,0,0,0],"split_type":[0,0,0,0,0],"sum_hessian":[4.219372E0,1.247257E0,2.9721148E0,1.4775633E0,1.4945515E0],"tree_param":{"num_deleted":"0","num_feature":"26","num_nodes":"5","size_leaf_vector":"1"}},{"base_weights":[-7.5116255E-3,5.5661005E-1,-3.5609558E-1,7.345596E-2,2.4350904E-1,-5.9890264E-1,6.260209E-2,-5.071484E-2,6.772453E-2,-8.01244E-2,-2.6823366E-1,-5.3595275E-2,4.0978803E-3],"categories":[],"categories_nodes":[],"categories_segments":[],"categories_sizes":[],"default_left":[0,0,0,0,0,0,0,0,0,0,0,0,0],"id":1,"left_children":[1,3,5,-1,7,9,-1,-1,-1,-1,11,-1,-1],"loss_changes":[3.7713563E0,2.2952604E-1,3.1985173E0,0E0,1.6953567E0,4.5447302E-1,0E0,0E0,0E0,0E0,4.6080875E-1,0E0,0E0],"parents":[2147483647,0,0,1,1,2,2,4,4,5,5,10,10],"right_children":[2,4,6,-1,8,10,-1,-1,-1,-1,12,-1,-1],"split_conditions":[2E0,-4.3E-1,1E0,7.345596E-2,2.55E0,1E0,6.260209E-2,-5.071484E-2,6.772453E-2,-8.01244E-2,1.1E-1,-5.3595275E-2,4.0978803E-3],"split_indices":[4,0,10,0,0,21,0,0,0,0,0,0,0],"split_type":[0,0,0,0,0,0,0,0,0,0,0,0,0],"sum_hessian":[1.7170673E1,6.329966E0,1.0840709E1,3.1777997E0,3.1521664E0,9.004686E0,1.836022E0,1.0923705E0,2.0597959E0,4.7034655E0,4.301221E0,1.9122734E0,2.3889475E0],"tree_param":{"num_deleted":"0","num_feature":"26","num_nodes":"13","size_leaf_vector":"1"}},{"base_weights":[-5.1761057E-2,-2.6205078E-1,6.374231E-2,-6.1370738E-2,2.3815465E-1,6.60046E-2,-4.233674E-2],"categories":[],"categories_nodes":[],"categories_segments":[],"categories_sizes":[],"default_left":[0,0,0,0,0,0,0],"id":2,"left_children":[1,3,-1,-1,5,-1,-1],"loss_changes":[1.9853069E0,1.961715E0,0E0,0E0,1.6696587E0,0E0,0E0],"parents":[2147483647,0,0,1,1,4,4],"right_children":[2,4,-1,-1,6,-1,-1],"split_conditions":[1E0,1E0,6.374231E-2,-6.1370738E-2,1E0,6.60046E-2,-4.233674E-2],"split_indices":[10,21,0,0,1,0,0],"split_type":[0,0,0,0,0,0,0],"sum_hessian":[1.1545989E1,9.321501E0,2.2244887E0,5.340258E0,3.9812422E0,2.432272E0,1.5489705E0],"tree_param":{"num_deleted":"0","num_feature":"26","num_nodes":"7","size_leaf_vector":"1"}},{"base_weights":[5.318996E-2,-1.0549848E-1,7.07451E-2,3.2447588E-1,-3.841502E-1,-3.1163549E-2,7.3085755E-2,-6.401234E-2,5.4016847E-2],"categories":[],"categories_nodes":[],"categories_segments":[],"categories_sizes":[],"default_left":[0,0,0,0,0,0,0,0,0],"id":3,"left_children":[1,3,-1,5,7,-1,-1,-1,-1],"loss_changes":[1.9071337E0,1.9308323E0,0E0,1.900289E0,2.6183228E0,0E0,0E0,0E0,0E0],"parents":[2147483647,0,0,1,1,3,3,4,4],"right_children":[2,4,-1,6,8,-1,-1,-1,-1],"split_conditions":[3.56E0,-4.3E-1,7.07451E-2,-3.21E0,1E0,-3.1163549E-2,7.3085755E-2,-6.401234E-2,5.4016847E-2],"split_indices":[0,0,0,0,10,0,0,0,0],"split_type":[0,0,0,0,0,0,0,0,0],"sum_hessian":[1.6650106E1,1.4075018E1,2.5750883E0,5.4700274E0,8.604991E0,2.2231946E0,3.2468328E0,6.9795866E0,1.6254045E0],"tree_param":{"num_deleted":"0","num_feature":"26","num_nodes":"9","size_leaf_vector":"1"}},{"base_weights":[-5.7742536E-2,1.4281502E-1,-3.5460168E-1,2.2991048E-2,4.7004763E-2,-4.4424713E-2,-7.2583565E-3,-7.229997E-2,1.574136E-2,-1.9031027E-2,5.9337798E-3],"categories":[],"categories_nodes":[],"categories_segments":[],"categories_sizes":[],"default_left":[0,0,0,0,0,0,0,0,0,0,0],"id":4,"left_children":[1,3,5,7,-1,-1,-1,9,-1,-1,-1],"loss_changes":[8.565223E-1,3.3389163E-1,1.1299008E-1,1.07273705E-1,0E0,0E0,0E0,8.9990854E-2,0E0,0E0,0E0],"parents":[2147483647,0,0,1,1,2,2,3,3,7,7],"right_children":[2,4,6,8,-1,-1,-1,10,-1,-1,-1],"split_conditions":[1E0,1E0,1E0,1E0,4.7004763E-2,-4.4424713E-2,-7.2583565E-3,1E0,1.574136E-2,-1.9031027E-2,5.9337798E-3],"split_indices":[8,10,21,24,0,0,0,21,0,0,0],"split_type":[0,0,0,0,0,0,0,0,0,0,0],"sum_hessian":[1.2535704E1,7.791018E0,4.7446856E0,6.4862013E0,1.304817E0,3.1637707E0,1.580915E0,4.065995E0,2.420206E0,1.9089514E0,2.1570437E0],"tree_param":{"num_deleted":"0","num_feature":"26","num_nodes":"11","size_leaf_vector":"1"}},{"base_weights":[-4.3167208E-9,2.2603446E-1,-2.6324505E-1,2.605773E-2,3.7415914E-2,-4.8499665E-1,4.3654907E-2,-1.609729E-2,2.3458151E-2,-6.2927574E-2,-1.8241002E-1,9.864852E-3,-3.8991272E-2],"categories":[],"categories_nodes":[],"categories_segments":[],"categories_sizes":[],"default_left":[0,0,0,0,0,0,0,0,0,0,0,0,0],"id":5,"left_children":[1,3,5,7,-1,9,-1,-1,-1,-1,11,-1,-1],"loss_changes":[8.811035E-1,2.2624493E-1,1.2732904E0,2.1189739E-1,0E0,1.3268054E-1,0E0,0E0,0E0,0E0,2.2732699E-1,0E0,0E0],"parents":[2147483647,0,0,1,1,2,2,3,3,5,5,10,10],"right_children":[2,4,6,8,-1,10,-1,-1,-1,-1,12,-1,-1],"split_conditions":[2.5E0,1.5E0,1E0,1E0,3.7415914E-2,1E0,4.3654907E-2,-1.609729E-2,2.3458151E-2,-6.2927574E-2,1E0,9.864852E-3,-3.8991272E-2],"split_indices":[4,4,10,21,0,21,0,0,0,0,1,0,0],"split_type":[0,0,0,0,0,0,0,0,0,0,0,0,0],"sum_hessian":[1.2807853E1,6.967008E0,5.840844E0,3.4649906E0,3.5020173E0,4.6684456E0,1.1723988E0,1.946847E0,1.5181438E0,2.4300816E0,2.238364E0,1.173488E0,1.0648761E0],"tree_param":{"num_deleted":"0","num_feature":"26","num_nodes":"13","size_leaf_vector":"1"}},{"base_weights":[2.0779556E-1,3.5031468E-1,-4.250491E-2,6.2945575E-2,1.1573776E-1,-5.167246E-2,4.7308525E-1,5.8635887E-2,6.769124E-3],"categories":[],"categories_nodes":[],"categories_segments":[],"categories_sizes":[],"default_left":[0,0,0,0,0,0,0,0,0],"id":6,"left_children":[1,3,-1,-1,5,-1,7,-1,-1],"loss_changes":[1.0492615E0,4.9655926E-1,0E0,0E0,1.5893081E0,0E0,1.5887874E-1,0E0,0E0],"parents":[2147483647,0,0,1,1,4,4,6,6],"right_children":[2,4,-1,-1,6,-1,8,-1,-1],"split_conditions":[1E0,8.8E-1,-4.250491E-2,6.2945575E-2,2.55E0,-5.167246E-2,1E0,5.8635887E-2,6.769124E-3],"split_indices":[1,0,0,0,0,0,8,0,0],"split_type":[0,0,0,0,0,0,0,0,0],"sum_hessian":[8.982657E0,7.6959443E0,1.2867128E0,2.745499E0,4.9504457E0,1.6262238E0,3.3242218E0,2.2493305E0,1.0748914E0],"tree_param":{"num_deleted":"0","num_feature":"26","num_nodes":"9","size_leaf_vector":"1"}},{"base_weights":[-2.7818125E-2,-1.7885034E-1,5.161048E-2,2.0039571E-2,-3.362599E-1,-7.232182E-2,-5.6884397E-2,1.7829588E-2,-2.4109371E-2],"categories":[],"categories_nodes":[],"categories_segments":[],"categories_sizes":[],"default_left":[0,0,0,0,0,0,0,0,0],"id":7,"left_children":[1,3,-1,-1,5,7,-1,-1,-1],"loss_changes":[9.322603E-1,5.894478E-1,0E0,0E0,3.6116642E-1,2.2128992E-1,0E0,0E0,0E0],"parents":[2147483647,0,0,1,1,4,4,5,5],"right_children":[2,4,-1,-1,6,8,-1,-1,-1],"split_conditions":[3.56E0,-4.3E-1,5.161048E-2,2.0039571E-2,1E0,2.57E0,-5.6884397E-2,1.7829588E-2,-2.4109371E-2],"split_indices":[0,0,0,0,12,0,0,0,0],"split_type":[0,0,0,0,0,0,0,0,0],"sum_hessian":[9.224661E0,7.745216E0,1.4794457E0,2.191694E0,5.5535216E0,3.215499E0,2.3380227E0,1.2712805E0,1.9442184E0],"tree_param":{"num_deleted":"0","num_feature":"26","num_nodes":"9","size_leaf_vector":"1"}},{"base_weights":[-2.2742623E-2,-2.0187606E-1,4.825155E-2,1.1436633E-1,-5.2709877E-2,2.7690524E-2,-1.16761355E-2],"categories":[],"categories_nodes":[],"categories_segments":[],"categories_sizes":[],"default_left":[0,0,0,0,0,0,0],"id":8,"left_children":[1,3,-1,5,-1,-1,-1],"loss_changes":[8.0027E-1,7.224376E-1,0E0,1.8582538E-1,0E0,0E0,0E0],"parents":[2147483647,0,0,1,1,3,3],"right_children":[2,4,-1,6,-1,-1,-1],"split_conditions":[3.56E0,1E0,4.825155E-2,2.57E0,-5.2709877E-2,2.7690524E-2,-1.16761355E-2],"split_indices":[0,12,0,0,0,0,0],"split_type":[0,0,0,0,0,0,0],"sum_hessian":[6.7656884E0,5.4381166E0,1.3275719E0,3.085835E0,2.3522813E0,1.6954557E0,1.3903793E0],"tree_param":{"num_deleted":"0","num_feature":"26","num_nodes":"7","size_leaf_vector":"1"}},{"base_weights":[2.3047445E-2,-9.984887E-2,4.592009E-2,2.7504135E-2,-3.0902526E-1,-1.0688358E-1,-4.7381267E-2,9.064426E-3,-2.260666E-2],"categories":[],"categories_nodes":[],"categories_segments":[],"categories_sizes":[],"default_left":[0,0,0,0,0,0,0,0,0],"id":9,"left_children":[1,3,-1,-1,5,7,-1,-1,-1],"loss_changes":[5.4556936E-1,7.1977234E-1,0E0,0E0,1.3811511E-1,1.1080265E-1,0E0,0E0,0E0],"parents":[2147483647,0,0,1,1,4,4,5,5],"right_children":[2,4,-1,-1,6,8,-1,-1,-1],"split_conditions":[3.56E0,-4.3E-1,4.592009E-2,2.7504135E-2,1E0,2.57E0,-4.7381267E-2,9.064426E-3,-2.260666E-2],"split_indices":[0,0,0,0,12,0,0,0,0],"split_type":[0,0,0,0,0,0,0,0,0],"sum_hessian":[8.322824E0,7.0947757E0,1.2280476E0,2.4281387E0,4.666637E0,2.8361719E0,1.8304652E0,1.1574036E0,1.6787684E0],"tree_param":{"num_deleted":"0","num_feature":"26","num_nodes":"9","size_leaf_vector":"1"}},{"base_weights":[-4.6945438E-2,2.5305578E-2,-2.1776274E-1,-4.356231E-2,1.3120497E-2],"categories":[],"categories_nodes":[],"categories_segments":[],"categories_sizes":[],"default_left":[0,0,0,0,0],"id":10,"left_children":[1,-1,3,-1,-1],"loss_changes":[4.519745E-1,0E0,4.7318554E-1,0E0,0E0],"parents":[2147483647,0,0,2,2],"right_children":[2,-1,4,-1,-1],"split_conditions":[-4.3E-1,2.5305578E-2,2.55E0,-4.356231E-2,1.3120497E-2],"split_indices":[0,0,0,0,0],"split_type":[0,0,0,0,0],"sum_hessian":[6.74447E0,2.2722847E0,4.4721856E0,2.6004233E0,1.8717623E0],"tree_param":{"num_deleted":"0","num_feature":"26","num_nodes":"5","size_leaf_vector":"1"}},{"base_weights":[1.01001725E-1,2.6839375E-1,-1.3798513E-1,1.9152164E-2,4.8211113E-2,2.1937124E-4,-2.1358231E-2,2.9462626E-2,-2.5196511E-2],"categories":[],"categories_nodes":[],"categories_segments":[],"categories_sizes":[],"default_left":[0,0,0,0,0,0,0,0,0],"id":11,"left_children":[1,3,5,7,-1,-1,-1,-1,-1],"loss_changes":[3.4366557E-1,2.4896371E-1,4.0925376E-2,3.1913024E-1,0E0,0E0,0E0,0E0,0E0],"parents":[2147483647,0,0,1,1,2,2,3,3],"right_children":[2,4,6,8,-1,-1,-1,-1,-1],"split_conditions":[1E0,2.55E0,-5.1E-1,0E0,4.8211113E-2,2.1937124E-4,-2.1358231E-2,2.9462626E-2,-2.5196511E-2],"split_indices":[8,0,0,0,0,0,0,0,0],"split_type":[0,0,0,0,0,0,0,0,0],"sum_hessian":[6.6649203E0,3.8472016E0,2.8177187E0,2.2789998E0,1.5682018E0,1.3273721E0,1.4903468E0,1.0874069E0,1.191593E0],"tree_param":{"num_deleted":"0","num_feature":"26","num_nodes":"9","size_leaf_vector":"1"}},{"base_weights":[-2.572669E-1,-3.8035676E-2,-6.530078E-4],"categories":[],"categories_nodes":[],"categories_segments":[],"categories_sizes":[],"default_left":[0,0,0],"id":12,"left_children":[1,-1,-1],"loss_changes":[1.9050962E-1,0E0,0E0],"parents":[2147483647,0,0],"right_children":[2,-1,-1],"split_conditions":[2.55E0,-3.8035676E-2,-6.530078E-4],"split_indices":[0,0,0],"split_type":[0,0,0],"sum_hessian":[5.2531977E0,3.1767402E0,2.0764575E0],"tree_param":{"num_deleted":"0","num_feature":"26","num_nodes":"3","size_leaf_vector":"1"}},{"base_weights":[3.2809246E-2,1.7360789E-1,-2.0246072E-2,-5.7217344E-3,2.936419E-2],"categories":[],"categories_nodes":[],"categories_segments":[],"categories_sizes":[],"default_left":[0,0,0,0,0],"id":13,"left_children":[1,3,-1,-1,-1],"loss_changes":[2.7212158E-1,1.5571736E-1,0E0,0E0,0E0],"parents":[2147483647,0,0,1,1],"right_children":[2,4,-1,-1,-1],"split_conditions":[2.5E0,1E0,-2.0246072E-2,-5.7217344E-3,2.936419E-2],"split_indices":[4,12,0,0,0],"split_type":[0,0,0,0,0],"sum_hessian":[6.153746E0,4.0137725E0,2.1399739E0,1.552206E0,2.4615662E0],"tree_param":{"num_deleted":"0","num_feature":"26","num_nodes":"5","size_leaf_vector":"1"}},{"base_weights":[2.01278E-2,2.6046053E-2,-1.1841973E-1,-4.318266E-2,1.3162221E-1,4.2790283E-2,-2.1160014E-2],"categories":[],"categories_nodes":[],"categories_segments":[],"categories_sizes":[],"default_left":[0,0,0,0,0,0,0],"id":14,"left_children":[1,-1,3,-1,5,-1,-1],"loss_changes":[2.7204302E-1,0E0,4.7078788E-1,0E0,4.6726486E-1,0E0,0E0],"parents":[2147483647,0,0,2,2,4,4],"right_children":[2,-1,4,-1,6,-1,-1],"split_conditions":[-4.3E-1,2.6046053E-2,2.55E0,-4.318266E-2,1E0,4.2790283E-2,-2.1160014E-2],"split_indices":[0,0,0,0,8,0,0],"split_type":[0,0,0,0,0,0,0],"sum_hessian":[6.2437673E0,1.9614259E0,4.282341E0,1.577748E0,2.7045932E0,1.3191438E0,1.3854494E0],"tree_param":{"num_deleted":"0","num_feature":"26","num_nodes":"7","size_leaf_vector":"1"}},{"base_weights":[-2.6456166E-2,1.4783499E-1,-2.4116984E-1,-2.0390633E-2,2.8461475E-2,-3.304066E-2,-8.237066E-3,1.8701797E-2,-2.1771299E-2],"categories":[],"categories_nodes":[],"categories_segments":[],"categories_sizes":[],"default_left":[0,0,0,0,0,0,0,0,0],"id":15,"left_children":[1,3,5,7,-1,-1,-1,-1,-1],"loss_changes":[3.0819795E-1,1.1256446E-1,2.4409235E-2,1.6406268E-1,0E0,0E0,0E0,0E0,0E0],"parents":[2147483647,0,0,1,1,2,2,3,3],"right_children":[2,4,6,8,-1,-1,-1,-1,-1],"split_conditions":[2.5E0,1.5E0,1.97E0,1E0,2.8461475E-2,-3.304066E-2,-8.237066E-3,1.8701797E-2,-2.1771299E-2],"split_indices":[4,4,0,8,0,0,0,0,0],"split_type":[0,0,0,0,0,0,0,0,0],"sum_hessian":[6.2828703E0,3.6397924E0,2.6430776E0,2.013863E0,1.6259294E0,1.0003033E0,1.6427745E0,1.0072978E0,1.0065655E0],"tree_param":{"num_deleted":"0","num_feature":"26","num_nodes":"9","size_leaf_vector":"1"}},{"base_weights":[-5.403736E-2,1.581123E-2,-1.537021E-1,-3.155936E-2,5.4418757E-3],"categories":[],"categories_nodes":[],"categories_segments":[],"categories_sizes":[],"default_left":[0,0,0,0,0],"id":16,"left_children":[1,-1,3,-1,-1],"loss_changes":[1.4859022E-1,0E0,1.6900975E-1,0E0,0E0],"parents":[2147483647,0,0,2,2],"right_children":[2,-1,4,-1,-1],"split_conditions":[1E0,1.581123E-2,1E0,-3.155936E-2,5.4418757E-3],"split_indices":[4,0,2,0,0],"split_type":[0,0,0,0,0],"sum_hessian":[4.8782153E0,1.3717728E0,3.5064423E0,1.6818116E0,1.8246307E0],"tree_param":{"num_deleted":"0","num_feature":"26","num_nodes":"5","size_leaf_vector":"1"}},{"base_weights":[-4.01705E-2,2.1643449E-2,-2.0626856E-1,-4.0919144E-2,9.267278E-3],"categories":[],"categories_nodes":[],"categories_segments":[],"categories_sizes":[],"default_left":[0,0,0,0,0],"id":17,"left_children":[1,-1,3,-1,-1],"loss_changes":[2.8928393E-1,0E0,2.8035218E-1,0E0,0E0],"parents":[2147483647,0,0,2,2],"right_children":[2,-1,4,-1,-1],"split_conditions":[-4.3E-1,2.1643449E-2,2.55E0,-4.0919144E-2,9.267278E-3],"split_indices":[0,0,0,0,0],"split_type":[0,0,0,0,0],"sum_hessian":[4.739821E0,1.7433958E0,2.9964252E0,1.565175E0,1.4312502E0],"tree_param":{"num_deleted":"0","num_feature":"26","num_nodes":"5","size_leaf_vector":"1"}},{"base_weights":[-1.4108787E-3,1.5898283E-1,-2.4704529E-2,3.1986892E-2,-1.5600288E-2],"categories":[],"categories_nodes":[],"categories_segments":[],"categories_sizes":[],"default_left":[0,0,0,0,0],"id":18,"left_children":[1,3,-1,-1,-1],"loss_changes":[2.8945318E-1,2.7541107E-1,0E0,0E0,0E0],"parents":[2147483647,0,0,1,1],"right_children":[2,4,-1,-1,-1],"split_conditions":[1E0,3E0,-2.4704529E-2,3.1986892E-2,-1.5600288E-2],"split_indices":[8,4,0,0,0],"split_type":[0,0,0,0,0],"sum_hessian":[5.3499637E0,3.4499745E0,1.899989E0,2.2733212E0,1.1766535E0],"tree_param":{"num_deleted":"0","num_feature":"26","num_nodes":"5","size_leaf_vector":"1"}},{"base_weights":[-2.9719478E-2,1.2824216E-1,-2.2406926E-2,-3.9654956E-3,2.6009953E-2],"categories":[],"categories_nodes":[],"categories_segments":[],"categories_sizes":[],"default_left":[0,0,0,0,0],"id":19,"left_children":[1,3,-1,-1,-1],"loss_changes":[2.3295668E-1,1.05634436E-1,0E0,0E0,0E0],"parents":[2147483647,0,0,1,1],"right_children":[2,4,-1,-1,-1],"split_conditions":[2.5E0,1.5E0,-2.2406926E-2,-3.9654956E-3,2.6009953E-2],"split_indices":[4,4,0,0,0],"split_type":[0,0,0,0,0],"sum_hessian":[5.6522093E0,3.305636E0,2.3465734E0,1.7616913E0,1.5439445E0],"tree_param":{"num_deleted":"0","num_feature":"26","num_nodes":"5","size_leaf_vector":"1"}},{"base_weights":[7.689879E-2,3.9312758E-2,-7.363008E-2,-2.906025E-2,1.3667513E-1,3.8435202E-2,-1.776277E-2],"categories":[],"categories_nodes":[],"categories_segments":[],"categories_sizes":[],"default_left":[0,0,0,0,0,0,0],"id":20,"left_children":[1,-1,3,-1,5,-1,-1],"loss_changes":[3.237856E-1,0E0,2.6963297E-1,0E0,3.203939E-1,0E0,0E0],"parents":[2147483647,0,0,2,2,4,4],"right_children":[2,-1,4,-1,6,-1,-1],"split_conditions":[-4.3E-1,3.9312758E-2,2.55E0,-2.906025E-2,1E0,3.8435202E-2,-1.776277E-2],"split_indices":[0,0,0,0,8,0,0],"split_type":[0,0,0,0,0,0,0],"sum_hessian":[5.193906E0,1.1552764E0,4.0386295E0,1.7998778E0,2.2387514E0,1.1274371E0,1.1113144E0],"tree_param":{"num_deleted":"0","num_feature":"26","num_nodes":"7","size_leaf_vector":"1"}},{"base_weights":[-9.164637E-2,-2.2218458E-1,1.0986407E-2,3.557356E-3,-3.8451444E-2],"categories":[],"categories_nodes":[],"categories_segments":[],"categories_sizes":[],"default_left":[0,0,0,0,0],"id":21,"left_children":[1,3,-1,-1,-1],"loss_changes":[1.7594993E-1,1.7380717E-1,0E0,0E0,0E0],"parents":[2147483647,0,0,1,1],"right_children":[2,4,-1,-1,-1],"split_conditions":[2.55E0,1E0,1.0986407E-2,3.557356E-3,-3.8451444E-2],"split_indices":[0,12,0,0,0],"split_type":[0,0,0,0,0],"sum_hessian":[4.760917E0,2.8269966E0,1.9339205E0,1.3941419E0,1.4328547E0],"tree_param":{"num_deleted":"0","num_feature":"26","num_nodes":"5","size_leaf_vector":"1"}},{"base_weights":[-1.640675E-1,-3.242989E-1,7.1472726E-3,-3.8625184E-2,-1.0205034E-2],"categories":[],"categories_nodes":[],"categories_segments":[],"categories_sizes":[],"default_left":[0,0,0,0,0],"id":22,"left_children":[1,3,-1,-1,-1],"loss_changes":[2.074994E-1,3.0899346E-3,0E0,0E0,0E0],"parents":[2147483647,0,0,1,1],"right_children":[2,4,-1,-1,-1],"split_conditions":[2.55E0,2E0,7.1472726E-3,-3.8625184E-2,-1.0205034E-2],"split_indices":[0,4,0,0,0],"split_type":[0,0,0,0,0],"sum_hessian":[3.8838434E0,2.0871701E0,1.7966732E0,1.0551221E0,1.0320481E0],"tree_param":{"num_deleted":"0","num_feature":"26","num_nodes":"5","size_leaf_vector":"1"}},{"base_weights":[-5.8609717E-10,2.1179784E-2,-1.0789811E-1,-2.9990843E-2,1.0322368E-1,3.5506453E-2,-1.9121226E-2],"categories":[],"categories_nodes":[],"categories_segments":[],"categories_sizes":[],"default_left":[0,0,0,0,0,0,0],"id":23,"left_children":[1,-1,3,-1,5,-1,-1],"loss_changes":[1.6810581E-1,0E0,2.2851329E-1,0E0,2.9517487E-1,0E0,0E0],"parents":[2147483647,0,0,2,2,4,4],"right_children":[2,-1,4,-1,6,-1,-1],"split_conditions":[-4.3E-1,2.1179784E-2,2.55E0,-2.9990843E-2,1E0,3.5506453E-2,-1.9121226E-2],"split_indices":[0,0,0,0,8,0,0],"split_type":[0,0,0,0,0,0,0],"sum_hessian":[5.3560967E0,1.4826993E0,3.8733974E0,1.8082707E0,2.0651267E0,1.0020908E0,1.0630358E0],"tree_param":{"num_deleted":"0","num_feature":"26","num_nodes":"7","size_leaf_vector":"1"}},{"base_weights":[9.290663E-2,-7.5689484E-3,1.9938286E-2,1.9726662E-2,-2.1554379E-2],"categories":[],"categories_nodes":[],"categories_segments":[],"categories_sizes":[],"default_left":[0,0,0,0,0],"id":24,"left_children":[1,3,-1,-1,-1],"loss_changes":[5.951307E-2,2.0239708E-1,0E0,0E0,0E0],"parents":[2147483647,0,0,1,1],"right_children":[2,4,-1,-1,-1],"split_conditions":[2.55E0,-4.3E-1,1.9938286E-2,1.9726662E-2,-2.1554379E-2],"split_indices":[0,0,0,0,0],"split_type":[0,0,0,0,0],"sum_hessian":[4.421811E0,2.752936E0,1.6688752E0,1.4128753E0,1.3400606E0],"tree_param":{"num_deleted":"0","num_feature":"26","num_nodes":"5","size_leaf_vector":"1"}},{"base_weights":[-4.1333415E-2,8.2063146E-2,-1.5420455E-2,1.0707946E-2,1.618656E-3],"categories":[],"categories_nodes":[],"categories_segments":[],"categories_sizes":[],"default_left":[0,0,0,0,0],"id":25,"left_children":[1,3,-1,-1,-1],"loss_changes":[8.423149E-2,3.3882912E-3,0E0,0E0,0E0],"parents":[2147483647,0,0,1,1],"right_children":[2,4,-1,-1,-1],"split_conditions":[1E0,2E0,-1.5420455E-2,1.0707946E-2,1.618656E-3],"split_indices":[8,4,0,0,0],"split_type":[0,0,0,0,0],"sum_hessian":[4.139105E0,2.107751E0,2.031354E0,1.0743256E0,1.0334253E0],"tree_param":{"num_deleted":"0","num_feature":"26","num_nodes":"5","size_leaf_vector":"1"}},{"base_weights":[-3.216669E-2,1.947172E-2,-1.4829372E-1,-3.792292E-2,9.718999E-3],"categories":[],"categories_nodes":[],"categories_segments":[],"categories_sizes":[],"default_left":[0,0,0,0,0],"id":26,"left_children":[1,-1,3,-1,-1],"loss_changes":[1.7920505E-1,0E0,2.8299126E-1,0E0,0E0],"parents":[2147483647,0,0,2,2],"right_children":[2,-1,4,-1,-1],"split_conditions":[-4.3E-1,1.947172E-2,2.55E0,-3.792292E-2,9.718999E-3],"split_indices":[0,0,0,0,0],"split_type":[0,0,0,0,0],"sum_hessian":[4.705686E0,1.3640008E0,3.3416853E0,1.441134E0,1.9005513E0],"tree_param":{"num_deleted":"0","num_feature":"26","num_nodes":"5","size_leaf_vector":"1"}},{"base_weights":[-6.7921737E-3,1.811128E-2,-1.1265415E-1,-2.341592E-2,4.3958668E-3],"categories":[],"categories_nodes":[],"categories_segments":[],"categories_sizes":[],"default_left":[0,0,0,0,0],"id":27,"left_children":[1,-1,3,-1,-1],"loss_changes":[1.280493E-1,0E0,8.789365E-2,0E0,0E0],"parents":[2147483647,0,0,2,2],"right_children":[2,-1,4,-1,-1],"split_conditions":[-4.3E-1,1.811128E-2,2.55E0,-2.341592E-2,4.3958668E-3],"split_indices":[0,0,0,0,0],"split_type":[0,0,0,0,0],"sum_hessian":[4.4115343E0,1.3335842E0,3.0779502E0,1.4544199E0,1.6235305E0],"tree_param":{"num_deleted":"0","num_feature":"26","num_nodes":"5","size_leaf_vector":"1"}},{"base_weights":[1.2492401E-1,2.0366011E-2,-1.3139974E-3],"categories":[],"categories_nodes":[],"categories_segments":[],"categories_sizes":[],"default_left":[0,0,0],"id":28,"left_children":[1,-1,-1],"loss_changes":[4.9817316E-2,0E0,0E0],"parents":[2147483647,0,0],"right_children":[2,-1,-1],"split_conditions":[2E0,2.0366011E-2,-1.3139974E-3],"split_indices":[4,0,0],"split_type":[0,0,0],"sum_hessian":[3.336572E0,1.8222518E0,1.5143201E0],"tree_param":{"num_deleted":"0","num_feature":"26","num_nodes":"3","size_leaf_vector":"1"}},{"base_weights":[-8.283774E-2,1.639898E-2,-2.3093652E-2],"categories":[],"categories_nodes":[],"categories_segments":[],"categories_sizes":[],"default_left":[0,0,0],"id":29,"left_children":[1,-1,-1],"loss_changes":[2.049601E-1,0E0,0E0],"parents":[2147483647,0,0],"right_children":[2,-1,-1],"split_conditions":[-4.3E-1,1.639898E-2,-2.3093652E-2],"split_indices":[0,0,0],"split_type":[0,0,0],"sum_hessian":[3.570908E0,1.2988653E0,2.2720428E0],"tree_param":{"num_deleted":"0","num_feature":"26","num_nodes":"3","size_leaf_vector":"1"}},{"base_weights":[-3.363511E-2,1.3702455E-2,-1.3431321E-1,5.1925457E-3,-2.570656E-2],"categories":[],"categories_nodes":[],"categories_segments":[],"categories_sizes":[],"default_left":[0,0,0,0,0],"id":30,"left_children":[1,-1,3,-1,-1],"loss_changes":[1.0099767E-1,0E0,9.401254E-2,0E0,0E0],"parents":[2147483647,0,0,2,2],"right_children":[2,-1,4,-1,-1],"split_conditions":[-4.3E-1,1.3702455E-2,1E0,5.1925457E-3,-2.570656E-2],"split_indices":[0,0,12,0,0],"split_type":[0,0,0,0,0],"sum_hessian":[3.8070626E0,1.2786329E0,2.5284297E0,1.2336853E0,1.2947446E0],"tree_param":{"num_deleted":"0","num_feature":"26","num_nodes":"5","size_leaf_vector":"1"}},{"base_weights":[-1.0277778E-1,-1.9951133E-2,9.494907E-3],"categories":[],"categories_nodes":[],"categories_segments":[],"categories_sizes":[],"default_left":[0,0,0],"id":31,"left_children":[1,-1,-1],"loss_changes":[9.884798E-2,0E0,0E0],"parents":[2147483647,0,0],"right_children":[2,-1,-1],"split_conditions":[1E0,-1.9951133E-2,9.494907E-3],"split_indices":[22,0,0],"split_type":[0,0,0],"sum_hessian":[3.1776187E0,2.127675E0,1.0499436E0],"tree_param":{"num_deleted":"0","num_feature":"26","num_nodes":"3","size_leaf_vector":"1"}},{"base_weights":[5.7052348E-2,1.8053357E-1,-1.18880365E-2,2.7709125E-2,-1.4309176E-9],"categories":[],"categories_nodes":[],"categories_segments":[],"categories_sizes":[],"default_left":[0,0,0,0,0],"id":32,"left_children":[1,3,-1,-1,-1],"loss_changes":[1.2165966E-1,5.416339E-2,0E0,0E0,0E0],"parents":[2147483647,0,0,1,1],"right_children":[2,4,-1,-1,-1],"split_conditions":[2.5E0,1E0,-1.18880365E-2,2.7709125E-2,-1.4309176E-9],"split_indices":[4,24,0,0,0],"split_type":[0,0,0,0,0],"sum_hessian":[3.612225E0,2.107142E0,1.5050831E0,1.0244E0,1.0827421E0],"tree_param":{"num_deleted":"0","num_feature":"26","num_nodes":"5","size_leaf_vector":"1"}},{"base_weights":[1.4097734E-2,1.5731885E-1,-1.7420648E-2,2.2141567E-2,2.7243802E-4],"categories":[],"categories_nodes":[],"categories_segments":[],"categories_sizes":[],"default_left":[0,0,0,0,0],"id":33,"left_children":[1,3,-1,-1,-1],"loss_changes":[1.748796E-1,3.538028E-2,0E0,0E0,0E0],"parents":[2147483647,0,0,1,1],"right_children":[2,4,-1,-1,-1],"split_conditions":[1E0,2E0,-1.7420648E-2,2.2141567E-2,2.7243802E-4],"split_indices":[8,4,0,0,0],"split_type":[0,0,0,0,0],"sum_hessian":[4.468237E0,2.6313922E0,1.8368447E0,1.5546002E0,1.076792E0],"tree_param":{"num_deleted":"0","num_feature":"26","num_nodes":"5","size_leaf_vector":"1"}},{"base_weights":[1.9568605E-2,1.6301863E-1,-1.5704965E-2,2.908484E-2,-3.0982816E-3],"categories":[],"categories_nodes":[],"categories_segments":[],"categories_sizes":[],"default_left":[0,0,0,0,0],"id":34,"left_children":[1,3,-1,-1,-1],"loss_changes":[1.5465873E-1,9.088632E-2,0E0,0E0,0E0],"parents":[2147483647,0,0,1,1],"right_children":[2,4,-1,-1,-1],"split_conditions":[1E0,2E0,-1.5704965E-2,2.908484E-2,-3.0982816E-3],"split_indices":[8,4,0,0,0],"split_type":[0,0,0,0,0],"sum_hessian":[4.0938296E0,2.3015234E0,1.7923062E0,1.086445E0,1.2150784E0],"tree_param":{"num_deleted":"0","num_feature":"26","num_nodes":"5","size_leaf_vector":"1"}},{"base_weights":[4.0419064E-2,-9.111991E-3,1.6922884E-2],"categories":[],"categories_nodes":[],"categories_segments":[],"categories_sizes":[],"default_left":[0,0,0],"id":35,"left_children":[1,-1,-1],"loss_changes":[8.928455E-2,0E0,0E0],"parents":[2147483647,0,0],"right_children":[2,-1,-1],"split_conditions":[1.97E0,-9.111991E-3,1.6922884E-2],"split_indices":[0,0,0],"split_type":[0,0,0],"sum_hessian":[3.3594534E0,1.8068852E0,1.5525682E0],"tree_param":{"num_deleted":"0","num_feature":"26","num_nodes":"3","size_leaf_vector":"1"}},{"base_weights":[-3.4444444E-2,-9.619034E-3,5.382297E-3],"categories":[],"categories_nodes":[],"categories_segments":[],"categories_sizes":[],"default_left":[0,0,0],"id":36,"left_children":[1,-1,-1],"loss_changes":[2.4129666E-2,0E0,0E0],"parents":[2147483647,0,0],"right_children":[2,-1,-1],"split_conditions":[1E0,-9.619034E-3,5.382297E-3],"split_indices":[3,0,0],"split_type":[0,0,0],"sum_hessian":[2.4774122E0,1.4048878E0,1.0725245E0],"tree_param":{"num_deleted":"0","num_feature":"26","num_nodes":"3","size_leaf_vector":"1"}},{"base_weights":[-6.455151E-2,1.4229988E-2,-1.6461138E-1,-3.5863277E-2,7.7274377E-3],"categories":[],"categories_nodes":[],"categories_segments":[],"categories_sizes":[],"default_left":[0,0,0,0,0],"id":37,"left_children":[1,-1,3,-1,-1],"loss_changes":[1.266382E-1,0E0,2.0720692E-1,0E0,0E0],"parents":[2147483647,0,0,2,2],"right_children":[2,-1,4,-1,-1],"split_conditions":[-4.3E-1,1.4229988E-2,2.55E0,-3.5863277E-2,7.7274377E-3],"split_indices":[0,0,0,0,0],"split_type":[0,0,0,0,0],"sum_hessian":[3.9867806E0,1.1621494E0,2.824631E0,1.2995682E0,1.5250629E0],"tree_param":{"num_deleted":"0","num_feature":"26","num_nodes":"5","size_leaf_vector":"1"}},{"base_weights":[-2.2095084E-2,-8.532192E-3,5.8556767E-3],"categories":[],"categories_nodes":[],"categories_segments":[],"categories_sizes":[],"default_left":[0,0,0],"id":38,"left_children":[1,-1,-1],"loss_changes":[2.6264407E-2,0E0,0E0],"parents":[2147483647,0,0],"right_children":[2,-1,-1],"split_conditions":[1.97E0,-8.532192E-3,5.8556767E-3],"split_indices":[0,0,0],"split_type":[0,0,0],"sum_hessian":[3.1707644E0,1.7449281E0,1.4258362E0],"tree_param":{"num_deleted":"0","num_feature":"26","num_nodes":"3","size_leaf_vector":"1"}},{"base_weights":[-5.2096758E-2,7.8457E-3,-1.8358922E-2],"categories":[],"categories_nodes":[],"categories_segments":[],"categories_sizes":[],"default_left":[0,0,0],"id":39,"left_children":[1,-1,-1],"loss_changes":[9.277172E-2,0E0,0E0],"parents":[2147483647,0,0],"right_children":[2,-1,-1],"split_conditions":[1E0,7.8457E-3,-1.8358922E-2],"split_indices":[8,0,0],"split_type":[0,0,0],"sum_hessian":[3.565073E0,1.9913117E0,1.5737613E0],"tree_param":{"num_deleted":"0","num_feature":"26","num_nodes":"3","size_leaf_vector":"1"}},{"base_weights":[6.1149437E-2,1.68175E-2,-4.116769E-3],"categories":[],"categories_nodes":[],"categories_segments":[],"categories_sizes":[],"default_left":[0,0,0],"id":40,"left_children":[1,-1,-1],"loss_changes":[4.8307456E-2,0E0,0E0],"parents":[2147483647,0,0],"right_children":[2,-1,-1],"split_conditions":[8.8E-1,1.68175E-2,-4.116769E-3],"split_indices":[0,0,0],"split_type":[0,0,0],"sum_hessian":[2.779179E0,1.043742E0,1.7354372E0],"tree_param":{"num_deleted":"0","num_feature":"26","num_nodes":"3","size_leaf_vector":"1"}},{"base_weights":[1.8036664E-2,-1.1658622E-2,1.789098E-2],"categories":[],"categories_nodes":[],"categories_segments":[],"categories_sizes":[],"default_left":[0,0,0],"id":41,"left_children":[1,-1,-1],"loss_changes":[1.16937324E-1,0E0,0E0],"parents":[2147483647,0,0],"right_children":[2,-1,-1],"split_conditions":[2.55E0,-1.1658622E-2,1.789098E-2],"split_indices":[0,0,0],"split_type":[0,0,0],"sum_hessian":[3.436348E0,2.0206802E0,1.4156677E0],"tree_param":{"num_deleted":"0","num_feature":"26","num_nodes":"3","size_leaf_vector":"1"}},{"base_weights":[-5.852141E-2,-2.3614584E-2,1.829642E-2],"categories":[],"categories_nodes":[],"categories_segments":[],"categories_sizes":[],"default_left":[0,0,0],"id":42,"left_children":[1,-1,-1],"loss_changes":[2.2242707E-1,0E0,0E0],"parents":[2147483647,0,0],"right_children":[2,-1,-1],"split_conditions":[2.55E0,-2.3614584E-2,1.829642E-2],"split_indices":[0,0,0],"split_type":[0,0,0],"sum_hessian":[3.1782513E0,1.8440068E0,1.3342446E0],"tree_param":{"num_deleted":"0","num_feature":"26","num_nodes":"3","size_leaf_vector":"1"}},{"base_weights":[-1.3249932E-1,-2.2523828E-2,3.2720466E-3],"categories":[],"categories_nodes":[],"categories_segments":[],"categories_sizes":[],"default_left":[0,0,0],"id":43,"left_children":[1,-1,-1],"loss_changes":[7.432522E-2,0E0,0E0],"parents":[2147483647,0,0],"right_children":[2,-1,-1],"split_conditions":[2.55E0,-2.2523828E-2,3.2720466E-3],"split_indices":[0,0,0],"split_type":[0,0,0],"sum_hessian":[3.3697922E0,1.9256486E0,1.4441437E0],"tree_param":{"num_deleted":"0","num_feature":"26","num_nodes":"3","size_leaf_vector":"1"}},{"base_weights":[6.2246125E-2,2.4489386E-2,-1.4578E-2],"categories":[],"categories_nodes":[],"categories_segments":[],"categories_sizes":[],"default_left":[0,0,0],"id":44,"left_children":[1,-1,-1],"loss_changes":[1.9052078E-1,0E0,0E0],"parents":[2147483647,0,0],"right_children":[2,-1,-1],"split_conditions":[8.8E-1,2.4489386E-2,-1.4578E-2],"split_indices":[0,0,0],"split_type":[0,0,0],"sum_hessian":[3.0746973E0,1.5428461E0,1.5318512E0],"tree_param":{"num_deleted":"0","num_feature":"26","num_nodes":"3","size_leaf_vector":"1"}},{"base_weights":[9.697499E-3,1.7830364E-2,-2.0886753E-2],"categories":[],"categories_nodes":[],"categories_segments":[],"categories_sizes":[],"default_left":[0,0,0],"id":45,"left_children":[1,-1,-1],"loss_changes":[1.9035281E-1,0E0,0E0],"parents":[2147483647,0,0],"right_children":[2,-1,-1],"split_conditions":[1E0,1.7830364E-2,-2.0886753E-2],"split_indices":[8,0,0],"split_type":[0,0,0],"sum_hessian":[3.1548202E0,1.8849407E0,1.2698795E0],"tree_param":{"num_deleted":"0","num_feature":"26","num_nodes":"3","size_leaf_vector":"1"}},{"base_weights":[-4.584535E-2,8.4961755E-3,-1.4285986E-2],"categories":[],"categories_nodes":[],"categories_segments":[],"categories_sizes":[],"default_left":[0,0,0],"id":46,"left_children":[1,-1,-1],"loss_changes":[6.304672E-2,0E0,0E0],"parents":[2147483647,0,0],"right_children":[2,-1,-1],"split_conditions":[2.5E0,8.4961755E-3,-1.4285986E-2],"split_indices":[4,0,0],"split_type":[0,0,0],"sum_hessian":[3.0116901E0,1.3353888E0,1.6763015E0],"tree_param":{"num_deleted":"0","num_feature":"26","num_nodes":"3","size_leaf_vector":"1"}},{"base_weights":[2.6426973E-2,1.7569082E-2,-1.3326797E-2],"categories":[],"categories_nodes":[],"categories_segments":[],"categories_sizes":[],"default_left":[0,0,0],"id":47,"left_children":[1,-1,-1],"loss_changes":[1.2663972E-1,0E0,0E0],"parents":[2147483647,0,0],"right_children":[2,-1,-1],"split_conditions":[2.5E0,1.7569082E-2,-1.3326797E-2],"split_indices":[4,0,0],"split_type":[0,0,0],"sum_hessian":[3.3305428E0,1.669721E0,1.6608218E0],"tree_param":{"num_deleted":"0","num_feature":"26","num_nodes":"3","size_leaf_vector":"1"}},{"base_weights":[-4.688802E-2,1.3537401E-2,-2.084217E-2],"categories":[],"categories_nodes":[],"categories_segments":[],"categories_sizes":[],"default_left":[0,0,0],"id":48,"left_children":[1,-1,-1],"loss_changes":[1.3615905E-1,0E0,0E0],"parents":[2147483647,0,0],"right_children":[2,-1,-1],"split_conditions":[1E0,1.3537401E-2,-2.084217E-2],"split_indices":[8,0,0],"split_type":[0,0,0],"sum_hessian":[2.6664004E0,1.3289087E0,1.3374918E0],"tree_param":{"num_deleted":"0","num_feature":"26","num_nodes":"3","size_leaf_vector":"1"}},{"base_weights":[-5.4408327E-9,1.5154615E-2,-7.62522E-2,-2.0856757E-2,8.88151E-3],"categories":[],"categories_nodes":[],"categories_segments":[],"categories_sizes":[],"default_left":[0,0,0,0,0],"id":49,"left_children":[1,-1,3,-1,-1],"loss_changes":[6.9722064E-2,0E0,1.0619144E-1,0E0,0E0],"parents":[2147483647,0,0,2,2],"right_children":[2,-1,4,-1,-1],"split_conditions":[-4.3E-1,1.5154615E-2,2.55E0,-2.0856757E-2,8.88151E-3],"split_indices":[0,0,0,0,0],"split_type":[0,0,0,0,0],"sum_hessian":[4.0335503E0,1.0196435E0,3.013907E0,1.5266432E0,1.4872637E0],"tree_param":{"num_deleted":"0","num_feature":"26","num_nodes":"5","size_leaf_vector":"1"}},{"base_weights":[-8.420058E-2,1.3873453E-2,-2.076764E-2],"categories":[],"categories_nodes":[],"categories_segments":[],"categories_sizes":[],"default_left":[0,0,0],"id":50,"left_children":[1,-1,-1],"loss_changes":[1.4557098E-1,0E0,0E0],"parents":[2147483647,0,0],"right_children":[2,-1,-1],"split_conditions":[0E0,1.3873453E-2,-2.076764E-2],"split_indices":[0,0,0],"split_type":[0,0,0],"sum_hessian":[3.241606E0,1.1114004E0,2.1302056E0],"tree_param":{"num_deleted":"0","num_feature":"26","num_nodes":"3","size_leaf_vector":"1"}},{"base_weights":[-1.5497E-1,-3.3530366E-2,9.754199E-3],"categories":[],"categories_nodes":[],"categories_segments":[],"categories_sizes":[],"default_left":[0,0,0],"id":51,"left_children":[1,-1,-1],"loss_changes":[2.1704766E-1,0E0,0E0],"parents":[2147483647,0,0],"right_children":[2,-1,-1],"split_conditions":[2.55E0,-3.3530366E-2,9.754199E-3],"split_indices":[0,0,0],"split_type":[0,0,0],"sum_hessian":[3.0482218E0,1.5869881E0,1.4612337E0],"tree_param":{"num_deleted":"0","num_feature":"26","num_nodes":"3","size_leaf_vector":"1"}},{"base_weights":[-9.207156E-3,-1.3241504E-1,1.70155E-2,1.0040352E-2,-3.0588934E-2],"categories":[],"categories_nodes":[],"categories_segments":[],"categories_sizes":[],"default_left":[0,0,0,0,0],"id":52,"left_children":[1,3,-1,-1,-1],"loss_changes":[1.1730743E-1,1.5610576E-1,0E0,0E0,0E0],"parents":[2147483647,0,0,1,1],"right_children":[2,4,-1,-1,-1],"split_conditions":[2.55E0,1E0,1.70155E-2,1.0040352E-2,-3.0588934E-2],"split_indices":[0,12,0,0,0],"split_type":[0,0,0,0,0],"sum_hessian":[3.2887485E0,2.1047163E0,1.184032E0,1.0784953E0,1.026221E0],"tree_param":{"num_deleted":"0","num_feature":"26","num_nodes":"5","size_leaf_vector":"1"}},{"base_weights":[-3.2879718E-2,-1.719837E-2,1.5708841E-2],"categories":[],"categories_nodes":[],"categories_segments":[],"categories_sizes":[],"default_left":[0,0,0],"id":53,"left_children":[1,-1,-1],"loss_changes":[1.2961443E-1,0E0,0E0],"parents":[2147483647,0,0],"right_children":[2,-1,-1],"split_conditions":[2.55E0,-1.719837E-2,1.5708841E-2],"split_indices":[0,0,0],"split_type":[0,0,0],"sum_hessian":[2.8825548E0,1.7187053E0,1.1638496E0],"tree_param":{"num_deleted":"0","num_feature":"26","num_nodes":"3","size_leaf_vector":"1"}},{"base_weights":[-8.810589E-2,1.408073E-2,-3.0614674E-2],"categories":[],"categories_nodes":[],"categories_segments":[],"categories_sizes":[],"default_left":[0,0,0],"id":54,"left_children":[1,-1,-1],"loss_changes":[2.4642248E-1,0E0,0E0],"parents":[2147483647,0,0],"right_children":[2,-1,-1],"split_conditions":[8.8E-1,1.408073E-2,-3.0614674E-2],"split_indices":[0,0,0],"split_type":[0,0,0],"sum_hessian":[3.0734308E0,1.6721339E0,1.4012969E0],"tree_param":{"num_deleted":"0","num_feature":"26","num_nodes":"3","size_leaf_vector":"1"}},{"base_weights":[5.2535396E-2,-5.55031E-3,1.5933786E-2],"categories":[],"categories_nodes":[],"categories_segments":[],"categories_sizes":[],"default_left":[0,0,0],"id":55,"left_children":[1,-1,-1],"loss_changes":[5.2548725E-2,0E0,0E0],"parents":[2147483647,0,0],"right_children":[2,-1,-1],"split_conditions":[1.97E0,-5.55031E-3,1.5933786E-2],"split_indices":[0,0,0],"split_type":[0,0,0],"sum_hessian":[2.7876616E0,1.62459E0,1.1630716E0],"tree_param":{"num_deleted":"0","num_feature":"26","num_nodes":"3","size_leaf_vector":"1"}},{"base_weights":[9.9011794E-2,1.6481906E-2,1.0457927E-3],"categories":[],"categories_nodes":[],"categories_segments":[],"categories_sizes":[],"default_left":[0,0,0],"id":56,"left_children":[1,-1,-1],"loss_changes":[1.952254E-2,0E0,0E0],"parents":[2147483647,0,0],"right_children":[2,-1,-1],"split_conditions":[8.8E-1,1.6481906E-2,1.0457927E-3],"split_indices":[0,0,0],"split_type":[0,0,0],"sum_hessian":[2.6458595E0,1.0238063E0,1.6220531E0],"tree_param":{"num_deleted":"0","num_feature":"26","num_nodes":"3","size_leaf_vector":"1"}},{"base_weights":[-5.792984E-2,1.1679573E-2,-2.0621536E-2],"categories":[],"categories_nodes":[],"categories_segments":[],"categories_sizes":[],"default_left":[0,0,0],"id":57,"left_children":[1,-1,-1],"loss_changes":[1.376303E-1,0E0,0E0],"parents":[2147483647,0,0],"right_children":[2,-1,-1],"split_conditions":[8.8E-1,1.1679573E-2,-2.0621536E-2],"split_indices":[0,0,0],"split_type":[0,0,0],"sum_hessian":[3.3824174E0,1.6502632E0,1.7321543E0],"tree_param":{"num_deleted":"0","num_feature":"26","num_nodes":"3","size_leaf_vector":"1"}},{"base_weights":[3.2202173E-2,-5.6119513E-2,1.4840572E-2,1.24360835E-2,-2.013143E-2],"categories":[],"categories_nodes":[],"categories_segments":[],"categories_sizes":[],"default_left":[0,0,0,0,0],"id":58,"left_children":[1,3,-1,-1,-1],"loss_changes":[5.48329E-2,1.1151241E-1,0E0,0E0,0E0],"parents":[2147483647,0,0,1,1],"right_children":[2,4,-1,-1,-1],"split_conditions":[2.55E0,0E0,1.4840572E-2,1.24360835E-2,-2.013143E-2],"split_indices":[0,0,0,0,0],"split_type":[0,0,0,0,0],"sum_hessian":[3.531143E0,2.3000357E0,1.231107E0,1.0893896E0,1.2106463E0],"tree_param":{"num_deleted":"0","num_feature":"26","num_nodes":"5","size_leaf_vector":"1"}},{"base_weights":[-2.0799179E-2,-1.41416835E-2,1.1509698E-2],"categories":[],"categories_nodes":[],"categories_segments":[],"categories_sizes":[],"default_left":[0,0,0],"id":59,"left_children":[1,-1,-1],"loss_changes":[7.003244E-2,0E0,0E0],"parents":[2147483647,0,0],"right_children":[2,-1,-1],"split_conditions":[2.55E0,-1.41416835E-2,1.1509698E-2],"split_indices":[0,0,0],"split_type":[0,0,0],"sum_hessian":[2.279497E0,1.1861124E0,1.0933846E0],"tree_param":{"num_deleted":"0","num_feature":"26","num_nodes":"3","size_leaf_vector":"1"}},{"base_weights":[-9.4499495E-3,-1.0900815E-2,1.3085683E-2],"categories":[],"categories_nodes":[],"categories_segments":[],"categories_sizes":[],"default_left":[0,0,0],"id":60,"left_children":[1,-1,-1],"loss_changes":[7.290276E-2,0E0,0E0],"parents":[2147483647,0,0],"right_children":[2,-1,-1],"split_conditions":[2.55E0,-1.0900815E-2,1.3085683E-2],"split_indices":[0,0,0],"split_type":[0,0,0],"sum_hessian":[3.1978383E0,2.00103E0,1.1968082E0],"tree_param":{"num_deleted":"0","num_feature":"26","num_nodes":"3","size_leaf_vector":"1"}},{"base_weights":[3.506505E-2,-8.590802E-3,1.0054146E-1,1.4821164E-2,-1.7959996E-10],"categories":[],"categories_nodes":[],"categories_segments":[],"categories_sizes":[],"default_left":[0,0,0,0,0],"id":61,"left_children":[1,-1,3,-1,-1],"loss_changes":[4.3785404E-2,0E0,1.6007334E-2,0E0,0E0],"parents":[2147483647,0,0,2,2],"right_children":[2,-1,4,-1,-1],"split_conditions":[1.5E0,-8.590802E-3,1E0,1.4821164E-2,-1.7959996E-10],"split_indices":[4,0,22,0,0],"split_type":[0,0,0,0,0],"sum_hessian":[3.4373956E0,1.0975451E0,2.3398504E0,1.2656348E0,1.0742157E0],"tree_param":{"num_deleted":"0","num_feature":"26","num_nodes":"5","size_leaf_vector":"1"}},{"base_weights":[-4.8508424E-2,1.2885024E-2,-2.0003056E-2],"categories":[],"categories_nodes":[],"categories_segments":[],"categories_sizes":[],"default_left":[0,0,0],"id":62,"left_children":[1,-1,-1],"loss_changes":[1.357788E-1,0E0,0E0],"parents":[2147483647,0,0],"right_children":[2,-1,-1],"split_conditions":[8.8E-1,1.2885024E-2,-2.0003056E-2],"split_indices":[0,0,0],"split_type":[0,0,0],"sum_hessian":[3.0933905E0,1.494125E0,1.5992653E0],"tree_param":{"num_deleted":"0","num_feature":"26","num_nodes":"3","size_leaf_vector":"1"}},{"base_weights":[-4.0447153E-2,4.358786E-3,-9.7961305E-3],"categories":[],"categories_nodes":[],"categories_segments":[],"categories_sizes":[],"default_left":[0,0,0],"id":63,"left_children":[1,-1,-1],"loss_changes":[2.3986772E-2,0E0,0E0],"parents":[2147483647,0,0],"right_children":[2,-1,-1],"split_conditions":[8.8E-1,4.358786E-3,-9.7961305E-3],"split_indices":[0,0,0],"split_type":[0,0,0],"sum_hessian":[3.0794592E0,1.3496282E0,1.7298309E0],"tree_param":{"num_deleted":"0","num_feature":"26","num_nodes":"3","size_leaf_vector":"1"}},{"base_weights":[8.672157E-2,1.8233586E-2,-7.5120763E-3],"categories":[],"categories_nodes":[],"categories_segments":[],"categories_sizes":[],"default_left":[0,0,0],"id":64,"left_children":[1,-1,-1],"loss_changes":[7.052604E-2,0E0,0E0],"parents":[2147483647,0,0],"right_children":[2,-1,-1],"split_conditions":[2.5E0,1.8233586E-2,-7.5120763E-3],"split_indices":[4,0,0],"split_type":[0,0,0],"sum_hessian":[2.6724327E0,1.6003444E0,1.0720884E0],"tree_param":{"num_deleted":"0","num_feature":"26","num_nodes":"3","size_leaf_vector":"1"}},{"base_weights":[-5.2299127E-2,-2.0325935E-2,1.5674993E-2],"categories":[],"categories_nodes":[],"categories_segments":[],"categories_sizes":[],"default_left":[0,0,0],"id":65,"left_children":[1,-1,-1],"loss_changes":[1.4946242E-1,0E0,0E0],"parents":[2147483647,0,0],"right_children":[2,-1,-1],"split_conditions":[2.55E0,-2.0325935E-2,1.5674993E-2],"split_indices":[0,0,0],"split_type":[0,0,0],"sum_hessian":[2.7265093E0,1.599303E0,1.1272063E0],"tree_param":{"num_deleted":"0","num_feature":"26","num_nodes":"3","size_leaf_vector":"1"}},{"base_weights":[2.0289473E-2,1.0459705E-2,-9.839821E-3],"categories":[],"categories_nodes":[],"categories_segments":[],"categories_sizes":[],"default_left":[0,0,0],"id":66,"left_children":[1,-1,-1],"loss_changes":[5.45428E-2,0E0,0E0],"parents":[2147483647,0,0],"right_children":[2,-1,-1],"split_conditions":[1E0,1.0459705E-2,-9.839821E-3],"split_indices":[8,0,0],"split_type":[0,0,0],"sum_hessian":[3.4222903E0,2.0703652E0,1.3519251E0],"tree_param":{"num_deleted":"0","num_feature":"26","num_nodes":"3","size_leaf_vector":"1"}},{"base_weights":[-6.184122E-2,1.0547335E-2,-1.7628087E-2],"categories":[],"categories_nodes":[],"categories_segments":[],"categories_sizes":[],"default_left":[0,0,0],"id":67,"left_children":[1,-1,-1],"loss_changes":[8.6380236E-2,0E0,0E0],"parents":[2147483647,0,0],"right_children":[2,-1,-1],"split_conditions":[9.4E-1,1.0547335E-2,-1.7628087E-2],"split_indices":[0,0,0],"split_type":[0,0,0],"sum_hessian":[2.540284E0,1.063606E0,1.4766779E0],"tree_param":{"num_deleted":"0","num_feature":"26","num_nodes":"3","size_leaf_vector":"1"}},{"base_weights":[-1.111586E-2,1.3578944E-2,-1.22121675E-2],"categories":[],"categories_nodes":[],"categories_segments":[],"categories_sizes":[],"default_left":[0,0,0],"id":68,"left_children":[1,-1,-1],"loss_changes":[7.6561116E-2,0E0,0E0],"parents":[2147483647,0,0],"right_children":[2,-1,-1],"split_conditions":[0E0,1.3578944E-2,-1.22121675E-2],"split_indices":[0,0,0],"split_type":[0,0,0],"sum_hessian":[2.6779928E0,1.0565234E0,1.6214694E0],"tree_param":{"num_deleted":"0","num_feature":"26","num_nodes":"3","size_leaf_vector":"1"}},{"base_weights":[3.9162572E-2,-8.110101E-3,1.8526698E-2],"categories":[],"categories_nodes":[],"categories_segments":[],"categories_sizes":[],"default_left":[0,0,0],"id":69,"left_children":[1,-1,-1],"loss_changes":[8.307238E-2,0E0,0E0],"parents":[2147483647,0,0],"right_children":[2,-1,-1],"split_conditions":[2.55E0,-8.110101E-3,1.8526698E-2],"split_indices":[0,0,0],"split_type":[0,0,0],"sum_hessian":[2.8726819E0,1.8197188E0,1.052963E0],"tree_param":{"num_deleted":"0","num_feature":"26","num_nodes":"3","size_leaf_vector":"1"}},{"base_weights":[9.880061E-3,8.359238E-3,-9.558295E-3],"categories":[],"categories_nodes":[],"categories_segments":[],"categories_sizes":[],"default_left":[0,0,0],"id":70,"left_children":[1,-1,-1],"loss_changes":[3.9271083E-2,0E0,0E0],"parents":[2147483647,0,0],"right_children":[2,-1,-1],"split_conditions":[1E0,8.359238E-3,-9.558295E-3],"split_indices":[8,0,0],"split_type":[0,0,0],"sum_hessian":[3.0238476E0,1.9019064E0,1.1219412E0],"tree_param":{"num_deleted":"0","num_feature":"26","num_nodes":"3","size_leaf_vector":"1"}},{"base_weights":[3.0900162E-2,-1.1001861E-2,1.22509105E-2],"categories":[],"categories_nodes":[],"categories_segments":[],"categories_sizes":[],"default_left":[0,0,0],"id":71,"left_children":[1,-1,-1],"loss_changes":[6.334525E-2,0E0,0E0],"parents":[2147483647,0,0],"right_children":[2,-1,-1],"split_conditions":[1.5E0,-1.1001861E-2,1.22509105E-2],"split_indices":[4,0,0],"split_type":[0,0,0],"sum_hessian":[2.8628366E0,1.0486999E0,1.8141369E0],"tree_param":{"num_deleted":"0","num_feature":"26","num_nodes":"3","size_leaf_vector":"1"}},{"base_weights":[-2.3470214E-2,1.315771E-2,-1.483047E-2],"categories":[],"categories_nodes":[],"categories_segments":[],"categories_sizes":[],"default_left":[0,0,0],"id":72,"left_children":[1,-1,-1],"loss_changes":[1.0177492E-1,0E0,0E0],"parents":[2147483647,0,0],"right_children":[2,-1,-1],"split_conditions":[8.8E-1,1.315771E-2,-1.483047E-2],"split_indices":[0,0,0],"split_type":[0,0,0],"sum_hessian":[3.250082E0,1.4255294E0,1.8245527E0],"tree_param":{"num_deleted":"0","num_feature":"26","num_nodes":"3","size_leaf_vector":"1"}},{"base_weights":[-5.484148E-3,1.9508759E-2,-2.3818938E-2],"categories":[],"categories_nodes":[],"categories_segments":[],"categories_sizes":[],"default_left":[0,0,0],"id":73,"left_children":[1,-1,-1],"loss_changes":[2.2518578E-1,0E0,0E0],"parents":[2147483647,0,0],"right_children":[2,-1,-1],"split_conditions":[1E0,1.9508759E-2,-2.3818938E-2],"split_indices":[8,0,0],"split_type":[0,0,0],"sum_hessian":[2.8290625E0,1.6062596E0,1.2228028E0],"tree_param":{"num_deleted":"0","num_feature":"26","num_nodes":"3","size_leaf_vector":"1"}},{"base_weights":[-3.9562337E-2,1.0997067E-2,-1.6092231E-2],"categories":[],"categories_nodes":[],"categories_segments":[],"categories_sizes":[],"default_left":[0,0,0],"id":74,"left_children":[1,-1,-1],"loss_changes":[7.8668535E-2,0E0,0E0],"parents":[2147483647,0,0],"right_children":[2,-1,-1],"split_conditions":[2.5E0,1.0997067E-2,-1.6092231E-2],"split_indices":[4,0,0],"split_type":[0,0,0],"sum_hessian":[2.3598235E0,1.0992438E0,1.2605798E0],"tree_param":{"num_deleted":"0","num_feature":"26","num_nodes":"3","size_leaf_vector":"1"}},{"base_weights":[-2.8355546E-2,1.21877035E-2,-2.4084967E-2],"categories":[],"categories_nodes":[],"categories_segments":[],"categories_sizes":[],"default_left":[0,0,0],"id":75,"left_children":[1,-1,-1],"loss_changes":[1.6016227E-1,0E0,0E0],"parents":[2147483647,0,0],"right_children":[2,-1,-1],"split_conditions":[1E0,1.21877035E-2,-2.4084967E-2],"split_indices":[8,0,0],"split_type":[0,0,0],"sum_hessian":[3.097547E0,2.0644403E0,1.0331069E0],"tree_param":{"num_deleted":"0","num_feature":"26","num_nodes":"3","size_leaf_vector":"1"}},{"base_weights":[1.7997978E-2,-1.15595795E-2,1.0099595E-2],"categories":[],"categories_nodes":[],"categories_segments":[],"categories_sizes":[],"default_left":[0,0,0],"id":76,"left_children":[1,-1,-1],"loss_changes":[5.6390442E-2,0E0,0E0],"parents":[2147483647,0,0],"right_children":[2,-1,-1],"split_conditions":[1.5E0,-1.15595795E-2,1.0099595E-2],"split_indices":[4,0,0],"split_type":[0,0,0],"sum_hessian":[3.0327995E0,1.0116655E0,2.0211341E0],"tree_param":{"num_deleted":"0","num_feature":"26","num_nodes":"3","size_leaf_vector":"1"}},{"base_weights":[-7.66866E-3,5.23813E-3,-8.626403E-3],"categories":[],"categories_nodes":[],"categories_segments":[],"categories_sizes":[],"default_left":[0,0,0],"id":77,"left_children":[1,-1,-1],"loss_changes":[2.2362003E-2,0E0,0E0],"parents":[2147483647,0,0],"right_children":[2,-1,-1],"split_conditions":[2.5E0,5.23813E-3,-8.626403E-3],"split_indices":[4,0,0],"split_type":[0,0,0],"sum_hessian":[2.7806585E0,1.7653745E0,1.0152841E0],"tree_param":{"num_deleted":"0","num_feature":"26","num_nodes":"3","size_leaf_vector":"1"}},{"base_weights":[-2.0529723E-3,1.2251405E-2,-9.631169E-3],"categories":[],"categories_nodes":[],"categories_segments":[],"categories_sizes":[],"default_left":[0,0,0],"id":78,"left_children":[1,-1,-1],"loss_changes":[5.645409E-2,0E0,0E0],"parents":[2147483647,0,0],"right_children":[2,-1,-1],"split_conditions":[8.8E-1,1.2251405E-2,-9.631169E-3],"split_indices":[0,0,0],"split_type":[0,0,0],"sum_hessian":[2.80313E0,1.0783197E0,1.7248101E0],"tree_param":{"num_deleted":"0","num_feature":"26","num_nodes":"3","size_leaf_vector":"1"}},{"base_weights":[1.7800833E-9,2.9018742E-3,-3.0354264E-3],"categories":[],"categories_nodes":[],"categories_segments":[],"categories_sizes":[],"default_left":[0,0,0],"id":79,"left_children":[1,-1,-1],"loss_changes":[4.5676297E-3,0E0,0E0],"parents":[2147483647,0,0],"right_children":[2,-1,-1],"split_conditions":[2.5E0,2.9018742E-3,-3.0354264E-3],"split_indices":[4,0,0],"split_type":[0,0,0],"sum_hessian":[3.1855235E0,1.6510828E0,1.5344406E0],"tree_param":{"num_deleted":"0","num_feature":"26","num_nodes":"3","size_leaf_vector":"1"}},{"base_weights":[9.743252E-2,1.2213931E-2,1.9747838E-3],"categories":[],"categories_nodes":[],"categories_segments":[],"categories_sizes":[],"default_left":[0,0,0],"id":80,"left_children":[1,-1,-1],"loss_changes":[4.0972866E-3,0E0,0E0],"parents":[2147483647,0,0],"right_children":[2,-1,-1],"split_conditions":[1E0,1.2213931E-2,1.9747838E-3],"split_indices":[8,0,0],"split_type":[0,0,0],"sum_hessian":[2.3914146E0,1.3802092E0,1.0112054E0],"tree_param":{"num_deleted":"0","num_feature":"26","num_nodes":"3","size_leaf_vector":"1"}},{"base_weights":[5.980819E-9,-6.841066E-2,9.439095E-3,-1.1549475E-2,1.1243249E-3],"categories":[],"categories_nodes":[],"categories_segments":[],"categories_sizes":[],"default_left":[0,0,0,0,0],"id":81,"left_children":[1,3,-1,-1,-1],"loss_changes":[3.4612093E-2,1.295392E-2,0E0,0E0,0E0],"parents":[2147483647,0,0,1,1],"right_children":[2,4,-1,-1,-1],"split_conditions":[2.55E0,2E0,9.439095E-3,-1.1549475E-2,1.1243249E-3],"split_indices":[0,4,0,0,0],"split_type":[0,0,0,0,0],"sum_hessian":[3.3601105E0,2.1077452E0,1.2523654E0,1.0419077E0,1.0658375E0],"tree_param":{"num_deleted":"0","num_feature":"26","num_nodes":"5","size_leaf_vector":"1"}},{"base_weights":[-7.943751E-2,5.379471E-3,-2.0212695E-2],"categories":[],"categories_nodes":[],"categories_segments":[],"categories_sizes":[],"default_left":[0,0,0],"id":82,"left_children":[1,-1,-1],"loss_changes":[7.05278E-2,0E0,0E0],"parents":[2147483647,0,0],"right_children":[2,-1,-1],"split_conditions":[2.5E0,5.379471E-3,-2.0212695E-2],"split_indices":[4,0,0],"split_type":[0,0,0],"sum_hessian":[2.649441E0,1.5393506E0,1.1100904E0],"tree_param":{"num_deleted":"0","num_feature":"26","num_nodes":"3","size_leaf_vector":"1"}},{"base_weights":[-1.4794109E-2,8.545E-3,-1.14636235E-2],"categories":[],"categories_nodes":[],"categories_segments":[],"categories_sizes":[],"default_left":[0,0,0],"id":83,"left_children":[1,-1,-1],"loss_changes":[4.8196632E-2,0E0,0E0],"parents":[2147483647,0,0],"right_children":[2,-1,-1],"split_conditions":[8.8E-1,8.545E-3,-1.14636235E-2],"split_indices":[0,0,0],"split_type":[0,0,0],"sum_hessian":[2.836803E0,1.4874815E0,1.3493215E0],"tree_param":{"num_deleted":"0","num_feature":"26","num_nodes":"3","size_leaf_vector":"1"}},{"base_weights":[2.047206E-3,1.1326558E-2,-1.1355198E-2],"categories":[],"categories_nodes":[],"categories_segments":[],"categories_sizes":[],"default_left":[0,0,0],"id":84,"left_children":[1,-1,-1],"loss_changes":[6.258148E-2,0E0,0E0],"parents":[2147483647,0,0],"right_children":[2,-1,-1],"split_conditions":[2.5E0,1.1326558E-2,-1.1355198E-2],"split_indices":[4,0,0],"split_type":[0,0,0],"sum_hessian":[2.8672245E0,1.47159E0,1.3956344E0],"tree_param":{"num_deleted":"0","num_feature":"26","num_nodes":"3","size_leaf_vector":"1"}},{"base_weights":[-6.790541E-2,5.515112E-3,-1.5381333E-2],"categories":[],"categories_nodes":[],"categories_segments":[],"categories_sizes":[],"default_left":[0,0,0],"id":85,"left_children":[1,-1,-1],"loss_changes":[4.940608E-2,0E0,0E0],"parents":[2147483647,0,0],"right_children":[2,-1,-1],"split_conditions":[8.8E-1,5.515112E-3,-1.5381333E-2],"split_indices":[0,0,0],"split_type":[0,0,0],"sum_hessian":[2.8710668E0,1.3275186E0,1.5435483E0],"tree_param":{"num_deleted":"0","num_feature":"26","num_nodes":"3","size_leaf_vector":"1"}},{"base_weights":[6.554479E-2,-3.6181759E-3,1.7248256E-2],"categories":[],"categories_nodes":[],"categories_segments":[],"categories_sizes":[],"default_left":[0,0,0],"id":86,"left_children":[1,-1,-1],"loss_changes":[4.904095E-2,0E0,0E0],"parents":[2147483647,0,0],"right_children":[2,-1,-1],"split_conditions":[1.97E0,-3.6181759E-3,1.7248256E-2],"split_indices":[0,0,0],"split_type":[0,0,0],"sum_hessian":[2.9344203E0,1.8429425E0,1.0914778E0],"tree_param":{"num_deleted":"0","num_feature":"26","num_nodes":"3","size_leaf_vector":"1"}},{"base_weights":[4.2701874E-2,6.7909174E-3,-3.4317546E-4],"categories":[],"categories_nodes":[],"categories_segments":[],"categories_sizes":[],"default_left":[0,0,0],"id":87,"left_children":[1,-1,-1],"loss_changes":[4.573542E-3,0E0,0E0],"parents":[2147483647,0,0],"right_children":[2,-1,-1],"split_conditions":[8.8E-1,6.7909174E-3,-3.4317546E-4],"split_indices":[0,0,0],"split_type":[0,0,0],"sum_hessian":[2.7324615E0,1.461753E0,1.2707084E0],"tree_param":{"num_deleted":"0","num_feature":"26","num_nodes":"3","size_leaf_vector":"1"}},{"base_weights":[3.3316653E-2,8.534896E-3,-2.8519626E-3],"categories":[],"categories_nodes":[],"categories_segments":[],"categories_sizes":[],"default_left":[0,0,0],"id":88,"left_children":[1,-1,-1],"loss_changes":[1.5014067E-2,0E0,0E0],"parents":[2147483647,0,0],"right_children":[2,-1,-1],"split_conditions":[8.8E-1,8.534896E-3,-2.8519626E-3],"split_indices":[0,0,0],"split_type":[0,0,0],"sum_hessian":[2.9098716E0,1.3737148E0,1.5361568E0],"tree_param":{"num_deleted":"0","num_feature":"26","num_nodes":"3","size_leaf_vector":"1"}},{"base_weights":[4.725099E-2,-7.239426E-3,1.7074414E-2],"categories":[],"categories_nodes":[],"categories_segments":[],"categories_sizes":[],"default_left":[0,0,0],"id":89,"left_children":[1,-1,-1],"loss_changes":[6.607023E-2,0E0,0E0],"parents":[2147483647,0,0],"right_children":[2,-1,-1],"split_conditions":[1.97E0,-7.239426E-3,1.7074414E-2],"split_indices":[0,0,0],"split_type":[0,0,0],"sum_hessian":[2.6350586E0,1.5485443E0,1.0865144E0],"tree_param":{"num_deleted":"0","num_feature":"26","num_nodes":"3","size_leaf_vector":"1"}},{"base_weights":[-1.4634312E-2,6.658099E-3,-9.050547E-3],"categories":[],"categories_nodes":[],"categories_segments":[],"categories_sizes":[],"default_left":[0,0,0],"id":90,"left_children":[1,-1,-1],"loss_changes":[2.9945545E-2,0E0,0E0],"parents":[2147483647,0,0],"right_children":[2,-1,-1],"split_conditions":[8.8E-1,6.658099E-3,-9.050547E-3],"split_indices":[0,0,0],"split_type":[0,0,0],"sum_hessian":[2.881856E0,1.4510474E0,1.4308085E0],"tree_param":{"num_deleted":"0","num_feature":"26","num_nodes":"3","size_leaf_vector":"1"}},{"base_weights":[-4.3237902E-2,-1.7343545E-2,1.0807656E-2],"categories":[],"categories_nodes":[],"categories_segments":[],"categories_sizes":[],"default_left":[0,0,0],"id":91,"left_children":[1,-1,-1],"loss_changes":[8.714475E-2,0E0,0E0],"parents":[2147483647,0,0],"right_children":[2,-1,-1],"split_conditions":[2.55E0,-1.7343545E-2,1.0807656E-2],"split_indices":[0,0,0],"split_type":[0,0,0],"sum_hessian":[2.471968E0,1.250119E0,1.2218488E0],"tree_param":{"num_deleted":"0","num_feature":"26","num_nodes":"3","size_leaf_vector":"1"}},{"base_weights":[-3.185802E-2,-1.2557874E-2,9.529921E-3],"categories":[],"categories_nodes":[],"categories_segments":[],"categories_sizes":[],"default_left":[0,0,0],"id":92,"left_children":[1,-1,-1],"loss_changes":[5.801467E-2,0E0,0E0],"parents":[2147483647,0,0],"right_children":[2,-1,-1],"split_conditions":[2.55E0,-1.2557874E-2,9.529921E-3],"split_indices":[0,0,0],"split_type":[0,0,0],"sum_hessian":[2.8638983E0,1.6558638E0,1.2080344E0],"tree_param":{"num_deleted":"0","num_feature":"26","num_nodes":"3","size_leaf_vector":"1"}},{"base_weights":[-9.4627425E-2],"categories":[],"categories_nodes":[],"categories_segments":[],"categories_sizes":[],"default_left":[0],"id":93,"left_children":[-1],"loss_changes":[0E0],"parents":[2147483647],"right_children":[-1],"split_conditions":[-9.462743E-3],"split_indices":[0],"split_type":[0],"sum_hessian":[1.9113718E0],"tree_param":{"num_deleted":"0","num_feature":"26","num_nodes":"1","size_leaf_vector":"1"}},{"base_weights":[3.955697E-2,1.28158955E-2,-8.098031E-3],"categories":[],"categories_nodes":[],"categories_segments":[],"categories_sizes":[],"default_left":[0,0,0],"id":94,"left_children":[1,-1,-1],"loss_changes":[5.2756365E-2,0E0,0E0],"parents":[2147483647,0,0],"right_children":[2,-1,-1],"split_conditions":[1E0,1.28158955E-2,-8.098031E-3],"split_indices":[8,0,0],"split_type":[0,0,0],"sum_hessian":[2.9680376E0,1.6741834E0,1.2938541E0],"tree_param":{"num_deleted":"0","num_feature":"26","num_nodes":"3","size_leaf_vector":"1"}},{"base_weights":[4.8767705E-2,1.4565338E-2,-4.954854E-3],"categories":[],"categories_nodes":[],"categories_segments":[],"categories_sizes":[],"default_left":[0,0,0],"id":95,"left_children":[1,-1,-1],"loss_changes":[4.4275694E-2,0E0,0E0],"parents":[2147483647,0,0],"right_children":[2,-1,-1],"split_conditions":[8.8E-1,1.4565338E-2,-4.954854E-3],"split_indices":[0,0,0],"split_type":[0,0,0],"sum_hessian":[2.8905075E0,1.2133422E0,1.6771654E0],"tree_param":{"num_deleted":"0","num_feature":"26","num_nodes":"3","size_leaf_vector":"1"}},{"base_weights":[5.584956E-2,-1.6799708E-3,1.2228453E-2],"categories":[],"categories_nodes":[],"categories_segments":[],"categories_sizes":[],"default_left":[0,0,0],"id":96,"left_children":[1,-1,-1],"loss_changes":[2.0468064E-2,0E0,0E0],"parents":[2147483647,0,0],"right_children":[2,-1,-1],"split_conditions":[2.55E0,-1.6799708E-3,1.2228453E-2],"split_indices":[0,0,0],"split_type":[0,0,0],"sum_hessian":[2.8151677E0,1.7015647E0,1.1136029E0],"tree_param":{"num_deleted":"0","num_feature":"26","num_nodes":"3","size_leaf_vector":"1"}},{"base_weights":[-1.3838302E-2,6.3282037E-3,-8.690548E-3],"categories":[],"categories_nodes":[],"categories_segments":[],"categories_sizes":[],"default_left":[0,0,0],"id":97,"left_children":[1,-1,-1],"loss_changes":[2.5444016E-2,0E0,0E0],"parents":[2147483647,0,0],"right_children":[2,-1,-1],"split_conditions":[8.8E-1,6.3282037E-3,-8.690548E-3],"split_indices":[0,0,0],"split_type":[0,0,0],"sum_hessian":[2.5394115E0,1.3005927E0,1.2388188E0],"tree_param":{"num_deleted":"0","num_feature":"26","num_nodes":"3","size_leaf_vector":"1"}},{"base_weights":[9.646664E-2,1.7964216E-2,-1.8163522E-3],"categories":[],"categories_nodes":[],"categories_segments":[],"categories_sizes":[],"default_left":[0,0,0],"id":98,"left_children":[1,-1,-1],"loss_changes":[3.7791938E-2,0E0,0E0],"parents":[2147483647,0,0],"right_children":[2,-1,-1],"split_conditions":[1E0,1.7964216E-2,-1.8163522E-3],"split_indices":[12,0,0],"split_type":[0,0,0],"sum_hessian":[2.6215093E0,1.1905222E0,1.430987E0],"tree_param":{"num_deleted":"0","num_feature":"26","num_nodes":"3","size_leaf_vector":"1"}},{"base_weights":[-1.3593205E-3,-9.17651E-3,1.0163245E-2],"categories":[],"categories_nodes":[],"categories_segments":[],"categories_sizes":[],"default_left":[0,0,0],"id":99,"left_children":[1,-1,-1],"loss_changes":[4.3083854E-2,0E0,0E0],"parents":[2147483647,0,0],"right_children":[2,-1,-1],"split_conditions":[1.97E0,-9.17651E-3,1.0163245E-2],"split_indices":[0,0,0],"split_type":[0,0,0],"sum_hessian":[2.625535E0,1.4562498E0,1.169285E0],"tree_param":{"num_deleted":"0","num_feature":"26","num_nodes":"3","size_leaf_vector":"1"}}]},"name":"gbtree"},"learner_model_param":{"base_score":"[-3.139869E-9]","boost_from_average":"1","num_class":"0","num_feature":"26","num_target":"1"},"objective":{"lambdarank_param":{"lambdarank_bias_norm":"1","lambdarank_normalization":"1","lambdarank_num_pair_per_sample":"4294967295","lambdarank_pair_method":"topk","lambdarank_score_normalization":"1","lambdarank_unbiased":"0","ndcg_exp_gain":"1"},"name":"rank:ndcg"}},"version":[3,1,3]}