{"learner":{"attributes":{},"feature_names":[],"feature_types":[],"gradient_booster":{"model":{"cats":{"enc":[],"feature_segments":[],"sorted_idx":[]},"gbtree_model_param":{"num_parallel_tree":"1","num_trees":"100"},"iteration_indptr":[0,1,2,3,4,5,6,7,8,9,10,11,12,13,14,15,16,17,18,19,20,21,22,23,24,25,26,27,28,29,30,31,32,33,34,35,36,37,38,39,40,41,42,43,44,45,46,47,48,49,50,51,52,53,54,55,56,57,58,59,60,61,62,63,64,65,66,67,68,69,70,71,72,73,74,75,76,77,78,79,80,81,82,83,84,85,86,87,88,89,90,91,92,93,94,95,96,97,98,99,100],"tree_info":[0,0,0,0,0,0,0,0,0,0,0,0,0,0,0,0,0,0,0,0,0,0,0,0,0,0,0,0,0,0,0,0,0,0,0,0,0,0,0,0,0,0,0,0,0,0,0,0,0,0,0,0,0,0,0,0,0,0,0,0,0,0,0,0,0,0,0,0,0,0,0,0,0,0,0,0,0,0,0,0,0,0,0,0,0,0,0,0,0,0,0,0,0,0,0,0,0,0,0,0],"trees":[{"base_weights":[-3.956005E-2,7.7069374E-3,-1.8644769E-2],"categories":[],"categories_nodes":[],"categories_segments":[],"categories_sizes":[],"default_left":[0,0,0],"id":0,"left_children":[1,-1,-1],"loss_changes":[8.811546E-2,0E0,0E0],"parents":[2147483647,0,0],"right_children":[2,-1,-1],"split_conditions":[2.5E0,7.7069374E-3,-1.8644769E-2],"split_indices":[4,0,0],"split_type":[0,0,0],"sum_hessian":[3.3047247E0,2.1070418E0,1.1976829E0],"tree_param":{"num_deleted":"0","num_feature":"26","num_nodes":"3","size_leaf_vector":"1"}},{"base_weights":[4.912003E-2,3.246506E-1,-8.243381E-2,5.678802E-1,-6.5633446E-2,7.095662E-1,1.4748836E-2,8.093356E-2,3.4540966E-2],"categories":[],"categories_nodes":[],"categories_segments":[],"categories_sizes":[],"default_left":[0,0,0,0,0,0,0,0,0],"id":1,"left_children":[1,3,-1,5,-1,7,-1,-1,-1],"loss_changes":[5.76935E0,4.690508E0,0E0,7.909918E-1,0E0,1.1951399E-1,0E0,0E0,0E0],"parents":[2147483647,0,0,1,1,3,3,5,5],"right_children":[2,4,-1,6,-1,8,-1,-1,-1],"split_conditions":[2.03E0,1E0,-8.243381E-2,2.5E0,-6.5633446E-2,1E0,1.4748836E-2,8.093356E-2,3.4540966E-2],"split_indices":[0,10,0,4,0,21,0,0,0],"split_type":[0,0,0,0,0,0,0,0,0],"sum_hessian":[2.186058E1,1.7095999E1,4.7645817E0,1.4036775E1,3.059225E0,9.983975E0,4.052799E0,6.877284E0,3.106691E0],"tree_param":{"num_deleted":"0","num_feature":"26","num_nodes":"9","size_leaf_vector":"1"}},{"base_weights":[5.789296E-2,5.462226E-1,-2.1454413E-1,6.862584E-2,2.1360178E-2,-5.144375E-1,1.13503836E-1,-7.1234666E-2,-3.2372472E-3,4.302828E-2,-4.5818653E-2],"categories":[],"categories_nodes":[],"categories_segments":[],"categories_sizes":[],"default_left":[0,0,0,0,0,0,0,0,0,0,0],"id":2,"left_children":[1,3,5,-1,-1,7,9,-1,-1,-1,-1],"loss_changes":[2.1635396E0,1.231184E-1,1.1003554E0,0E0,0E0,5.2206874E-1,1.2615533E0,0E0,0E0,0E0,0E0],"parents":[2147483647,0,0,1,1,2,2,5,5,6,6],"right_children":[2,4,6,-1,-1,8,10,-1,-1,-1,-1],"split_conditions":[1E0,1E0,1E0,6.862584E-2,2.1360178E-2,1E0,1E0,-7.1234666E-2,-3.2372472E-3,4.302828E-2,-4.5818653E-2],"split_indices":[4,3,21,0,0,3,10,0,0,0,0],"split_type":[0,0,0,0,0,0,0,0,0,0,0],"sum_hessian":[1.4381572E1,4.7902827E0,9.5912895E0,2.6228569E0,2.1674259E0,4.7138376E0,4.877452E0,3.0031943E0,1.7106432E0,3.2975812E0,1.5798706E0],"tree_param":{"num_deleted":"0","num_feature":"26","num_nodes":"11","size_leaf_vector":"1"}},{"base_weights":[-1.18334696E-1,5.777956E-2,-6.871083E-2,-1.4939298E-1,4.2392883E-1,8.0968015E-2,-5.482145E-2,6.6125296E-2,4.3715825E-4,6.011064E-2,-2.4470402E-2],"categories":[],"categories_nodes":[],"categories_segments":[],"categories_sizes":[],"default_left":[0,0,0,0,0,0,0,0,0,0,0],"id":3,"left_children":[1,3,-1,5,7,9,-1,-1,-1,-1,-1],"loss_changes":[1.6058216E0,1.0388912E0,0E0,8.6690986E-1,4.8578745E-1,1.2559942E0,0E0,0E0,0E0,0E0,0E0],"parents":[2147483647,0,0,1,1,3,3,4,4,5,5],"right_children":[2,4,-1,6,8,10,-1,-1,-1,-1,-1],"split_conditions":[3E0,9.4E-1,-6.871083E-2,-4.7E-1,1E0,1E0,-5.482145E-2,6.6125296E-2,4.3715825E-4,6.011064E-2,-2.4470402E-2],"split_indices":[4,0,0,0,3,21,0,0,0,0,0],"split_type":[0,0,0,0,0,0,0,0,0,0,0],"sum_hessian":[1.4634764E1,1.1860659E1,2.774104E0,7.952825E0,3.907834E0,5.5462623E0,2.4065628E0,2.1280317E0,1.7798023E0,1.809895E0,3.7363672E0],"tree_param":{"num_deleted":"0","num_feature":"26","num_nodes":"11","size_leaf_vector":"1"}},{"base_weights":[-8.414962E-2,2.1864112E-2,-4.856369E-2,-1.0868025E-1,1.7741342E-1,-3.457251E-2,5.071534E-2,3.993035E-2,2.9003812E-2,5.5019804E-3,-0E0],"categories":[],"categories_nodes":[],"categories_segments":[],"categories_sizes":[],"default_left":[0,0,0,0,0,0,0,0,0,0,0],"id":4,"left_children":[1,3,-1,5,7,-1,-1,9,-1,-1,-1],"loss_changes":[5.7985556E-1,2.535553E-1,0E0,1.181558E0,7.581437E-2,0E0,0E0,2.2301283E-3,0E0,0E0,0E0],"parents":[2147483647,0,0,1,1,3,3,4,4,7,7],"right_children":[2,4,-1,6,8,-1,-1,10,-1,-1,-1],"split_conditions":[1E0,1E0,-4.856369E-2,1E0,1E0,-3.457251E-2,5.071534E-2,1E0,2.9003812E-2,5.5019804E-3,-0E0],"split_indices":[10,2,0,22,21,0,0,23,0,0,0],"split_type":[0,0,0,0,0,0,0,0,0,0,0],"sum_hessian":[1.2373948E1,1.0537133E1,1.8368145E0,5.89287E0,4.6442633E0,4.5717373E0,1.3211328E0,2.7012906E0,1.9429725E0,1.6861932E0,1.0150973E0],"tree_param":{"num_deleted":"0","num_feature":"26","num_nodes":"11","size_leaf_vector":"1"}},{"base_weights":[1.8050863E-1,2.971135E-1,-4.55874E-2,9.7735725E-2,5.15961E-1,-1.25763435E-2,1.818486E-1,2.0694943E-2,6.825191E-2,6.8031657E-3,2.0428715E-2],"categories":[],"categories_nodes":[],"categories_segments":[],"categories_sizes":[],"default_left":[0,0,0,0,0,0,0,0,0,0,0],"id":5,"left_children":[1,3,-1,5,7,-1,9,-1,-1,-1,-1],"loss_changes":[1.2412422E0,5.255153E-1,0E0,1.7590898E-1,1.705935E-1,0E0,2.2517145E-3,0E0,0E0,0E0,0E0],"parents":[2147483647,0,0,1,1,3,3,4,4,6,6],"right_children":[2,4,-1,6,8,-1,10,-1,-1,-1,-1],"split_conditions":[1E0,1E0,-4.55874E-2,1E0,1E0,-1.25763435E-2,2E0,2.0694943E-2,6.825191E-2,6.8031657E-3,2.0428715E-2],"split_indices":[10,8,0,2,2,0,4,0,0,0,0],"split_type":[0,0,0,0,0,0,0,0,0,0,0],"sum_hessian":[1.3901839E1,1.21996155E1,1.7022238E0,7.140741E0,5.0588746E0,1.8171518E0,5.3235893E0,2.557152E0,2.5017226E0,1.5406635E0,3.7829258E0],"tree_param":{"num_deleted":"0","num_feature":"26","num_nodes":"11","size_leaf_vector":"1"}},{"base_weights":[-2.194354E-2,-3.4269467E-1,3.243064E-1,-4.1660007E-2,-0E0,5.488342E-1,-4.464324E-2,2.1902105E-2,7.021289E-2],"categories":[],"categories_nodes":[],"categories_segments":[],"categories_sizes":[],"default_left":[0,0,0,0,0,0,0,0,0],"id":6,"left_children":[1,3,5,-1,-1,7,-1,-1,-1],"loss_changes":[1.5221368E0,1.793524E-1,1.3912034E0,0E0,0E0,1.2822032E-1,0E0,0E0,0E0],"parents":[2147483647,0,0,1,1,2,2,5,5],"right_children":[2,4,6,-1,-1,8,-1,-1,-1],"split_conditions":[9.4E-1,1E0,2.03E0,-4.1660007E-2,-0E0,1E0,-4.464324E-2,2.1902105E-2,7.021289E-2],"split_indices":[0,22,0,0,0,21,0,0,0],"split_type":[0,0,0,0,0,0,0,0,0],"sum_hessian":[1.1704826E1,6.0814757E0,5.6233506E0,4.8252125E0,1.2562631E0,4.5777073E0,1.0456436E0,2.223218E0,2.3544893E0],"tree_param":{"num_deleted":"0","num_feature":"26","num_nodes":"9","size_leaf_vector":"1"}},{"base_weights":[5.242438E-2,-1.902457E-1,4.3737075E-1,6.784518E-2,-2.9143745E-2,1.4966388E-2,6.2728174E-2,-9.962938E-3,2.0530606E-2],"categories":[],"categories_nodes":[],"categories_segments":[],"categories_sizes":[],"default_left":[0,0,0,0,0,0,0,0,0],"id":7,"left_children":[1,3,5,7,-1,-1,-1,-1,-1],"loss_changes":[1.196458E0,2.2887006E-1,1.7444772E-1,9.10405E-2,0E0,0E0,0E0,0E0,0E0],"parents":[2147483647,0,0,1,1,2,2,3,3],"right_children":[2,4,6,8,-1,-1,-1,-1,-1],"split_conditions":[1E0,2.5E0,-4.7E-1,1.76E0,-2.9143745E-2,1.4966388E-2,6.2728174E-2,-9.962938E-3,2.0530606E-2],"split_indices":[8,4,0,0,0,0,0,0,0],"split_type":[0,0,0,0,0,0,0,0,0],"sum_hessian":[1.0917256E1,7.0062838E0,3.910973E0,2.0661304E0,4.9401536E0,2.2660618E0,1.644911E0,1.0554483E0,1.010682E0],"tree_param":{"num_deleted":"0","num_feature":"26","num_nodes":"9","size_leaf_vector":"1"}},{"base_weights":[-7.834171E-2,-5.154208E-1,2.8399587E-1,-1.4789963E-2,-6.717732E-2,-6.811554E-4,6.2415402E-2],"categories":[],"categories_nodes":[],"categories_segments":[],"categories_sizes":[],"default_left":[0,0,0,0,0,0,0],"id":8,"left_children":[1,3,5,-1,-1,-1,-1],"loss_changes":[1.8615818E0,2.0313704E-1,6.537846E-1,0E0,0E0,0E0,0E0],"parents":[2147483647,0,0,1,1,2,2],"right_children":[2,4,6,-1,-1,-1,-1],"split_conditions":[1E0,-4.7E-1,1E0,-1.4789963E-2,-6.717732E-2,-6.811554E-4,6.2415402E-2],"split_indices":[2,0,8,0,0,0,0],"split_type":[0,0,0,0,0,0,0],"sum_hessian":[9.830349E0,4.264137E0,5.5662127E0,1.8534241E0,2.4107125E0,3.5290978E0,2.037115E0],"tree_param":{"num_deleted":"0","num_feature":"26","num_nodes":"7","size_leaf_vector":"1"}},{"base_weights":[1.1618406E-1,-5.5489913E-2,4.916013E-2,7.257902E-2,-5.1728852E-2,-4.5616876E-2,2.7085987E-1,6.6290416E-2,-1.2585503E-2,-6.3277304E-2,4.457311E-2],"categories":[],"categories_nodes":[],"categories_segments":[],"categories_sizes":[],"default_left":[0,0,0,0,0,0,0,0,0,0,0],"id":9,"left_children":[1,3,-1,5,-1,-1,7,-1,9,-1,-1],"loss_changes":[9.534894E-1,6.7392045E-1,0E0,1.0986698E0,0E0,0E0,8.297355E-1,0E0,1.7804071E0,0E0,0E0],"parents":[2147483647,0,0,1,1,3,3,6,6,8,8],"right_children":[2,4,-1,6,-1,-1,8,-1,10,-1,-1],"split_conditions":[1E0,2.03E0,4.916013E-2,9.4E-1,-5.1728852E-2,-4.5616876E-2,1.76E0,6.6290416E-2,1.88E0,-6.3277304E-2,4.457311E-2],"split_indices":[8,0,0,0,0,0,0,0,0,0,0],"split_type":[0,0,0,0,0,0,0,0,0,0,0],"sum_hessian":[1.3371134E1,9.76013E0,3.6110036E0,8.300904E0,1.4592255E0,1.9091717E0,6.3917327E0,2.1203113E0,4.2714214E0,1.6534075E0,2.6180139E0],"tree_param":{"num_deleted":"0","num_feature":"26","num_nodes":"11","size_leaf_vector":"1"}},{"base_weights":[2.3419844E-2,-2.0441452E-1,1.7219113E-1,-3.6636856E-3,-3.985245E-2,5.434307E-2,2.4230104E-2,-5.3094994E-2,2.4089347E-1,5.621899E-2,-3.4684555E-3],"categories":[],"categories_nodes":[],"categories_segments":[],"categories_sizes":[],"default_left":[0,0,0,0,0,0,0,0,0,0,0],"id":10,"left_children":[1,3,5,-1,-1,-1,7,-1,9,-1,-1],"loss_changes":[4.997699E-1,1.7662065E-1,4.7210503E-1,0E0,0E0,0E0,1.0136435E0,0E0,5.4937476E-1,0E0,0E0],"parents":[2147483647,0,0,1,1,2,2,6,6,8,8],"right_children":[2,4,6,-1,-1,-1,8,-1,10,-1,-1],"split_conditions":[9.4E-1,-4.7E-1,1.76E0,-3.6636856E-3,-3.985245E-2,5.434307E-2,1E0,-5.3094994E-2,3E0,5.621899E-2,-3.4684555E-3],"split_indices":[0,0,0,0,0,0,2,0,4,0,0],"split_type":[0,0,0,0,0,0,0,0,0,0,0],"sum_hessian":[1.2706112E1,4.8715715E0,7.8345404E0,3.250643E0,1.6209288E0,1.4709864E0,6.363554E0,1.379117E0,4.984437E0,1.8211358E0,3.1633012E0],"tree_param":{"num_deleted":"0","num_feature":"26","num_nodes":"11","size_leaf_vector":"1"}},{"base_weights":[-1.6169891E-1,-3.4329233E-1,3.0946082E-2,2.3759602E-2,-5.143651E-2,-4.0769346E-2,4.464295E-2],"categories":[],"categories_nodes":[],"categories_segments":[],"categories_sizes":[],"default_left":[0,0,0,0,0,0,0],"id":11,"left_children":[1,3,-1,5,-1,-1,-1],"loss_changes":[8.66207E-1,4.4457418E-1,0E0,7.554915E-1,0E0,0E0,0E0],"parents":[2147483647,0,0,1,1,3,3],"right_children":[2,4,-1,6,-1,-1,-1],"split_conditions":[1E0,1.76E0,3.0946082E-2,9.4E-1,-5.143651E-2,-4.0769346E-2,4.464295E-2],"split_indices":[8,0,0,0,0,0,0],"split_type":[0,0,0,0,0,0,0],"sum_hessian":[7.882373E0,5.8854165E0,1.9969565E0,2.1447585E0,3.7406578E0,1.0788862E0,1.0658723E0],"tree_param":{"num_deleted":"0","num_feature":"26","num_nodes":"7","size_leaf_vector":"1"}},{"base_weights":[6.3595995E-3,-2.1481761E-1,2.2747834E-1,-3.2219004E-2,8.844287E-3,3.1880048E-1,-8.619368E-3,9.594477E-3,3.603043E-2],"categories":[],"categories_nodes":[],"categories_segments":[],"categories_sizes":[],"default_left":[0,0,0,0,0,0,0,0,0],"id":12,"left_children":[1,3,5,-1,-1,7,-1,-1,-1],"loss_changes":[6.182252E-1,2.3475635E-1,2.0815402E-1,0E0,0E0,1.2583375E-2,0E0,0E0,0E0],"parents":[2147483647,0,0,1,1,2,2,5,5],"right_children":[2,4,6,-1,-1,8,-1,-1,-1],"split_conditions":[1E0,2E0,1.97E0,-3.2219004E-2,8.844287E-3,8.8E-1,-8.619368E-3,9.594477E-3,3.603043E-2],"split_indices":[2,4,0,0,0,0,0,0,0],"split_type":[0,0,0,0,0,0,0,0,0],"sum_hessian":[1.06418E1,5.334443E0,5.307357E0,3.8934927E0,1.4409504E0,4.097938E0,1.2094189E0,1.1632974E0,2.934641E0],"tree_param":{"num_deleted":"0","num_feature":"26","num_nodes":"9","size_leaf_vector":"1"}},{"base_weights":[-2.4049936E-2,-3.690678E-1,1.5624875E-1,-9.797747E-3,-4.557279E-2,3.0734298E-1,-2.5738839E-3,4.9904298E-2,1.4310231E-3],"categories":[],"categories_nodes":[],"categories_segments":[],"categories_sizes":[],"default_left":[0,0,0,0,0,0,0,0,0],"id":13,"left_children":[1,3,5,-1,-1,7,-1,-1,-1],"loss_changes":[7.0148134E-1,4.5787454E-2,2.141412E-1,0E0,0E0,2.2739258E-1,0E0,0E0,0E0],"parents":[2147483647,0,0,1,1,2,2,5,5],"right_children":[2,4,6,-1,-1,8,-1,-1,-1],"split_conditions":[9.4E-1,1E0,3E0,-9.797747E-3,-4.557279E-2,1E0,-2.5738839E-3,4.9904298E-2,1.4310231E-3],"split_indices":[0,21,4,0,0,3,0,0,0],"split_type":[0,0,0,0,0,0,0,0,0],"sum_hessian":[9.34968E0,2.8496451E0,6.5000343E0,1.2063944E0,1.6432508E0,3.1751063E0,3.3249283E0,1.4944316E0,1.6806746E0],"tree_param":{"num_deleted":"0","num_feature":"26","num_nodes":"9","size_leaf_vector":"1"}},{"base_weights":[1.554873E-1,2.7369675E-1,-2.629039E-2,-4.988569E-3,4.0246245E-1,4.8609365E-2,9.849981E-3],"categories":[],"categories_nodes":[],"categories_segments":[],"categories_sizes":[],"default_left":[0,0,0,0,0,0,0],"id":14,"left_children":[1,3,-1,-1,5,-1,-1],"loss_changes":[5.1860434E-1,3.3388275E-1,0E0,0E0,9.18777E-2,0E0,0E0],"parents":[2147483647,0,0,1,1,4,4],"right_children":[2,4,-1,-1,6,-1,-1],"split_conditions":[1E0,9.4E-1,-2.629039E-2,-4.988569E-3,2.03E0,4.8609365E-2,9.849981E-3],"split_indices":[10,0,0,0,0,0,0],"split_type":[0,0,0,0,0,0,0],"sum_hessian":[8.030899E0,6.531397E0,1.4995022E0,2.0336103E0,4.4977865E0,3.057397E0,1.4403898E0],"tree_param":{"num_deleted":"0","num_feature":"26","num_nodes":"7","size_leaf_vector":"1"}},{"base_weights":[-5.0919387E-2,5.924261E-2,-4.6658844E-2,2.2484392E-1,-4.8762057E-2,4.5362666E-2,-1.1277336E-2,-2.40472E-1,1.8683344E-2,-2.2944685E-5,-4.2798486E-2],"categories":[],"categories_nodes":[],"categories_segments":[],"categories_sizes":[],"default_left":[0,0,0,0,0,0,0,0,0,0,0],"id":15,"left_children":[1,3,-1,5,7,-1,-1,9,-1,-1,-1],"loss_changes":[4.8317286E-1,1.6748656E-1,0E0,3.3175373E-1,3.212776E-1,0E0,0E0,1.7156819E-1,0E0,0E0,0E0],"parents":[2147483647,0,0,1,1,3,3,4,4,7,7],"right_children":[2,4,-1,6,8,-1,-1,10,-1,-1,-1],"split_conditions":[2.03E0,1E0,-4.6658844E-2,1E0,1E0,4.5362666E-2,-1.1277336E-2,1E0,1.8683344E-2,-2.2944685E-5,-4.2798486E-2],"split_indices":[0,4,0,21,21,0,0,2,0,0,0],"split_type":[0,0,0,0,0,0,0,0,0,0,0],"sum_hessian":[8.94806E0,7.7512693E0,1.1967909E0,2.6327424E0,5.118527E0,1.3644949E0,1.2682475E0,2.8106954E0,2.3078318E0,1.6710106E0,1.1396848E0],"tree_param":{"num_deleted":"0","num_feature":"26","num_nodes":"11","size_leaf_vector":"1"}},{"base_weights":[-3.4727674E-2,-1.5198712E-1,2.3287092E-1,9.967556E-3,-2.3599124E-1,-5.7096505E-3,4.4735476E-2,-6.8394826E-3,7.217447E-3,-1.2724208E-2,-3.1488296E-2],"categories":[],"categories_nodes":[],"categories_segments":[],"categories_sizes":[],"default_left":[0,0,0,0,0,0,0,0,0,0,0],"id":16,"left_children":[1,3,5,7,9,-1,-1,-1,-1,-1,-1],"loss_changes":[3.3317637E-1,1.00357294E-1,2.2993244E-1,2.1606795E-2,9.764731E-4,0E0,0E0,0E0,0E0,0E0,0E0],"parents":[2147483647,0,0,1,1,2,2,3,3,4,4],"right_children":[2,4,6,8,10,-1,-1,-1,-1,-1,-1],"split_conditions":[1E0,2.5E0,1E0,2E0,1E0,-5.7096505E-3,4.4735476E-2,-6.8394826E-3,7.217447E-3,-1.2724208E-2,-3.1488296E-2],"split_indices":[8,4,2,4,10,0,0,0,0,0,0],"split_type":[0,0,0,0,0,0,0,0,0,0,0],"sum_hessian":[8.490044E0,6.2036777E0,2.286366E0,2.4197998E0,3.7838778E0,1.2841198E0,1.0022461E0,1.0268272E0,1.3929727E0,2.689448E0,1.0944297E0],"tree_param":{"num_deleted":"0","num_feature":"26","num_nodes":"11","size_leaf_vector":"1"}},{"base_weights":[1.1462068E-1,2.2084633E-1,-3.0341301E-2,4.341307E-2,-1.0455599E-4,-1.446979E-2,1.5627109E-2],"categories":[],"categories_nodes":[],"categories_segments":[],"categories_sizes":[],"default_left":[0,0,0,0,0,0,0],"id":17,"left_children":[1,3,-1,-1,5,-1,-1],"loss_changes":[4.2685875E-1,3.318294E-1,0E0,0E0,1.2340768E-1,0E0,0E0],"parents":[2147483647,0,0,1,1,4,4],"right_children":[2,4,-1,-1,6,-1,-1],"split_conditions":[1E0,1E0,-3.0341301E-2,4.341307E-2,1E0,-1.446979E-2,1.5627109E-2],"split_indices":[10,12,0,0,21,0,0],"split_type":[0,0,0,0,0,0,0],"sum_hessian":[7.103678E0,6.0404534E0,1.0632246E0,2.582618E0,3.4578357E0,1.8354018E0,1.6224339E0],"tree_param":{"num_deleted":"0","num_feature":"26","num_nodes":"7","size_leaf_vector":"1"}},{"base_weights":[-7.1498334E-2,3.2144655E-2,-3.2780018E-1,1.836554E-3,-5.3977974E-2],"categories":[],"categories_nodes":[],"categories_segments":[],"categories_sizes":[],"default_left":[0,0,0,0,0],"id":18,"left_children":[1,-1,3,-1,-1],"loss_changes":[7.500419E-1,0E0,3.3052996E-1,0E0,0E0],"parents":[2147483647,0,0,2,2],"right_children":[2,-1,4,-1,-1],"split_conditions":[1E0,3.2144655E-2,1.76E0,1.836554E-3,-5.3977974E-2],"split_indices":[4,0,0,0,0],"split_type":[0,0,0,0,0],"sum_hessian":[5.4011083E0,2.031846E0,3.369262E0,1.6265094E0,1.7427526E0],"tree_param":{"num_deleted":"0","num_feature":"26","num_nodes":"5","size_leaf_vector":"1"}},{"base_weights":[-4.017507E-2,-2.62679E-2,1.228394E-1,1.849127E-1,-7.81874E-3,-1.6229044E-3,2.9180044E-2],"categories":[],"categories_nodes":[],"categories_segments":[],"categories_sizes":[],"default_left":[0,0,0,0,0,0,0],"id":19,"left_children":[1,-1,3,5,-1,-1,-1],"loss_changes":[3.3603978E-1,0E0,8.327667E-2,1.0172136E-1,0E0,0E0,0E0],"parents":[2147483647,0,0,2,2,3,3],"right_children":[2,-1,4,6,-1,-1,-1],"split_conditions":[9.4E-1,-2.62679E-2,1.97E0,1E0,-7.81874E-3,-1.6229044E-3,2.9180044E-2],"split_indices":[0,0,0,21,0,0,0],"split_type":[0,0,0,0,0,0,0],"sum_hessian":[7.374996E0,2.8599584E0,4.5150375E0,3.5110502E0,1.0039873E0,1.5126699E0,1.9983802E0],"tree_param":{"num_deleted":"0","num_feature":"26","num_nodes":"7","size_leaf_vector":"1"}},{"base_weights":[7.38002E-2,-1.742391E-1,2.4012847E-1,4.0768655E-3,-2.64279E-2,2.0468708E-3,3.6005834E-1,4.9284797E-2,1.1000098E-2],"categories":[],"categories_nodes":[],"categories_segments":[],"categories_sizes":[],"default_left":[0,0,0,0,0,0,0,0,0],"id":20,"left_children":[1,3,5,-1,-1,-1,7,-1,-1],"loss_changes":[4.2218828E-1,9.363462E-2,1.4908853E-1,0E0,0E0,0E0,7.134676E-2,0E0,0E0],"parents":[2147483647,0,0,1,1,2,2,6,6],"right_children":[2,4,6,-1,-1,-1,8,-1,-1],"split_conditions":[9.4E-1,1E0,1E0,4.0768655E-3,-2.64279E-2,2.0468708E-3,1.97E0,4.9284797E-2,1.1000098E-2],"split_indices":[0,21,21,0,0,0,0,0,0],"split_type":[0,0,0,0,0,0,0,0,0],"sum_hessian":[8.219241E0,3.2801347E0,4.9391065E0,1.1297064E0,2.1504283E0,2.1577365E0,2.7813702E0,1.1824867E0,1.5988834E0],"tree_param":{"num_deleted":"0","num_feature":"26","num_nodes":"9","size_leaf_vector":"1"}},{"base_weights":[-3.7611432E-2,1.650894E-1,-1.5121254E-1,3.706177E-2,-1.0223926E-2,5.706667E-3,-2.2757044E-2],"categories":[],"categories_nodes":[],"categories_segments":[],"categories_sizes":[],"default_left":[0,0,0,0,0,0,0],"id":21,"left_children":[1,3,5,-1,-1,-1,-1],"loss_changes":[1.9945022E-1,2.1368603E-1,9.851593E-2,0E0,0E0,0E0,0E0],"parents":[2147483647,0,0,1,1,2,2],"right_children":[2,4,6,-1,-1,-1,-1],"split_conditions":[1E0,1E0,1.76E0,3.706177E-2,-1.0223926E-2,5.706667E-3,-2.2757044E-2],"split_indices":[4,21,0,0,0,0,0],"split_type":[0,0,0,0,0,0,0],"sum_hessian":[6.5774684E0,2.199542E0,4.3779263E0,1.0250702E0,1.1744719E0,1.2422149E0,3.1357114E0],"tree_param":{"num_deleted":"0","num_feature":"26","num_nodes":"7","size_leaf_vector":"1"}},{"base_weights":[1.8672237E-1,-2.4502615E-2,4.1177418E-2,1.493776E-3,-4.5607197E-3],"categories":[],"categories_nodes":[],"categories_segments":[],"categories_sizes":[],"default_left":[0,0,0,0,0],"id":22,"left_children":[1,3,-1,-1,-1],"loss_changes":[3.4525067E-1,4.4942526E-3,0E0,0E0,0E0],"parents":[2147483647,0,0,1,1],"right_children":[2,4,-1,-1,-1],"split_conditions":[1E0,3E0,4.1177418E-2,1.493776E-3,-4.5607197E-3],"split_indices":[8,4,0,0,0],"split_type":[0,0,0,0,0],"sum_hessian":[6.050595E0,3.5808609E0,2.469734E0,1.3500612E0,2.2307997E0],"tree_param":{"num_deleted":"0","num_feature":"26","num_nodes":"5","size_leaf_vector":"1"}},{"base_weights":[-1.8147603E-2,-1.1035755E-1,3.0483976E-2,-1.9983761E-1,1.3882627E-2,-4.251322E-3,-2.4937041E-2,1.07418215E-2,-1.2691403E-2],"categories":[],"categories_nodes":[],"categories_segments":[],"categories_sizes":[],"default_left":[0,0,0,0,0,0,0,0,0],"id":23,"left_children":[1,3,-1,5,7,-1,-1,-1,-1],"loss_changes":[2.8303212E-1,8.335273E-2,0E0,2.2739574E-2,6.591199E-2,0E0,0E0,0E0,0E0],"parents":[2147483647,0,0,1,1,3,3,4,4],"right_children":[2,4,-1,6,8,-1,-1,-1,-1],"split_conditions":[2.57E0,9.4E-1,3.0483976E-2,1E0,1.97E0,-4.251322E-3,-2.4937041E-2,1.07418215E-2,-1.2691403E-2],"split_indices":[0,0,0,21,0,0,0,0,0],"split_type":[0,0,0,0,0,0,0,0,0],"sum_hessian":[7.373692E0,6.248208E0,1.1254841E0,3.2784965E0,2.9697115E0,1.2300229E0,2.0484736E0,1.926768E0,1.0429436E0],"tree_param":{"num_deleted":"0","num_feature":"26","num_nodes":"9","size_leaf_vector":"1"}},{"base_weights":[2.7594024E-2,-4.794433E-2,3.0817648E-2,1.1973206E-2,-1.32283E-1,-1.9905524E-1,6.8164505E-3,-2.9011581E-2,-8.871492E-3],"categories":[],"categories_nodes":[],"categories_segments":[],"categories_sizes":[],"default_left":[0,0,0,0,0,0,0,0,0],"id":24,"left_children":[1,3,-1,-1,5,7,-1,-1,-1],"loss_changes":[2.037821E-1,1.2743615E-1,0E0,0E0,9.0201974E-2,1.9979194E-2,0E0,0E0,0E0],"parents":[2147483647,0,0,1,1,4,4,5,5],"right_children":[2,4,-1,-1,6,8,-1,-1,-1],"split_conditions":[2.57E0,1E0,3.0817648E-2,1.1973206E-2,1E0,9.4E-1,6.8164505E-3,-2.9011581E-2,-8.871492E-3],"split_indices":[0,4,0,0,3,0,0,0,0],"split_type":[0,0,0,0,0,0,0,0,0],"sum_hessian":[7.917628E0,6.891441E0,1.0261866E0,2.1658294E0,4.7256117E0,3.5499973E0,1.1756145E0,1.0522909E0,2.4977062E0],"tree_param":{"num_deleted":"0","num_feature":"26","num_nodes":"9","size_leaf_vector":"1"}},{"base_weights":[9.587496E-2,-2.0137098E-2,2.4152319E-1,8.748929E-3,4.185569E-2],"categories":[],"categories_nodes":[],"categories_segments":[],"categories_sizes":[],"default_left":[0,0,0,0,0],"id":25,"left_children":[1,-1,3,-1,-1],"loss_changes":[3.3886528E-1,0E0,9.846908E-2,0E0,0E0],"parents":[2147483647,0,0,2,2],"right_children":[2,-1,4,-1,-1],"split_conditions":[1E0,-2.0137098E-2,1E0,8.748929E-3,4.185569E-2],"split_indices":[2,0,8,0,0],"split_type":[0,0,0,0,0],"sum_hessian":[5.7037907E0,1.7499087E0,3.9538822E0,2.9132826E0,1.0405997E0],"tree_param":{"num_deleted":"0","num_feature":"26","num_nodes":"5","size_leaf_vector":"1"}},{"base_weights":[-5.615215E-2,-2.076052E-2,8.57031E-2,3.0871412E-2,-7.7953762E-3],"categories":[],"categories_nodes":[],"categories_segments":[],"categories_sizes":[],"default_left":[0,0,0,0,0],"id":26,"left_children":[1,-1,3,-1,-1],"loss_changes":[1.774995E-1,0E0,1.8999092E-1,0E0,0E0],"parents":[2147483647,0,0,2,2],"right_children":[2,-1,4,-1,-1],"split_conditions":[9.4E-1,-2.076052E-2,3E0,3.0871412E-2,-7.7953762E-3],"split_indices":[0,0,4,0,0],"split_type":[0,0,0,0,0],"sum_hessian":[6.4336276E0,2.887385E0,3.546243E0,1.1257975E0,2.4204454E0],"tree_param":{"num_deleted":"0","num_feature":"26","num_nodes":"5","size_leaf_vector":"1"}},{"base_weights":[-9.879676E-3,-1.0808461E-1,1.394882E-2,-2.369394E-2,-2.5622243E-2,6.2500583E-3,-7.488695E-3],"categories":[],"categories_nodes":[],"categories_segments":[],"categories_sizes":[],"default_left":[0,0,0,0,0,0,0],"id":27,"left_children":[1,3,-1,-1,5,-1,-1],"loss_changes":[1.3621831E-1,5.2859508E-2,0E0,0E0,2.4229812E-2,0E0,0E0],"parents":[2147483647,0,0,1,1,4,4],"right_children":[2,4,-1,-1,6,-1,-1],"split_conditions":[1E0,9.4E-1,1.394882E-2,-2.369394E-2,1.88E0,6.2500583E-3,-7.488695E-3],"split_indices":[8,0,0,0,0,0,0],"split_type":[0,0,0,0,0,0,0],"sum_hessian":[7.258543E0,4.546042E0,2.712501E0,1.0429839E0,3.5030582E0,1.1597942E0,2.3432639E0],"tree_param":{"num_deleted":"0","num_feature":"26","num_nodes":"7","size_leaf_vector":"1"}},{"base_weights":[5.1323872E-2,-1.081388E-1,1.5454446E-1,-2.0891247E-2,5.981862E-3,-4.171036E-3,2.3005317E-1,3.0748641E-2,9.085393E-3],"categories":[],"categories_nodes":[],"categories_segments":[],"categories_sizes":[],"default_left":[0,0,0,0,0,0,0,0,0],"id":28,"left_children":[1,3,5,-1,-1,-1,7,-1,-1],"loss_changes":[1.4564231E-1,7.455131E-2,8.6161E-2,0E0,0E0,0E0,1.39348805E-2,0E0,0E0],"parents":[2147483647,0,0,1,1,2,2,6,6],"right_children":[2,4,6,-1,-1,-1,8,-1,-1],"split_conditions":[1E0,5E-1,1E0,-2.0891247E-2,5.981862E-3,-4.171036E-3,3E0,3.0748641E-2,9.085393E-3],"split_indices":[2,4,21,0,0,0,4,0,0],"split_type":[0,0,0,0,0,0,0,0,0],"sum_hessian":[6.8330126E0,2.6662886E0,4.166724E0,1.5140336E0,1.152255E0,1.2820789E0,2.8846452E0,1.0767233E0,1.8079219E0],"tree_param":{"num_deleted":"0","num_feature":"26","num_nodes":"9","size_leaf_vector":"1"}},{"base_weights":[4.9764052E-2,1.21447094E-1,-8.135151E-3,-2.5031606E-2,3.8191613E-2,9.682775E-3,-1.6092872E-2],"categories":[],"categories_nodes":[],"categories_segments":[],"categories_sizes":[],"default_left":[0,0,0,0,0,0,0],"id":29,"left_children":[1,3,-1,5,-1,-1,-1],"loss_changes":[8.296282E-2,2.1667214E-1,0E0,8.8662975E-2,0E0,0E0,0E0],"parents":[2147483647,0,0,1,1,3,3],"right_children":[2,4,-1,6,-1,-1,-1],"split_conditions":[3E0,1.88E0,-8.135151E-3,1E0,3.8191613E-2,9.682775E-3,-1.6092872E-2],"split_indices":[4,0,0,21,0,0,0],"split_type":[0,0,0,0,0,0,0],"sum_hessian":[6.775802E0,4.4284406E0,2.3473616E0,3.4129913E0,1.0154493E0,1.9510084E0,1.4619828E0],"tree_param":{"num_deleted":"0","num_feature":"26","num_nodes":"7","size_leaf_vector":"1"}},{"base_weights":[1.3230404E-1,2.30019E-1,-2.4812676E-2,3.420907E-1,-6.056357E-4,1.5775913E-2,4.441418E-2],"categories":[],"categories_nodes":[],"categories_segments":[],"categories_sizes":[],"default_left":[0,0,0,0,0,0,0],"id":30,"left_children":[1,3,-1,5,-1,-1,-1],"loss_changes":[3.3355534E-1,1.7236531E-1,0E0,1.2362301E-2,0E0,0E0,0E0],"parents":[2147483647,0,0,1,1,3,3],"right_children":[2,4,-1,6,-1,-1,-1],"split_conditions":[1E0,3E0,-2.4812676E-2,2E0,-6.056357E-4,1.5775913E-2,4.441418E-2],"split_indices":[10,4,0,4,0,0,0],"split_type":[0,0,0,0,0,0,0],"sum_hessian":[6.43754E0,5.436523E0,1.0010172E0,3.3819437E0,2.0545793E0,2.112353E0,1.2695906E0],"tree_param":{"num_deleted":"0","num_feature":"26","num_nodes":"7","size_leaf_vector":"1"}},{"base_weights":[-2.4484767E-2,-1.9429892E-1,1.0790501E-1,-7.232848E-3,-2.6277706E-2,2.7756337E-2,-6.1325203E-3],"categories":[],"categories_nodes":[],"categories_segments":[],"categories_sizes":[],"default_left":[0,0,0,0,0,0,0],"id":31,"left_children":[1,3,5,-1,-1,-1,-1],"loss_changes":[1.9384868E-1,1.2113452E-2,1.5954667E-1,0E0,0E0,0E0,0E0],"parents":[2147483647,0,0,1,1,2,2],"right_children":[2,4,6,-1,-1,-1,-1],"split_conditions":[1E0,5E-1,3E0,-7.232848E-3,-2.6277706E-2,2.7756337E-2,-6.1325203E-3],"split_indices":[2,4,4,0,0,0,0],"split_type":[0,0,0,0,0,0,0],"sum_hessian":[6.6899524E0,2.7258816E0,3.9640708E0,1.7194663E0,1.0064154E0,1.6598592E0,2.3042114E0],"tree_param":{"num_deleted":"0","num_feature":"26","num_nodes":"7","size_leaf_vector":"1"}},{"base_weights":[6.451111E-2,-1.8723972E-2,2.2885892E-1,3.1841674E-3,3.447646E-2],"categories":[],"categories_nodes":[],"categories_segments":[],"categories_sizes":[],"default_left":[0,0,0,0,0],"id":32,"left_children":[1,-1,3,-1,-1],"loss_changes":[3.342772E-1,0E0,9.6612096E-2,0E0,0E0],"parents":[2147483647,0,0,2,2],"right_children":[2,-1,4,-1,-1],"split_conditions":[9.4E-1,-1.8723972E-2,1E0,3.1841674E-3,3.447646E-2],"split_indices":[0,0,21,0,0],"split_type":[0,0,0,0,0],"sum_hessian":[6.043575E0,2.3320343E0,3.7115405E0,1.8468957E0,1.8646448E0],"tree_param":{"num_deleted":"0","num_feature":"26","num_nodes":"5","size_leaf_vector":"1"}},{"base_weights":[1.863889E-2,-9.055853E-2,2.04502E-2,7.724327E-2,-4.0968377E-2,-8.306925E-3,1.999995E-2],"categories":[],"categories_nodes":[],"categories_segments":[],"categories_sizes":[],"default_left":[0,0,0,0,0,0,0],"id":33,"left_children":[1,3,-1,5,-1,-1,-1],"loss_changes":[1.7062996E-1,3.215695E-1,0E0,1.03000194E-1,0E0,0E0,0E0],"parents":[2147483647,0,0,1,1,3,3],"right_children":[2,4,-1,6,-1,-1,-1],"split_conditions":[1E0,2.03E0,2.04502E-2,1.88E0,-4.0968377E-2,-8.306925E-3,1.999995E-2],"split_indices":[8,0,0,0,0,0,0],"split_type":[0,0,0,0,0,0,0],"sum_hessian":[6.494693E0,4.4141054E0,2.0805871E0,3.3896956E0,1.0244099E0,1.6101855E0,1.7795101E0],"tree_param":{"num_deleted":"0","num_feature":"26","num_nodes":"7","size_leaf_vector":"1"}},{"base_weights":[-1.6619433E-2,-1.4269884E-2,1.5938757E-2],"categories":[],"categories_nodes":[],"categories_segments":[],"categories_sizes":[],"default_left":[0,0,0],"id":34,"left_children":[1,-1,-1],"loss_changes":[1.5026526E-1,0E0,0E0],"parents":[2147483647,0,0],"right_children":[2,-1,-1],"split_conditions":[1E0,-1.4269884E-2,1.5938757E-2],"split_indices":[8,0,0],"split_type":[0,0,0],"sum_hessian":[4.7465487E0,2.8757799E0,1.8707689E0],"tree_param":{"num_deleted":"0","num_feature":"26","num_nodes":"3","size_leaf_vector":"1"}},{"base_weights":[-3.763807E-2,-2.5184263E-2,8.509094E-2,1.8096618E-1,-1.10022575E-2,6.851072E-3,2.3325948E-2],"categories":[],"categories_nodes":[],"categories_segments":[],"categories_sizes":[],"default_left":[0,0,0,0,0,0,0],"id":35,"left_children":[1,-1,3,5,-1,-1,-1],"loss_changes":[2.0807149E-1,0E0,1.1832553E-1,6.9873333E-3,0E0,0E0,0E0],"parents":[2147483647,0,0,2,2,3,3],"right_children":[2,-1,4,6,-1,-1,-1],"split_conditions":[8.8E-1,-2.5184263E-2,2.03E0,1E0,-1.10022575E-2,6.851072E-3,2.3325948E-2],"split_indices":[0,0,0,21,0,0,0],"split_type":[0,0,0,0,0,0,0],"sum_hessian":[6.0995903E0,1.8385912E0,4.260999E0,2.9056995E0,1.3552997E0,1.6555669E0,1.2501326E0],"tree_param":{"num_deleted":"0","num_feature":"26","num_nodes":"7","size_leaf_vector":"1"}},{"base_weights":[9.807223E-2,2.3725943E-1,-7.565256E-2,-7.6773966E-4,3.3681836E-2,6.8968866E-4,-1.2563764E-2],"categories":[],"categories_nodes":[],"categories_segments":[],"categories_sizes":[],"default_left":[0,0,0,0,0,0,0],"id":36,"left_children":[1,3,5,-1,-1,-1,-1],"loss_changes":[1.6907027E-1,9.309465E-2,1.5465988E-2,0E0,0E0,0E0,0E0],"parents":[2147483647,0,0,1,1,2,2],"right_children":[2,4,6,-1,-1,-1,-1],"split_conditions":[1E0,1E0,1E0,-7.6773966E-4,3.3681836E-2,6.8968866E-4,-1.2563764E-2],"split_indices":[3,21,8,0,0,0,0],"split_type":[0,0,0,0,0,0,0],"sum_hessian":[5.2497644E0,2.7115598E0,2.5382047E0,1.0503509E0,1.6612089E0,1.2823869E0,1.2558178E0],"tree_param":{"num_deleted":"0","num_feature":"26","num_nodes":"7","size_leaf_vector":"1"}},{"base_weights":[3.4634024E-3,-1.9026853E-1,3.693101E-2,-2.6448453E-2,-6.4489194E-3],"categories":[],"categories_nodes":[],"categories_segments":[],"categories_sizes":[],"default_left":[0,0,0,0,0],"id":37,"left_children":[1,3,-1,-1,-1],"loss_changes":[5.6049496E-1,3.131698E-2,0E0,0E0,0E0],"parents":[2147483647,0,0,1,1],"right_children":[2,4,-1,-1,-1],"split_conditions":[1E0,1E0,3.693101E-2,-2.6448453E-2,-6.4489194E-3],"split_indices":[8,21,0,0,0],"split_type":[0,0,0,0,0],"sum_hessian":[5.9166646E0,4.1820226E0,1.7346421E0,1.9365793E0,2.245443E0],"tree_param":{"num_deleted":"0","num_feature":"26","num_nodes":"5","size_leaf_vector":"1"}},{"base_weights":[4.3225937E-2,-1.03568554E-1,1.7507575E-1,-2.6496148E-3,-1.4543838E-2,6.8936346E-4,2.6015306E-2],"categories":[],"categories_nodes":[],"categories_segments":[],"categories_sizes":[],"default_left":[0,0,0,0,0,0,0],"id":38,"left_children":[1,3,5,-1,-1,-1,-1],"loss_changes":[1.4239107E-1,7.977199E-3,5.1918805E-2,0E0,0E0,0E0,0E0],"parents":[2147483647,0,0,1,1,2,2],"right_children":[2,4,6,-1,-1,-1,-1],"split_conditions":[1E0,1E0,1.88E0,-2.6496148E-3,-1.4543838E-2,6.8936346E-4,2.6015306E-2],"split_indices":[12,2,0,0,0,0,0],"split_type":[0,0,0,0,0,0,0],"sum_hessian":[5.420039E0,2.6661675E0,2.7538717E0,1.5133221E0,1.1528454E0,1.2882558E0,1.4656159E0],"tree_param":{"num_deleted":"0","num_feature":"26","num_nodes":"7","size_leaf_vector":"1"}},{"base_weights":[3.2004565E-2,-1.287668E-1,1.683E-1,-2.1228913E-2,7.3017355E-4,2.8330458E-2,9.807539E-4],"categories":[],"categories_nodes":[],"categories_segments":[],"categories_sizes":[],"default_left":[0,0,0,0,0,0,0],"id":39,"left_children":[1,3,5,-1,-1,-1,-1],"loss_changes":[1.5954216E-1,4.0795885E-2,6.718926E-2,0E0,0E0,0E0,0E0],"parents":[2147483647,0,0,1,1,2,2],"right_children":[2,4,6,-1,-1,-1,-1],"split_conditions":[1E0,2E0,3E0,-2.1228913E-2,7.3017355E-4,2.8330458E-2,9.807539E-4],"split_indices":[2,4,4,0,0,0,0],"split_type":[0,0,0,0,0,0,0],"sum_hessian":[5.2919016E0,2.453289E0,2.8386128E0,1.1730675E0,1.2802215E0,1.1886295E0,1.6499834E0],"tree_param":{"num_deleted":"0","num_feature":"26","num_nodes":"7","size_leaf_vector":"1"}},{"base_weights":[1.1146829E-1,-2.1252839E-2,3.1721687E-1,3.8240623E-2,1.0727056E-2],"categories":[],"categories_nodes":[],"categories_segments":[],"categories_sizes":[],"default_left":[0,0,0,0,0],"id":40,"left_children":[1,-1,3,-1,-1],"loss_changes":[4.4720873E-1,0E0,1.2159765E-2,0E0,0E0],"parents":[2147483647,0,0,2,2],"right_children":[2,-1,4,-1,-1],"split_conditions":[9.4E-1,-2.1252839E-2,3E0,3.8240623E-2,1.0727056E-2],"split_indices":[0,0,4,0,0],"split_type":[0,0,0,0,0],"sum_hessian":[4.697279E0,1.8115852E0,2.885694E0,1.5751531E0,1.3105408E0],"tree_param":{"num_deleted":"0","num_feature":"26","num_nodes":"5","size_leaf_vector":"1"}},{"base_weights":[-2.0220917E-1,-4.0180374E-2,1.3028738E-2],"categories":[],"categories_nodes":[],"categories_segments":[],"categories_sizes":[],"default_left":[0,0,0],"id":41,"left_children":[1,-1,-1],"loss_changes":[4.1515625E-1,0E0,0E0],"parents":[2147483647,0,0],"right_children":[2,-1,-1],"split_conditions":[1E0,-4.0180374E-2,1.3028738E-2],"split_indices":[8,0,0],"split_type":[0,0,0],"sum_hessian":[4.466872E0,2.6610339E0,1.8058385E0],"tree_param":{"num_deleted":"0","num_feature":"26","num_nodes":"3","size_leaf_vector":"1"}},{"base_weights":[-1.8925572E-2,-1.7955821E-2,7.3224835E-2,2.05152E-1,-1.5603386E-2,4.975771E-3,2.5765622E-2],"categories":[],"categories_nodes":[],"categories_segments":[],"categories_sizes":[],"default_left":[0,0,0,0,0,0,0],"id":42,"left_children":[1,-1,3,5,-1,-1,-1],"loss_changes":[1.09247416E-1,0E0,1.7827193E-1,1.5747696E-2,0E0,0E0,0E0],"parents":[2147483647,0,0,2,2,3,3],"right_children":[2,-1,4,6,-1,-1,-1],"split_conditions":[8.8E-1,-1.7955821E-2,2.03E0,1.88E0,-1.5603386E-2,4.975771E-3,2.5765622E-2],"split_indices":[0,0,0,0,0,0,0],"split_type":[0,0,0,0,0,0,0],"sum_hessian":[5.49216E0,1.6563492E0,3.8358107E0,2.501481E0,1.3343295E0,1.1236264E0,1.3778548E0],"tree_param":{"num_deleted":"0","num_feature":"26","num_nodes":"7","size_leaf_vector":"1"}},{"base_weights":[-6.280441E-2,1.4527038E-1,-3.4389745E-2,2.8088048E-2,-4.4712336E-3],"categories":[],"categories_nodes":[],"categories_segments":[],"categories_sizes":[],"default_left":[0,0,0,0,0],"id":43,"left_children":[1,3,-1,-1,-1],"loss_changes":[3.7387183E-1,1.1266077E-1,0E0,0E0,0E0],"parents":[2147483647,0,0,1,1],"right_children":[2,4,-1,-1,-1],"split_conditions":[1.76E0,1E0,-3.4389745E-2,2.8088048E-2,-4.4712336E-3],"split_indices":[0,21,0,0,0],"split_type":[0,0,0,0,0],"sum_hessian":[4.5380874E0,2.885405E0,1.6526821E0,1.4044515E0,1.4809536E0],"tree_param":{"num_deleted":"0","num_feature":"26","num_nodes":"5","size_leaf_vector":"1"}},{"base_weights":[1.07139364E-1,-8.11572E-2,2.4804582E-1,-1.39088845E-2,1.0263608E-4,3.6159046E-2,3.4794316E-3],"categories":[],"categories_nodes":[],"categories_segments":[],"categories_sizes":[],"default_left":[0,0,0,0,0,0,0],"id":44,"left_children":[1,3,5,-1,-1,-1,-1],"loss_changes":[1.9113253E-1,1.6864015E-2,8.264959E-2,0E0,0E0,0E0,0E0],"parents":[2147483647,0,0,1,1,2,2],"right_children":[2,4,6,-1,-1,-1,-1],"split_conditions":[9.4E-1,1E0,3E0,-1.39088845E-2,1.0263608E-4,3.6159046E-2,3.4794316E-3],"split_indices":[0,3,4,0,0,0,0],"split_type":[0,0,0,0,0,0,0],"sum_hessian":[5.4450684E0,2.512111E0,2.9329572E0,1.0673285E0,1.4447825E0,1.4599886E0,1.4729686E0],"tree_param":{"num_deleted":"0","num_feature":"26","num_nodes":"7","size_leaf_vector":"1"}},{"base_weights":[5.0118398E-2,1.2104248E-1,-1.3543469E-2,-7.835407E-2,2.8494507E-2,-2.156203E-3,-9.524181E-3],"categories":[],"categories_nodes":[],"categories_segments":[],"categories_sizes":[],"default_left":[0,0,0,0,0,0,0],"id":45,"left_children":[1,3,-1,5,-1,-1,-1],"loss_changes":[1.0251447E-1,1.9431297E-1,0E0,9.75674E-4,0E0,0E0,0E0],"parents":[2147483647,0,0,1,1,3,3],"right_children":[2,4,-1,6,-1,-1,-1],"split_conditions":[2.03E0,9.4E-1,-1.3543469E-2,1E0,2.8494507E-2,-2.156203E-3,-9.524181E-3],"split_indices":[0,0,0,21,0,0,0],"split_type":[0,0,0,0,0,0,0],"sum_hessian":[5.5440664E0,4.2624817E0,1.2815847E0,2.1584976E0,2.103984E0,1.016587E0,1.1419106E0],"tree_param":{"num_deleted":"0","num_feature":"26","num_nodes":"7","size_leaf_vector":"1"}},{"base_weights":[1.475961E-1,2.6686111E-2,-7.4423724E-3],"categories":[],"categories_nodes":[],"categories_segments":[],"categories_sizes":[],"default_left":[0,0,0],"id":46,"left_children":[1,-1,-1],"loss_changes":[1.7075306E-1,0E0,0E0],"parents":[2147483647,0,0],"right_children":[2,-1,-1],"split_conditions":[3E0,2.6686111E-2,-7.4423724E-3],"split_indices":[4,0,0],"split_type":[0,0,0],"sum_hessian":[4.698522E0,2.9251924E0,1.7733295E0],"tree_param":{"num_deleted":"0","num_feature":"26","num_nodes":"3","size_leaf_vector":"1"}},{"base_weights":[-9.766462E-3,9.997758E-3,-8.254792E-2,-1.9046942E-2,5.5462066E-3],"categories":[],"categories_nodes":[],"categories_segments":[],"categories_sizes":[],"default_left":[0,0,0,0,0],"id":47,"left_children":[1,-1,3,-1,-1],"loss_changes":[5.648585E-2,0E0,7.279971E-2,0E0,0E0],"parents":[2147483647,0,0,2,2],"right_children":[2,-1,4,-1,-1],"split_conditions":[1E0,9.997758E-3,1E0,-1.9046942E-2,5.5462066E-3],"split_indices":[4,0,21,0,0],"split_type":[0,0,0,0,0],"sum_hessian":[5.0386767E0,1.8601571E0,3.1785195E0,1.5703887E0,1.6081308E0],"tree_param":{"num_deleted":"0","num_feature":"26","num_nodes":"5","size_leaf_vector":"1"}},{"base_weights":[-1.0057544E-1,-1.889617E-1,9.184445E-3,-2.539835E-2,-7.2354153E-3],"categories":[],"categories_nodes":[],"categories_segments":[],"categories_sizes":[],"default_left":[0,0,0,0,0],"id":48,"left_children":[1,3,-1,-1,-1],"loss_changes":[1.108119E-1,1.2653068E-2,0E0,0E0,0E0],"parents":[2147483647,0,0,1,1],"right_children":[2,4,-1,-1,-1],"split_conditions":[1E0,1.88E0,9.184445E-3,-2.539835E-2,-7.2354153E-3],"split_indices":[8,0,0,0,0],"split_type":[0,0,0,0,0],"sum_hessian":[4.4951077E0,3.0925474E0,1.4025604E0,1.229088E0,1.8634593E0],"tree_param":{"num_deleted":"0","num_feature":"26","num_nodes":"5","size_leaf_vector":"1"}},{"base_weights":[-5.0520297E-2,3.355977E-3,-1.3062446E-2],"categories":[],"categories_nodes":[],"categories_segments":[],"categories_sizes":[],"default_left":[0,0,0],"id":49,"left_children":[1,-1,-1],"loss_changes":[4.2420235E-2,0E0,0E0],"parents":[2147483647,0,0],"right_children":[2,-1,-1],"split_conditions":[1E0,3.355977E-3,-1.3062446E-2],"split_indices":[3,0,0],"split_type":[0,0,0],"sum_hessian":[4.6474514E0,2.550943E0,2.0965085E0],"tree_param":{"num_deleted":"0","num_feature":"26","num_nodes":"3","size_leaf_vector":"1"}},{"base_weights":[-2.1404628E-2,-1.17667526E-1,1.3885746E-2,3.3933339E-3,-1.8875109E-2],"categories":[],"categories_nodes":[],"categories_segments":[],"categories_sizes":[],"default_left":[0,0,0,0,0],"id":50,"left_children":[1,3,-1,-1,-1],"loss_changes":[1.21569015E-1,5.8160305E-2,0E0,0E0,0E0],"parents":[2147483647,0,0,1,1],"right_children":[2,4,-1,-1,-1],"split_conditions":[1E0,1.76E0,1.3885746E-2,3.3933339E-3,-1.8875109E-2],"split_indices":[8,0,0,0,0],"split_type":[0,0,0,0,0],"sum_hessian":[5.8210278E0,3.8026886E0,2.0183394E0,1.3806932E0,2.4219954E0],"tree_param":{"num_deleted":"0","num_feature":"26","num_nodes":"5","size_leaf_vector":"1"}},{"base_weights":[2.7255943E-2,7.143878E-2,-1.0051616E-2,-5.3326115E-3,1.6387968E-1,5.256388E-3,2.1225128E-2],"categories":[],"categories_nodes":[],"categories_segments":[],"categories_sizes":[],"default_left":[0,0,0,0,0,0,0],"id":51,"left_children":[1,3,-1,-1,5,-1,-1],"loss_changes":[4.5255262E-2,7.32802E-2,0E0,0E0,7.47326E-3,0E0,0E0],"parents":[2147483647,0,0,1,1,4,4],"right_children":[2,4,-1,-1,6,-1,-1],"split_conditions":[2.03E0,8.8E-1,-1.0051616E-2,-5.3326115E-3,1E0,5.256388E-3,2.1225128E-2],"split_indices":[0,0,0,0,21,0,0],"split_type":[0,0,0,0,0,0,0],"sum_hessian":[5.7444215E0,4.59603E0,1.1483911E0,2.1361122E0,2.459918E0,1.3772259E0,1.0826921E0],"tree_param":{"num_deleted":"0","num_feature":"26","num_nodes":"7","size_leaf_vector":"1"}},{"base_weights":[4.1657027E-2,-5.6056224E-2,1.7468732E-2,1.0588791E-2,-1.4454997E-2],"categories":[],"categories_nodes":[],"categories_segments":[],"categories_sizes":[],"default_left":[0,0,0,0,0],"id":52,"left_children":[1,3,-1,-1,-1],"loss_changes":[8.850601E-2,7.618728E-2,0E0,0E0,0E0],"parents":[2147483647,0,0,1,1],"right_children":[2,4,-1,-1,-1],"split_conditions":[1E0,1.76E0,1.7468732E-2,1.0588791E-2,-1.4454997E-2],"split_indices":[8,0,0,0,0],"split_type":[0,0,0,0,0],"sum_hessian":[5.05545E0,3.2482038E0,1.8072463E0,1.0783174E0,2.1698864E0],"tree_param":{"num_deleted":"0","num_feature":"26","num_nodes":"5","size_leaf_vector":"1"}},{"base_weights":[-9.6632354E-2,-1.5920755E-1,3.679823E-3,5.853327E-4,-2.7696252E-2],"categories":[],"categories_nodes":[],"categories_segments":[],"categories_sizes":[],"default_left":[0,0,0,0,0],"id":53,"left_children":[1,3,-1,-1,-1],"loss_changes":[5.1475786E-2,7.756069E-2,0E0,0E0,0E0],"parents":[2147483647,0,0,1,1],"right_children":[2,4,-1,-1,-1],"split_conditions":[3E0,-4.7E-1,3.679823E-3,5.853327E-4,-2.7696252E-2],"split_indices":[4,0,0,0,0],"split_type":[0,0,0,0,0],"sum_hessian":[4.463504E0,2.9070108E0,1.5564929E0,1.6060507E0,1.3009602E0],"tree_param":{"num_deleted":"0","num_feature":"26","num_nodes":"5","size_leaf_vector":"1"}},{"base_weights":[9.7213626E-2,-2.7139224E-2,3.0140433E-2,5.822209E-3,-7.337887E-3],"categories":[],"categories_nodes":[],"categories_segments":[],"categories_sizes":[],"default_left":[0,0,0,0,0],"id":54,"left_children":[1,3,-1,-1,-1],"loss_changes":[1.5815836E-1,2.2382885E-2,0E0,0E0,0E0],"parents":[2147483647,0,0,1,1],"right_children":[2,4,-1,-1,-1],"split_conditions":[1E0,1.76E0,3.0140433E-2,5.822209E-3,-7.337887E-3],"split_indices":[8,0,0,0,0],"split_type":[0,0,0,0,0],"sum_hessian":[4.906596E0,3.5883608E0,1.3182354E0,1.1697643E0,2.4185965E0],"tree_param":{"num_deleted":"0","num_feature":"26","num_nodes":"5","size_leaf_vector":"1"}},{"base_weights":[-3.7502177E-2,-2.9948503E-2,1.8224587E-1,6.690537E-4,2.541112E-2],"categories":[],"categories_nodes":[],"categories_segments":[],"categories_sizes":[],"default_left":[0,0,0,0,0],"id":55,"left_children":[1,-1,3,-1,-1],"loss_changes":[3.572758E-1,0E0,4.221861E-2,0E0,0E0],"parents":[2147483647,0,0,2,2],"right_children":[2,-1,4,-1,-1],"split_conditions":[1E0,-2.9948503E-2,1.88E0,6.690537E-4,2.541112E-2],"split_indices":[12,0,0,0,0],"split_type":[0,0,0,0,0],"sum_hessian":[4.257856E0,1.7767565E0,2.4810996E0,1.0381548E0,1.4429446E0],"tree_param":{"num_deleted":"0","num_feature":"26","num_nodes":"5","size_leaf_vector":"1"}},{"base_weights":[6.019409E-2,-6.4949766E-2,2.8221965E-2,-1.2532969E-2,3.9774828E-4],"categories":[],"categories_nodes":[],"categories_segments":[],"categories_sizes":[],"default_left":[0,0,0,0,0],"id":56,"left_children":[1,3,-1,-1,-1],"loss_changes":[1.7642617E-1,1.9026158E-2,0E0,0E0,0E0],"parents":[2147483647,0,0,1,1],"right_children":[2,4,-1,-1,-1],"split_conditions":[1E0,1.88E0,2.8221965E-2,-1.2532969E-2,3.9774828E-4],"split_indices":[8,0,0,0,0],"split_type":[0,0,0,0,0],"sum_hessian":[4.689952E0,3.451816E0,1.2381359E0,1.4038028E0,2.0480134E0],"tree_param":{"num_deleted":"0","num_feature":"26","num_nodes":"5","size_leaf_vector":"1"}},{"base_weights":[2.9412592E-2,-6.241037E-2,1.22176446E-1,4.616834E-3,-1.44640105E-2,2.5302982E-2,-7.949396E-3],"categories":[],"categories_nodes":[],"categories_segments":[],"categories_sizes":[],"default_left":[0,0,0,0,0,0,0],"id":57,"left_children":[1,3,5,-1,-1,-1,-1],"loss_changes":[6.105594E-2,4.0733233E-2,1.11382246E-1,0E0,0E0,0E0,0E0],"parents":[2147483647,0,0,1,1,2,2],"right_children":[2,4,6,-1,-1,-1,-1],"split_conditions":[1.88E0,1E0,2.03E0,4.616834E-3,-1.44640105E-2,2.5302982E-2,-7.949396E-3],"split_indices":[0,21,0,0,0,0,0],"split_type":[0,0,0,0,0,0,0],"sum_hessian":[5.2728095E0,2.8142836E0,2.4585261E0,1.4018204E0,1.4124631E0,1.3366038E0,1.1219223E0],"tree_param":{"num_deleted":"0","num_feature":"26","num_nodes":"7","size_leaf_vector":"1"}},{"base_weights":[-8.178096E-3,-1.6628299E-2,1.0400547E-1,1.9038932E-2,-7.391689E-3],"categories":[],"categories_nodes":[],"categories_segments":[],"categories_sizes":[],"default_left":[0,0,0,0,0],"id":58,"left_children":[1,-1,3,-1,-1],"loss_changes":[1.2983556E-1,0E0,8.057353E-2,0E0,0E0],"parents":[2147483647,0,0,2,2],"right_children":[2,-1,4,-1,-1],"split_conditions":[9.4E-1,-1.6628299E-2,2.03E0,1.9038932E-2,-7.391689E-3],"split_indices":[0,0,0,0,0],"split_type":[0,0,0,0,0],"sum_hessian":[5.345081E0,2.0183282E0,3.3267524E0,2.1922932E0,1.1344595E0],"tree_param":{"num_deleted":"0","num_feature":"26","num_nodes":"5","size_leaf_vector":"1"}},{"base_weights":[-8.769116E-3,-1.5211833E-2,7.7563986E-2,2.194227E-2,-8.293877E-3],"categories":[],"categories_nodes":[],"categories_segments":[],"categories_sizes":[],"default_left":[0,0,0,0,0],"id":59,"left_children":[1,-1,3,-1,-1],"loss_changes":[8.524078E-2,0E0,1.17607445E-1,0E0,0E0],"parents":[2147483647,0,0,2,2],"right_children":[2,-1,4,-1,-1],"split_conditions":[8.8E-1,-1.5211833E-2,3E0,2.194227E-2,-8.293877E-3],"split_indices":[0,0,4,0,0],"split_type":[0,0,0,0,0],"sum_hessian":[4.9343224E0,1.5682971E0,3.366025E0,1.5919235E0,1.7741015E0],"tree_param":{"num_deleted":"0","num_feature":"26","num_nodes":"5","size_leaf_vector":"1"}},{"base_weights":[-8.872248E-2,1.0881873E-3,-1.2475456E-1,4.000307E-3,-1.8832916E-2],"categories":[],"categories_nodes":[],"categories_segments":[],"categories_sizes":[],"default_left":[0,0,0,0,0],"id":60,"left_children":[1,-1,3,-1,-1],"loss_changes":[2.1890193E-2,0E0,5.2379705E-2,0E0,0E0],"parents":[2147483647,0,0,2,2],"right_children":[2,-1,4,-1,-1],"split_conditions":[1E0,1.0881873E-3,1.76E0,4.000307E-3,-1.8832916E-2],"split_indices":[4,0,0,0,0],"split_type":[0,0,0,0,0],"sum_hessian":[4.7210665E0,1.4395843E0,3.2814825E0,1.0168973E0,2.264585E0],"tree_param":{"num_deleted":"0","num_feature":"26","num_nodes":"5","size_leaf_vector":"1"}},{"base_weights":[-1.8508467E-1,-3.35931E-2,7.3732957E-3],"categories":[],"categories_nodes":[],"categories_segments":[],"categories_sizes":[],"default_left":[0,0,0],"id":61,"left_children":[1,-1,-1],"loss_changes":[2.2380506E-1,0E0,0E0],"parents":[2147483647,0,0],"right_children":[2,-1,-1],"split_conditions":[1E0,-3.35931E-2,7.3732957E-3],"split_indices":[8,0,0],"split_type":[0,0,0],"sum_hessian":[4.098036E0,2.4008226E0,1.6972128E0],"tree_param":{"num_deleted":"0","num_feature":"26","num_nodes":"3","size_leaf_vector":"1"}},{"base_weights":[-1.1034204E-1,-2.2411926E-1,1.0061926E-2,2.4576937E-3,-3.5048682E-2],"categories":[],"categories_nodes":[],"categories_segments":[],"categories_sizes":[],"default_left":[0,0,0,0,0],"id":62,"left_children":[1,3,-1,-1,-1],"loss_changes":[1.5072611E-1,1.2737504E-1,0E0,0E0,0E0],"parents":[2147483647,0,0,1,1],"right_children":[2,4,-1,-1,-1],"split_conditions":[1E0,1.76E0,1.0061926E-2,2.4576937E-3,-3.5048682E-2],"split_indices":[8,0,0,0,0],"split_type":[0,0,0,0,0],"sum_hessian":[4.340065E0,2.7789366E0,1.5611281E0,1.2076828E0,1.5712538E0],"tree_param":{"num_deleted":"0","num_feature":"26","num_nodes":"5","size_leaf_vector":"1"}},{"base_weights":[4.4768997E-2,-1.470182E-2,1.5227886E-2],"categories":[],"categories_nodes":[],"categories_segments":[],"categories_sizes":[],"default_left":[0,0,0],"id":63,"left_children":[1,-1,-1],"loss_changes":[1.3834645E-1,0E0,0E0],"parents":[2147483647,0,0],"right_children":[2,-1,-1],"split_conditions":[9.4E-1,-1.470182E-2,1.5227886E-2],"split_indices":[0,0,0],"split_type":[0,0,0],"sum_hessian":[4.6238713E0,1.5289272E0,3.0949442E0],"tree_param":{"num_deleted":"0","num_feature":"26","num_nodes":"3","size_leaf_vector":"1"}},{"base_weights":[2.1093896E-1],"categories":[],"categories_nodes":[],"categories_segments":[],"categories_sizes":[],"default_left":[0],"id":64,"left_children":[-1],"loss_changes":[0E0],"parents":[2147483647],"right_children":[-1],"split_conditions":[2.1093896E-2],"split_indices":[0],"split_type":[0],"sum_hessian":[4.1674285E0],"tree_param":{"num_deleted":"0","num_feature":"26","num_nodes":"1","size_leaf_vector":"1"}},{"base_weights":[-5.827585E-2,-2.518633E-1,2.8151989E-2,-2.2732385E-3,-3.381866E-2],"categories":[],"categories_nodes":[],"categories_segments":[],"categories_sizes":[],"default_left":[0,0,0,0,0],"id":65,"left_children":[1,3,-1,-1,-1],"loss_changes":[3.848646E-1,6.28926E-2,0E0,0E0,0E0],"parents":[2147483647,0,0,1,1],"right_children":[2,4,-1,-1,-1],"split_conditions":[1E0,1.76E0,2.8151989E-2,-2.2732385E-3,-3.381866E-2],"split_indices":[8,0,0,0,0],"split_type":[0,0,0,0,0],"sum_hessian":[3.7728667E0,2.5683908E0,1.2044759E0,1.048544E0,1.5198468E0],"tree_param":{"num_deleted":"0","num_feature":"26","num_nodes":"5","size_leaf_vector":"1"}},{"base_weights":[2.5700876E-3,-1.4826663E-2,1.4624956E-1,-4.453458E-3,2.6001116E-2],"categories":[],"categories_nodes":[],"categories_segments":[],"categories_sizes":[],"default_left":[0,0,0,0,0],"id":66,"left_children":[1,-1,3,-1,-1],"loss_changes":[1.3490924E-1,0E0,8.0579214E-2,0E0,0E0],"parents":[2147483647,0,0,2,2],"right_children":[2,-1,4,-1,-1],"split_conditions":[9.4E-1,-1.4826663E-2,1E0,-4.453458E-3,2.6001116E-2],"split_indices":[0,0,21,0,0],"split_type":[0,0,0,0,0],"sum_hessian":[4.2244635E0,2.0453255E0,2.1791377E0,1.0413189E0,1.1378188E0],"tree_param":{"num_deleted":"0","num_feature":"26","num_nodes":"5","size_leaf_vector":"1"}},{"base_weights":[2.6059868E-2,-8.156408E-2,1.1886357E-1,4.27402E-3,-1.7266858E-2,1.6469134E-2,9.231723E-4],"categories":[],"categories_nodes":[],"categories_segments":[],"categories_sizes":[],"default_left":[0,0,0,0,0,0,0],"id":67,"left_children":[1,3,5,-1,-1,-1,-1],"loss_changes":[6.937026E-2,4.5425512E-2,1.6643152E-2,0E0,0E0,0E0,0E0],"parents":[2147483647,0,0,1,1,2,2],"right_children":[2,4,6,-1,-1,-1,-1],"split_conditions":[1E0,1E0,1.97E0,4.27402E-3,-1.7266858E-2,1.6469134E-2,9.231723E-4],"split_indices":[2,21,0,0,0,0,0],"split_type":[0,0,0,0,0,0,0],"sum_hessian":[4.9747553E0,2.3595312E0,2.615224E0,1.222458E0,1.1370732E0,1.4901128E0,1.125111E0],"tree_param":{"num_deleted":"0","num_feature":"26","num_nodes":"7","size_leaf_vector":"1"}},{"base_weights":[3.3207936E-3,-1.2003691E-2,8.8786446E-2,1.7122452E-1,-8.587443E-3,5.106971E-3,2.1476204E-2],"categories":[],"categories_nodes":[],"categories_segments":[],"categories_sizes":[],"default_left":[0,0,0,0,0,0,0],"id":68,"left_children":[1,-1,3,5,-1,-1,-1],"loss_changes":[7.5152375E-2,0E0,7.5013325E-2,5.664937E-3,0E0,0E0,0E0],"parents":[2147483647,0,0,2,2,3,3],"right_children":[2,-1,4,6,-1,-1,-1],"split_conditions":[9.4E-1,-1.2003691E-2,2.03E0,1E0,-8.587443E-3,5.106971E-3,2.1476204E-2],"split_indices":[0,0,0,21,0,0,0],"split_type":[0,0,0,0,0,0,0],"sum_hessian":[5.117392E0,1.9288552E0,3.1885371E0,2.1795073E0,1.0090297E0,1.1576447E0,1.0218625E0],"tree_param":{"num_deleted":"0","num_feature":"26","num_nodes":"7","size_leaf_vector":"1"}},{"base_weights":[3.7357777E-3,-1.2948413E-1,2.635754E-2,-2.335063E-2,-1.1329943E-3],"categories":[],"categories_nodes":[],"categories_segments":[],"categories_sizes":[],"default_left":[0,0,0,0,0],"id":69,"left_children":[1,3,-1,-1,-1],"loss_changes":[2.1479627E-1,4.800217E-2,0E0,0E0,0E0],"parents":[2147483647,0,0,1,1],"right_children":[2,4,-1,-1,-1],"split_conditions":[1E0,1.88E0,2.635754E-2,-2.335063E-2,-1.1329943E-3],"split_indices":[8,0,0,0,0],"split_type":[0,0,0,0,0],"sum_hessian":[4.219217E0,3.1208382E0,1.0983787E0,1.1404816E0,1.9803566E0],"tree_param":{"num_deleted":"0","num_feature":"26","num_nodes":"5","size_leaf_vector":"1"}},{"base_weights":[-1.2563151E-1,-0E0,-2.2505544E-2],"categories":[],"categories_nodes":[],"categories_segments":[],"categories_sizes":[],"default_left":[0,0,0],"id":70,"left_children":[1,-1,-1],"loss_changes":[5.794806E-2,0E0,0E0],"parents":[2147483647,0,0],"right_children":[2,-1,-1],"split_conditions":[1E0,-0E0,-2.2505544E-2],"split_indices":[21,0,0],"split_type":[0,0,0],"sum_hessian":[3.6392665E0,2.0495133E0,1.5897532E0],"tree_param":{"num_deleted":"0","num_feature":"26","num_nodes":"3","size_leaf_vector":"1"}},{"base_weights":[-2.9631553E-10,-1.10027E-2,8.211315E-2,1.667236E-1,-9.092474E-3,4.901298E-3,2.0949906E-2],"categories":[],"categories_nodes":[],"categories_segments":[],"categories_sizes":[],"default_left":[0,0,0,0,0,0,0],"id":71,"left_children":[1,-1,3,5,-1,-1,-1],"loss_changes":[6.582672E-2,0E0,7.624459E-2,5.617723E-3,0E0,0E0,0E0],"parents":[2147483647,0,0,2,2,3,3],"right_children":[2,-1,4,6,-1,-1,-1],"split_conditions":[9.4E-1,-1.10027E-2,2.03E0,1E0,-9.092474E-3,4.901298E-3,2.0949906E-2],"split_indices":[0,0,0,21,0,0,0],"split_type":[0,0,0,0,0,0,0],"sum_hessian":[5.2860193E0,2.1137586E0,3.172261E0,2.1550136E0,1.0172474E0,1.1463307E0,1.0086828E0],"tree_param":{"num_deleted":"0","num_feature":"26","num_nodes":"7","size_leaf_vector":"1"}},{"base_weights":[-2.0592043E-2,-1.9128803E-2,1.1430979E-2],"categories":[],"categories_nodes":[],"categories_segments":[],"categories_sizes":[],"default_left":[0,0,0],"id":72,"left_children":[1,-1,-1],"loss_changes":[1.4541718E-1,0E0,0E0],"parents":[2147483647,0,0],"right_children":[2,-1,-1],"split_conditions":[9.4E-1,-1.9128803E-2,1.1430979E-2],"split_indices":[0,0,0],"split_type":[0,0,0],"sum_hessian":[4.365442E0,1.7425513E0,2.6228902E0],"tree_param":{"num_deleted":"0","num_feature":"26","num_nodes":"3","size_leaf_vector":"1"}},{"base_weights":[-6.0672276E-2,-1.8514378E-2,5.4486603E-3],"categories":[],"categories_nodes":[],"categories_segments":[],"categories_sizes":[],"default_left":[0,0,0],"id":73,"left_children":[1,-1,-1],"loss_changes":[7.880083E-2,0E0,0E0],"parents":[2147483647,0,0],"right_children":[2,-1,-1],"split_conditions":[1E0,-1.8514378E-2,5.4486603E-3],"split_indices":[2,0,0],"split_type":[0,0,0],"sum_hessian":[3.7937047E0,1.5310824E0,2.2626224E0],"tree_param":{"num_deleted":"0","num_feature":"26","num_nodes":"3","size_leaf_vector":"1"}},{"base_weights":[1.2284177E-1,-6.793195E-3,3.6544424E-2],"categories":[],"categories_nodes":[],"categories_segments":[],"categories_sizes":[],"default_left":[0,0,0],"id":74,"left_children":[1,-1,-1],"loss_changes":[2.2924131E-1,0E0,0E0],"parents":[2147483647,0,0],"right_children":[2,-1,-1],"split_conditions":[1E0,-6.793195E-3,3.6544424E-2],"split_indices":[8,0,0],"split_type":[0,0,0],"sum_hessian":[3.416732E0,2.3157206E0,1.1010115E0],"tree_param":{"num_deleted":"0","num_feature":"26","num_nodes":"3","size_leaf_vector":"1"}},{"base_weights":[8.2921935E-3,-1.5362862E-2,1.3137564E-2],"categories":[],"categories_nodes":[],"categories_segments":[],"categories_sizes":[],"default_left":[0,0,0],"id":75,"left_children":[1,-1,-1],"loss_changes":[1.299751E-1,0E0,0E0],"parents":[2147483647,0,0],"right_children":[2,-1,-1],"split_conditions":[1E0,-1.5362862E-2,1.3137564E-2],"split_indices":[2,0,0],"split_type":[0,0,0],"sum_hessian":[4.508946E0,1.8400828E0,2.668863E0],"tree_param":{"num_deleted":"0","num_feature":"26","num_nodes":"3","size_leaf_vector":"1"}},{"base_weights":[-1.8643603E-1,-3.0246152E-2,2.2623348E-3],"categories":[],"categories_nodes":[],"categories_segments":[],"categories_sizes":[],"default_left":[0,0,0],"id":76,"left_children":[1,-1,-1],"loss_changes":[1.04617745E-1,0E0,0E0],"parents":[2147483647,0,0],"right_children":[2,-1,-1],"split_conditions":[1E0,-3.0246152E-2,2.2623348E-3],"split_indices":[8,0,0],"split_type":[0,0,0],"sum_hessian":[3.0309286E0,1.661849E0,1.3690797E0],"tree_param":{"num_deleted":"0","num_feature":"26","num_nodes":"3","size_leaf_vector":"1"}},{"base_weights":[1.8973846E-2,-6.5614484E-2,9.637267E-2,-8.342631E-3,-1.7395767E-3,2.2887236E-3,1.2588737E-2],"categories":[],"categories_nodes":[],"categories_segments":[],"categories_sizes":[],"default_left":[0,0,0,0,0,0,0],"id":77,"left_children":[1,3,5,-1,-1,-1,-1],"loss_changes":[4.3135423E-2,1.3671042E-3,4.3654777E-3,0E0,0E0,0E0,0E0],"parents":[2147483647,0,0,1,1,2,2],"right_children":[2,4,6,-1,-1,-1,-1],"split_conditions":[1E0,1E0,2.5E0,-8.342631E-3,-1.7395767E-3,2.2887236E-3,1.2588737E-2],"split_indices":[12,4,4,0,0,0,0],"split_type":[0,0,0,0,0,0,0],"sum_hessian":[4.6226926E0,2.2815099E0,2.3411825E0,1.1328679E0,1.1486421E0,1.1796222E0,1.1615604E0],"tree_param":{"num_deleted":"0","num_feature":"26","num_nodes":"7","size_leaf_vector":"1"}},{"base_weights":[9.261846E-2,-2.551306E-3,1.9723585E-2],"categories":[],"categories_nodes":[],"categories_segments":[],"categories_sizes":[],"default_left":[0,0,0],"id":78,"left_children":[1,-1,-1],"loss_changes":[5.7647012E-2,0E0,0E0],"parents":[2147483647,0,0],"right_children":[2,-1,-1],"split_conditions":[1E0,-2.551306E-3,1.9723585E-2],"split_indices":[21,0,0],"split_type":[0,0,0],"sum_hessian":[3.2573488E0,1.8849908E0,1.372358E0],"tree_param":{"num_deleted":"0","num_feature":"26","num_nodes":"3","size_leaf_vector":"1"}},{"base_weights":[8.454842E-3,-1.4398362E-2,1.2420096E-2],"categories":[],"categories_nodes":[],"categories_segments":[],"categories_sizes":[],"default_left":[0,0,0],"id":79,"left_children":[1,-1,-1],"loss_changes":[1.1405247E-1,0E0,0E0],"parents":[2147483647,0,0],"right_children":[2,-1,-1],"split_conditions":[1E0,-1.4398362E-2,1.2420096E-2],"split_indices":[2,0,0],"split_type":[0,0,0],"sum_hessian":[4.4505043E0,1.8155075E0,2.634997E0],"tree_param":{"num_deleted":"0","num_feature":"26","num_nodes":"3","size_leaf_vector":"1"}},{"base_weights":[-4.1093677E-2,-1.6318029E-2,4.5043904E-2,1.771368E-2,-8.274774E-3],"categories":[],"categories_nodes":[],"categories_segments":[],"categories_sizes":[],"default_left":[0,0,0,0,0],"id":80,"left_children":[1,-1,3,-1,-1],"loss_changes":[6.272578E-2,0E0,8.0002986E-2,0E0,0E0],"parents":[2147483647,0,0,2,2],"right_children":[2,-1,4,-1,-1],"split_conditions":[1E0,-1.6318029E-2,3E0,1.771368E-2,-8.274774E-3],"split_indices":[2,0,4,0,0],"split_type":[0,0,0,0,0],"sum_hessian":[4.265712E0,1.3946288E0,2.8710833E0,1.221909E0,1.6491742E0],"tree_param":{"num_deleted":"0","num_feature":"26","num_nodes":"5","size_leaf_vector":"1"}},{"base_weights":[9.566696E-2,-5.4165285E-2,3.5625804E-2,6.954559E-3,-1.16191665E-2],"categories":[],"categories_nodes":[],"categories_segments":[],"categories_sizes":[],"default_left":[0,0,0,0,0],"id":81,"left_children":[1,3,-1,-1,-1],"loss_changes":[2.2600171E-1,4.0534027E-2,0E0,0E0,0E0],"parents":[2147483647,0,0,1,1],"right_children":[2,4,-1,-1,-1],"split_conditions":[1E0,1.76E0,3.5625804E-2,6.954559E-3,-1.16191665E-2],"split_indices":[8,0,0,0,0],"split_type":[0,0,0,0,0],"sum_hessian":[4.2940254E0,3.2293742E0,1.0646513E0,1.0379564E0,2.1914177E0],"tree_param":{"num_deleted":"0","num_feature":"26","num_nodes":"5","size_leaf_vector":"1"}},{"base_weights":[-9.147148E-2,-1.9437382E-2,5.5932193E-3],"categories":[],"categories_nodes":[],"categories_segments":[],"categories_sizes":[],"default_left":[0,0,0],"id":82,"left_children":[1,-1,-1],"loss_changes":[7.584056E-2,0E0,0E0],"parents":[2147483647,0,0],"right_children":[2,-1,-1],"split_conditions":[1E0,-1.9437382E-2,5.5932193E-3],"split_indices":[8,0,0],"split_type":[0,0,0],"sum_hessian":[3.2832294E0,1.7458227E0,1.5374068E0],"tree_param":{"num_deleted":"0","num_feature":"26","num_nodes":"3","size_leaf_vector":"1"}},{"base_weights":[7.275529E-2,-1.069507E-2,2.0998076E-1,2.954023E-2,4.707672E-3],"categories":[],"categories_nodes":[],"categories_segments":[],"categories_sizes":[],"default_left":[0,0,0,0,0],"id":83,"left_children":[1,-1,3,-1,-1],"loss_changes":[1.5644419E-1,0E0,3.366001E-2,0E0,0E0],"parents":[2147483647,0,0,2,2],"right_children":[2,-1,4,-1,-1],"split_conditions":[9.4E-1,-1.069507E-2,3E0,2.954023E-2,4.707672E-3],"split_indices":[0,0,4,0,0],"split_type":[0,0,0,0,0],"sum_hessian":[4.433305E0,2.0150638E0,2.418241E0,1.0528234E0,1.3654177E0],"tree_param":{"num_deleted":"0","num_feature":"26","num_nodes":"5","size_leaf_vector":"1"}},{"base_weights":[-5.8972977E-2,-1.5649703E-1,6.189655E-2,-4.872383E-3,-1.9395558E-2,1.5769374E-2,-6.06795E-3],"categories":[],"categories_nodes":[],"categories_segments":[],"categories_sizes":[],"default_left":[0,0,0,0,0,0,0],"id":84,"left_children":[1,3,5,-1,-1,-1,-1],"loss_changes":[7.434074E-2,3.948711E-3,4.6743795E-2,0E0,0E0,0E0,0E0],"parents":[2147483647,0,0,1,1,2,2],"right_children":[2,4,6,-1,-1,-1,-1],"split_conditions":[1.88E0,5E-1,1.97E0,-4.872383E-3,-1.9395558E-2,1.5769374E-2,-6.06795E-3],"split_indices":[0,4,0,0,0,0,0],"split_type":[0,0,0,0,0,0,0],"sum_hessian":[4.4848857E0,2.3190174E0,2.1658685E0,1.1915394E0,1.127478E0,1.0549184E0,1.1109501E0],"tree_param":{"num_deleted":"0","num_feature":"26","num_nodes":"7","size_leaf_vector":"1"}},{"base_weights":[9.3178764E-2,-3.634441E-2,2.877943E-2,-9.5526995E-3,3.012448E-3],"categories":[],"categories_nodes":[],"categories_segments":[],"categories_sizes":[],"default_left":[0,0,0,0,0],"id":85,"left_children":[1,3,-1,-1,-1],"loss_changes":[1.3877709E-1,1.8393602E-2,0E0,0E0,0E0],"parents":[2147483647,0,0,1,1],"right_children":[2,4,-1,-1,-1],"split_conditions":[1E0,1.88E0,2.877943E-2,-9.5526995E-3,3.012448E-3],"split_indices":[8,0,0,0,0],"split_type":[0,0,0,0,0],"sum_hessian":[4.090501E0,2.944252E0,1.1462485E0,1.3262324E0,1.6180197E0],"tree_param":{"num_deleted":"0","num_feature":"26","num_nodes":"5","size_leaf_vector":"1"}},{"base_weights":[1.4842926E-2,-1.20451655E-2,1.0587933E-1,2.161497E-2,-7.8059696E-3],"categories":[],"categories_nodes":[],"categories_segments":[],"categories_sizes":[],"default_left":[0,0,0,0,0],"id":86,"left_children":[1,-1,3,-1,-1],"loss_changes":[7.9022795E-2,0E0,9.2903E-2,0E0,0E0],"parents":[2147483647,0,0,2,2],"right_children":[2,-1,4,-1,-1],"split_conditions":[9.4E-1,-1.20451655E-2,1.97E0,2.161497E-2,-7.8059696E-3],"split_indices":[0,0,0,0,0],"split_type":[0,0,0,0,0],"sum_hessian":[4.3804417E0,1.6319659E0,2.748476E0,1.6088586E0,1.1396173E0],"tree_param":{"num_deleted":"0","num_feature":"26","num_nodes":"5","size_leaf_vector":"1"}},{"base_weights":[5.0464677E-9,3.5871092E-2,-7.907292E-3,-6.072771E-3,1.2554236E-2],"categories":[],"categories_nodes":[],"categories_segments":[],"categories_sizes":[],"default_left":[0,0,0,0,0],"id":87,"left_children":[1,3,-1,-1,-1],"loss_changes":[1.9587208E-2,4.8773598E-2,0E0,0E0,0E0],"parents":[2147483647,0,0,1,1],"right_children":[2,4,-1,-1,-1],"split_conditions":[1.97E0,9.4E-1,-7.907292E-3,-6.072771E-3,1.2554236E-2],"split_indices":[0,0,0,0,0],"split_type":[0,0,0,0,0],"sum_hessian":[4.9055805E0,3.7505252E0,1.1550553E0,1.960905E0,1.7896203E0],"tree_param":{"num_deleted":"0","num_feature":"26","num_nodes":"5","size_leaf_vector":"1"}},{"base_weights":[-6.403907E-2,-2.2865852E-2,7.0027136E-3],"categories":[],"categories_nodes":[],"categories_segments":[],"categories_sizes":[],"default_left":[0,0,0],"id":88,"left_children":[1,-1,-1],"loss_changes":[1.1902175E-1,0E0,0E0],"parents":[2147483647,0,0],"right_children":[2,-1,-1],"split_conditions":[1E0,-2.2865852E-2,7.0027136E-3],"split_indices":[2,0,0],"split_type":[0,0,0],"sum_hessian":[3.667417E0,1.329439E0,2.337978E0],"tree_param":{"num_deleted":"0","num_feature":"26","num_nodes":"3","size_leaf_vector":"1"}},{"base_weights":[-8.997461E-3,-1.2783003E-2,7.3958166E-2,1.217992E-3,9.761888E-3],"categories":[],"categories_nodes":[],"categories_segments":[],"categories_sizes":[],"default_left":[0,0,0,0,0],"id":89,"left_children":[1,-1,3,-1,-1],"loss_changes":[6.0782645E-2,0E0,4.219083E-3,0E0,0E0],"parents":[2147483647,0,0,2,2],"right_children":[2,-1,4,-1,-1],"split_conditions":[9.4E-1,-1.2783003E-2,1E0,1.217992E-3,9.761888E-3],"split_indices":[0,0,21,0,0],"split_type":[0,0,0,0,0],"sum_hessian":[4.2068834E0,1.5070764E0,2.699807E0,1.1671491E0,1.5326579E0],"tree_param":{"num_deleted":"0","num_feature":"26","num_nodes":"5","size_leaf_vector":"1"}},{"base_weights":[5.328164E-2,1.549765E-1,-1.8153321E-2,1.4026811E-4,2.4628816E-2],"categories":[],"categories_nodes":[],"categories_segments":[],"categories_sizes":[],"default_left":[0,0,0,0,0],"id":90,"left_children":[1,3,-1,-1,-1],"loss_changes":[1.5572105E-1,5.950184E-2,0E0,0E0,0E0],"parents":[2147483647,0,0,1,1],"right_children":[2,4,-1,-1,-1],"split_conditions":[2.03E0,1E0,-1.8153321E-2,1.4026811E-4,2.4628816E-2],"split_indices":[0,21,0,0,0],"split_type":[0,0,0,0,0],"sum_hessian":[4.342988E0,3.26777E0,1.0752177E0,1.5970727E0,1.6706975E0],"tree_param":{"num_deleted":"0","num_feature":"26","num_nodes":"5","size_leaf_vector":"1"}},{"base_weights":[2.0397129E-2,-6.2772967E-3,1.4466785E-2],"categories":[],"categories_nodes":[],"categories_segments":[],"categories_sizes":[],"default_left":[0,0,0],"id":91,"left_children":[1,-1,-1],"loss_changes":[6.34885E-2,0E0,0E0],"parents":[2147483647,0,0],"right_children":[2,-1,-1],"split_conditions":[1E0,-6.2772967E-3,1.4466785E-2],"split_indices":[8,0,0],"split_type":[0,0,0],"sum_hessian":[4.264061E0,2.8509128E0,1.4131482E0],"tree_param":{"num_deleted":"0","num_feature":"26","num_nodes":"3","size_leaf_vector":"1"}},{"base_weights":[-1.670799E-2,1.0537821E-2,-1.1894858E-2],"categories":[],"categories_nodes":[],"categories_segments":[],"categories_sizes":[],"default_left":[0,0,0],"id":92,"left_children":[1,-1,-1],"loss_changes":[7.219921E-2,0E0,0E0],"parents":[2147483647,0,0],"right_children":[2,-1,-1],"split_conditions":[1.76E0,1.0537821E-2,-1.1894858E-2],"split_indices":[0,0,0],"split_type":[0,0,0],"sum_hessian":[3.7799904E0,1.7088056E0,2.0711849E0],"tree_param":{"num_deleted":"0","num_feature":"26","num_nodes":"3","size_leaf_vector":"1"}},{"base_weights":[1.3856882E-1,-9.625037E-3,3.0168265E-2],"categories":[],"categories_nodes":[],"categories_segments":[],"categories_sizes":[],"default_left":[0,0,0],"id":93,"left_children":[1,-1,-1],"loss_changes":[1.9032156E-1,0E0,0E0],"parents":[2147483647,0,0],"right_children":[2,-1,-1],"split_conditions":[8.8E-1,-9.625037E-3,3.0168265E-2],"split_indices":[0,0,0],"split_type":[0,0,0],"sum_hessian":[3.2108357E0,1.4841572E0,1.7266785E0],"tree_param":{"num_deleted":"0","num_feature":"26","num_nodes":"3","size_leaf_vector":"1"}},{"base_weights":[3.590059E-2,1.09709054E-1,-8.615413E-3,-6.4724716E-3,2.8831301E-2],"categories":[],"categories_nodes":[],"categories_segments":[],"categories_sizes":[],"default_left":[0,0,0,0,0],"id":94,"left_children":[1,3,-1,-1,-1],"loss_changes":[5.6360867E-2,1.3345735E-1,0E0,0E0,0E0],"parents":[2147483647,0,0,1,1],"right_children":[2,4,-1,-1,-1],"split_conditions":[3E0,9.4E-1,-8.615413E-3,-6.4724716E-3,2.8831301E-2],"split_indices":[4,0,0,0,0],"split_type":[0,0,0,0,0],"sum_hessian":[4.207093E0,2.6847374E0,1.5223556E0,1.6807947E0,1.0039427E0],"tree_param":{"num_deleted":"0","num_feature":"26","num_nodes":"5","size_leaf_vector":"1"}},{"base_weights":[-1.0760729E-1,-2.1425024E-2,7.3886053E-3],"categories":[],"categories_nodes":[],"categories_segments":[],"categories_sizes":[],"default_left":[0,0,0],"id":95,"left_children":[1,-1,-1],"loss_changes":[1.01721615E-1,0E0,0E0],"parents":[2147483647,0,0],"right_children":[2,-1,-1],"split_conditions":[1E0,-2.1425024E-2,7.3886053E-3],"split_indices":[8,0,0],"split_type":[0,0,0],"sum_hessian":[3.4376943E0,2.051674E0,1.3860203E0],"tree_param":{"num_deleted":"0","num_feature":"26","num_nodes":"3","size_leaf_vector":"1"}},{"base_weights":[-7.5414486E-2,9.382705E-3,-1.9594178E-2],"categories":[],"categories_nodes":[],"categories_segments":[],"categories_sizes":[],"default_left":[0,0,0],"id":96,"left_children":[1,-1,-1],"loss_changes":[1.0930998E-1,0E0,0E0],"parents":[2147483647,0,0],"right_children":[2,-1,-1],"split_conditions":[1E0,9.382705E-3,-1.9594178E-2],"split_indices":[21,0,0],"split_type":[0,0,0],"sum_hessian":[3.4575124E0,1.530271E0,1.9272413E0],"tree_param":{"num_deleted":"0","num_feature":"26","num_nodes":"3","size_leaf_vector":"1"}},{"base_weights":[4.318213E-2,1.799619E-2,-1.0254645E-2],"categories":[],"categories_nodes":[],"categories_segments":[],"categories_sizes":[],"default_left":[0,0,0],"id":97,"left_children":[1,-1,-1],"loss_changes":[1.1507413E-1,0E0,0E0],"parents":[2147483647,0,0],"right_children":[2,-1,-1],"split_conditions":[1.76E0,1.799619E-2,-1.0254645E-2],"split_indices":[0,0,0],"split_type":[0,0,0],"sum_hessian":[3.8472898E0,1.8634024E0,1.9838873E0],"tree_param":{"num_deleted":"0","num_feature":"26","num_nodes":"3","size_leaf_vector":"1"}},{"base_weights":[4.6558738E-2,-8.2760705E-3,1.1723615E-1,1.9394081E-2,1.4384976E-4],"categories":[],"categories_nodes":[],"categories_segments":[],"categories_sizes":[],"default_left":[0,0,0,0,0],"id":98,"left_children":[1,-1,3,-1,-1],"loss_changes":[5.1066443E-2,0E0,2.9388528E-2,0E0,0E0],"parents":[2147483647,0,0,2,2],"right_children":[2,-1,4,-1,-1],"split_conditions":[1E0,-8.2760705E-3,3E0,1.9394081E-2,1.4384976E-4],"split_indices":[21,0,4,0,0],"split_type":[0,0,0,0,0],"sum_hessian":[3.5256083E0,1.1855065E0,2.3401017E0,1.001729E0,1.3383727E0],"tree_param":{"num_deleted":"0","num_feature":"26","num_nodes":"5","size_leaf_vector":"1"}},{"base_weights":[-1.603319E-1,4.917419E-4,-3.031375E-2],"categories":[],"categories_nodes":[],"categories_segments":[],"categories_sizes":[],"default_left":[0,0,0],"id":99,"left_children":[1,-1,-1],"loss_changes":[9.805804E-2,0E0,0E0],"parents":[2147483647,0,0],"right_children":[2,-1,-1],"split_conditions":[1.76E0,4.917419E-4,-3.031375E-2],"split_indices":[0,0,0],"split_type":[0,0,0],"sum_hessian":[3.092094E0,1.8810169E0,1.2110772E0],"tree_param":{"num_deleted":"0","num_feature":"26","num_nodes":"3","size_leaf_vector":"1"}}]},"name":"gbtree"},"learner_model_param":{"base_score":"[8.275568E-10]","boost_from_average":"1","num_class":"0","num_feature":"26","num_target":"1"},"objective":{"lambdarank_param":{"lambdarank_bias_norm":"1","lambdarank_normalization":"1","lambdarank_num_pair_per_sample":"4294967295","lambdarank_pair_method":"topk","lambdarank_score_normalization":"1","lambdarank_unbiased":"0","ndcg_exp_gain":"1"},"name":"rank:ndcg"}},"version":[3,1,3]}